%YAML:1.0
---
opencv_ml_ann_mlp:
   format: 3
   layer_sizes: [ 256, 55, 55, 4 ]
   activation_function: SIGMOID_SYM
   f_param1: 2.
   f_param2: 1.
   min_val: -9.4999999999999996e-01
   max_val: 9.4999999999999996e-01
   min_val1: -9.7999999999999998e-01
   max_val1: 9.7999999999999998e-01
   training_params:
      train_method: BACKPROP
      dw_scale: 1.0000000000000000e-03
      moment_scale: 0.
      term_criteria:
         iterations: 20
   input_scale:
      - 4.1308477157096596e-02
      - -1.6285703196656934e-01
      - 2.5578524189505781e-02
      - -2.2653995506132230e-01
      - 1.6329642497504428e-02
      - -3.6161734110048993e-01
      - 1.2537236159770709e-02
      - -4.8303806757830869e-01
      - 1.0824100883781594e-02
      - -6.1725831255156305e-01
      - 1.0085385829033731e-02
      - -7.1012422274082787e-01
      - 1.0179605867588688e-02
      - -7.3377992295535122e-01
      - 1.0666100704416611e-02
      - -6.8740267863196058e-01
      - 1.0915190122674908e-02
      - -6.8659036440799992e-01
      - 1.0249226044329686e-02
      - -6.9076021422079303e-01
      - 9.7624677967769313e-03
      - -7.0603077495152777e-01
      - 9.4358546247912626e-03
      - -6.9725161877735831e-01
      - 9.5437270310252970e-03
      - -6.5615963733248628e-01
      - 9.9713139274410518e-03
      - -5.6661397862092855e-01
      - 1.0672917227830240e-02
      - -4.8530008752020953e-01
      - 1.1758836995098512e-02
      - -4.1073687616956456e-01
      - 2.7876559072722115e-02
      - -2.7793593123100918e-01
      - 1.9505618416407626e-02
      - -3.7492198097013663e-01
      - 1.3609693690056822e-02
      - -5.1493383214110333e-01
      - 1.0759410149117542e-02
      - -7.1466820151192056e-01
      - 9.7889083058630786e-03
      - -8.9477225544207584e-01
      - 9.6804252480210962e-03
      - -9.9059657112649213e-01
      - 9.5810649916795478e-03
      - -9.3848337548211902e-01
      - 9.5961537097966967e-03
      - -8.8543557960393959e-01
      - 9.5621497664528099e-03
      - -8.9708712000410995e-01
      - 9.3034649616640704e-03
      - -9.4337411600111820e-01
      - 9.0335862184091047e-03
      - -9.5633236007207734e-01
      - 8.9488284625535465e-03
      - -9.7174689072835918e-01
      - 8.7000565054993276e-03
      - -9.5082209805910234e-01
      - 8.8460489329636720e-03
      - -8.1322219287897979e-01
      - 9.4942792975616763e-03
      - -6.2755961696258988e-01
      - 1.0719903946494580e-02
      - -4.9576365304934311e-01
      - 2.1317652535689943e-02
      - -3.5533650585780002e-01
      - 1.6009146946363347e-02
      - -4.7207130878991166e-01
      - 1.2083042265003745e-02
      - -6.7552956877296977e-01
      - 1.0170281875183868e-02
      - -9.2586391977709326e-01
      - 9.6781521665064534e-03
      - -1.0712360659180304e+00
      - 9.5903786504385174e-03
      - -1.1399611194255370e+00
      - 9.3454060939985283e-03
      - -1.0777302169581469e+00
      - 9.4546461758594821e-03
      - -1.0052080390315206e+00
      - 9.2559901203841735e-03
      - -1.0155373009611384e+00
      - 9.1019878878807799e-03
      - -1.0905319238167159e+00
      - 9.0319468073364190e-03
      - -1.1519853901111250e+00
      - 8.8836679908353370e-03
      - -1.1906142135137896e+00
      - 8.8131128532515212e-03
      - -1.1727210585383201e+00
      - 8.7649725772752565e-03
      - -1.0103369977170302e+00
      - 8.9538713587184269e-03
      - -7.6059495240669117e-01
      - 1.0167735937227036e-02
      - -5.5977017668698137e-01
      - 1.6834056081121367e-02
      - -4.4687905718917270e-01
      - 1.3603336112842748e-02
      - -5.8430242262866661e-01
      - 1.1411903238405175e-02
      - -8.2101171720823896e-01
      - 1.0013023288667470e-02
      - -1.0451093057546672e+00
      - 9.6780030184609300e-03
      - -1.1531657435880731e+00
      - 9.5459283404715246e-03
      - -1.2346067320343173e+00
      - 9.3805112612476878e-03
      - -1.1864485532926490e+00
      - 9.2038586449233704e-03
      - -1.1122653163710494e+00
      - 9.0885730411506514e-03
      - -1.1616738158088586e+00
      - 8.9580901516432016e-03
      - -1.1482218678746834e+00
      - 8.9755121171341684e-03
      - -1.1963431607238872e+00
      - 9.0362837482156518e-03
      - -1.2482397852452081e+00
      - 9.0972976293639853e-03
      - -1.3152183395134764e+00
      - 8.8741438492171108e-03
      - -1.1177239485798900e+00
      - 9.0872821884646036e-03
      - -8.6225506440049304e-01
      - 1.0661706376329077e-02
      - -5.7472203225933027e-01
      - 1.4910926286559696e-02
      - -5.2533648876759698e-01
      - 1.2348740093478618e-02
      - -6.7736147110969536e-01
      - 1.0743434469262476e-02
      - -9.1420445595336208e-01
      - 1.0059572810395137e-02
      - -1.1243319069229483e+00
      - 9.7499582342346503e-03
      - -1.2407837473712993e+00
      - 9.5876445296196773e-03
      - -1.3081237620620976e+00
      - 9.5913425065480840e-03
      - -1.3192282643629489e+00
      - 9.0987724187269470e-03
      - -1.2261182560630610e+00
      - 9.0520130869040823e-03
      - -1.2280788925526036e+00
      - 8.8752144344939020e-03
      - -1.1887504476487012e+00
      - 9.1737539919064907e-03
      - -1.3276551647751098e+00
      - 9.3634870843716540e-03
      - -1.4572251896132706e+00
      - 9.2706041732156848e-03
      - -1.3965135119819072e+00
      - 8.9708315842975863e-03
      - -1.1719394705819874e+00
      - 9.1265791147213098e-03
      - -9.1673680422131942e-01
      - 1.0980569484815813e-02
      - -6.0477011516718204e-01
      - 1.4104637967739621e-02
      - -5.5765092949238804e-01
      - 1.1985936747178814e-02
      - -7.7671367191874374e-01
      - 1.0399445023488125e-02
      - -9.8196862803384066e-01
      - 9.9885457561498091e-03
      - -1.1511501705815150e+00
      - 9.8941220897237163e-03
      - -1.3340083837778582e+00
      - 9.8919239980251889e-03
      - -1.4464681761278955e+00
      - 9.7337246767763234e-03
      - -1.4198008660229162e+00
      - 9.2961119138470927e-03
      - -1.3281035998582966e+00
      - 9.0511322174495340e-03
      - -1.2840261214255528e+00
      - 8.9814277429377878e-03
      - -1.2590081654672429e+00
      - 9.3591073905090489e-03
      - -1.4331875978017814e+00
      - 9.5308821087461831e-03
      - -1.5460263230169529e+00
      - 9.2774363660226133e-03
      - -1.3941142882103117e+00
      - 9.0769124700494069e-03
      - -1.1512280503308199e+00
      - 9.3968399858997617e-03
      - -8.9506299204978856e-01
      - 1.1345820826204745e-02
      - -6.3073421500756166e-01
      - 1.3506180711669556e-02
      - -5.9616120873443801e-01
      - 1.1297484772168489e-02
      - -8.3463531101053090e-01
      - 1.0206914065323194e-02
      - -1.0112135577573764e+00
      - 1.0166929429830975e-02
      - -1.2549803514947608e+00
      - 1.0304320039167730e-02
      - -1.4905434055069715e+00
      - 1.0155623597689657e-02
      - -1.5353227424884217e+00
      - 9.8775618423477020e-03
      - -1.4694980061718501e+00
      - 9.4103161235091302e-03
      - -1.3872747777316039e+00
      - 9.2791009657523290e-03
      - -1.3795758593576120e+00
      - 9.4422014620399591e-03
      - -1.4534573676143225e+00
      - 9.7114380431424785e-03
      - -1.5862352673175879e+00
      - 9.7327705983384256e-03
      - -1.5751253306033175e+00
      - 9.4696724655320089e-03
      - -1.4243448968505981e+00
      - 9.1926360807089540e-03
      - -1.1538491020233521e+00
      - 9.5057815893612972e-03
      - -8.9454308532106541e-01
      - 1.1488847204028679e-02
      - -6.4705119067094263e-01
      - 1.2686960327374371e-02
      - -6.4052158188516417e-01
      - 1.0983759802958647e-02
      - -8.7832485198153099e-01
      - 1.0335071349613921e-02
      - -1.1200018392325657e+00
      - 1.0328106846891880e-02
      - -1.4102220454549013e+00
      - 1.0371234177485721e-02
      - -1.5655830703517681e+00
      - 1.0211273182826608e-02
      - -1.5625831178714413e+00
      - 9.8643033924950690e-03
      - -1.5087099742271477e+00
      - 9.8773508910147551e-03
      - -1.5179028780726143e+00
      - 9.8527687775501575e-03
      - -1.5776892623635190e+00
      - 1.0102244259526237e-02
      - -1.6935390250188525e+00
      - 1.0033667342443467e-02
      - -1.7000645792826721e+00
      - 9.8546898372479739e-03
      - -1.5917572677098502e+00
      - 9.4184728266877033e-03
      - -1.4018340961820859e+00
      - 9.1532814053557985e-03
      - -1.1306527291511546e+00
      - 9.4158675702574225e-03
      - -8.8130839052686216e-01
      - 1.0741551010763684e-02
      - -6.7411757633026848e-01
      - 1.2347931931705127e-02
      - -7.1249894733108243e-01
      - 1.0773663510759776e-02
      - -1.0011918472652783e+00
      - 1.0365548178745923e-02
      - -1.2290527138389120e+00
      - 1.0564890437085478e-02
      - -1.4832980401162807e+00
      - 1.0624670892728760e-02
      - -1.6346920477008040e+00
      - 1.0103634461515748e-02
      - -1.5287761191174423e+00
      - 9.9651361069980991e-03
      - -1.5401671472038172e+00
      - 9.9727762778921095e-03
      - -1.5924634032987075e+00
      - 1.0412731857641595e-02
      - -1.8923384035771733e+00
      - 1.1655785957484299e-02
      - -2.1559099057045450e+00
      - 1.0628471103035948e-02
      - -1.8517949352817797e+00
      - 9.8011405411435448e-03
      - -1.5657273397708256e+00
      - 9.2967231632183206e-03
      - -1.3753893205964867e+00
      - 9.1072199970037588e-03
      - -1.1294940483188769e+00
      - 9.3180290381872262e-03
      - -9.0664052778504645e-01
      - 1.0585558296068432e-02
      - -6.9537561598374542e-01
      - 1.1690184025755338e-02
      - -7.7641145830579628e-01
      - 1.0441321314354076e-02
      - -1.0815520453720189e+00
      - 1.0415476811297231e-02
      - -1.2895817219201837e+00
      - 1.0652496064074628e-02
      - -1.4932252605293499e+00
      - 1.0381994870625239e-02
      - -1.5697308454835126e+00
      - 9.9775036527684144e-03
      - -1.4289458046356946e+00
      - 9.8588446676237378e-03
      - -1.4668356847045658e+00
      - 1.0213312227742386e-02
      - -1.6396672333559061e+00
      - 1.1122558634005793e-02
      - -2.0024964083532284e+00
      - 1.1200206949241925e-02
      - -2.0234929441799565e+00
      - 1.0291422872297555e-02
      - -1.7541975319709096e+00
      - 9.6689915571999911e-03
      - -1.5674845375489945e+00
      - 9.4010976954374444e-03
      - -1.4113491180133555e+00
      - 9.0952272211918435e-03
      - -1.1215281375845847e+00
      - 9.2818794669951368e-03
      - -8.9949054852601140e-01
      - 1.0975422046643748e-02
      - -6.7055691145094765e-01
      - 1.1548316543763197e-02
      - -8.1934618478205612e-01
      - 1.0753384179511712e-02
      - -1.1156102684250371e+00
      - 1.0651771271858745e-02
      - -1.3184155921109328e+00
      - 1.0752676792979745e-02
      - -1.4942753857363156e+00
      - 1.0402063161408862e-02
      - -1.4841153935047200e+00
      - 1.0188759889376496e-02
      - -1.4378685235948268e+00
      - 9.9361637115239054e-03
      - -1.4448739490788318e+00
      - 1.0544329100069368e-02
      - -1.7154096191796382e+00
      - 1.0834915333470269e-02
      - -1.8627562723654736e+00
      - 1.0249614088152099e-02
      - -1.7049338228061894e+00
      - 9.8918999843817836e-03
      - -1.6078753501399141e+00
      - 9.7038131458977214e-03
      - -1.5401915329485878e+00
      - 9.4042096639276474e-03
      - -1.3682985117418538e+00
      - 9.2350359250194976e-03
      - -1.0951030199579173e+00
      - 9.6370529857293420e-03
      - -8.4100496323677310e-01
      - 1.1265173981627297e-02
      - -6.5645342709008514e-01
      - 1.1870851535054917e-02
      - -8.4880121467170944e-01
      - 1.1088327662518896e-02
      - -1.1231826902952982e+00
      - 1.0877185311622467e-02
      - -1.2954533470690366e+00
      - 1.0813657918666595e-02
      - -1.4308840277983232e+00
      - 1.0371667478566094e-02
      - -1.4313930055686941e+00
      - 1.0170408522866523e-02
      - -1.4375589935723974e+00
      - 1.0238440585751107e-02
      - -1.4802672392906979e+00
      - 1.0430929233550832e-02
      - -1.6302621407216749e+00
      - 1.0415134535405509e-02
      - -1.6728844886131913e+00
      - 9.9512625774845331e-03
      - -1.5513406276671597e+00
      - 9.8082628819973795e-03
      - -1.5226257778153094e+00
      - 9.4737075799462590e-03
      - -1.4230533223696558e+00
      - 9.1318568672971376e-03
      - -1.2374481399550774e+00
      - 9.1945475063013246e-03
      - -1.0476493643737423e+00
      - 9.7751638531329253e-03
      - -8.6434074072203471e-01
      - 1.2032092282002966e-02
      - -6.4773360281423609e-01
      - 1.2597990971816329e-02
      - -8.3078626276292933e-01
      - 1.1668016959638459e-02
      - -1.0841069408451385e+00
      - 1.1157016910561550e-02
      - -1.2231543896352537e+00
      - 1.0791179884974376e-02
      - -1.3364951226289967e+00
      - 1.0654545049646956e-02
      - -1.4148030847621973e+00
      - 1.0462342669743305e-02
      - -1.4204290863489195e+00
      - 1.0572061207706655e-02
      - -1.4927005766208634e+00
      - 1.0665180948411544e-02
      - -1.6237420577856918e+00
      - 1.0349252794623372e-02
      - -1.5687947703500615e+00
      - 1.0022113154172424e-02
      - -1.4451728087155460e+00
      - 9.5415578780072945e-03
      - -1.3225517404547242e+00
      - 9.2707003013868718e-03
      - -1.2698468160838150e+00
      - 9.3346268742035346e-03
      - -1.1799875902161594e+00
      - 9.3431385754063241e-03
      - -1.0142542331791162e+00
      - 9.8652351738847972e-03
      - -8.1894664311780274e-01
      - 1.2300415779418547e-02
      - -6.0215294329692259e-01
      - 1.3874305935793783e-02
      - -8.1446167458904517e-01
      - 1.2647554030169093e-02
      - -1.0398347149764220e+00
      - 1.1814580698953039e-02
      - -1.1892758529570120e+00
      - 1.1128418784856169e-02
      - -1.2455493765048267e+00
      - 1.0920598304713107e-02
      - -1.3311050103268092e+00
      - 1.0794191835604322e-02
      - -1.3627667192450457e+00
      - 1.0798195019074355e-02
      - -1.4733322953902506e+00
      - 1.0752749273545779e-02
      - -1.5344109208889865e+00
      - 1.0611167750579296e-02
      - -1.4341919586695666e+00
      - 9.8956523689565212e-03
      - -1.2197373256283452e+00
      - 9.6826761904502401e-03
      - -1.1829915299807674e+00
      - 9.4617514224021194e-03
      - -1.1359311302159758e+00
      - 9.5375117071178194e-03
      - -1.0035392526590579e+00
      - 9.7557686028089709e-03
      - -8.9224149762763660e-01
      - 1.0477009465639257e-02
      - -7.5515540249658186e-01
      - 1.3037810723260702e-02
      - -5.6250133982528239e-01
      - 1.4720357323046015e-02
      - -8.0913773630755015e-01
      - 1.3344640329282870e-02
      - -9.5584296041109917e-01
      - 1.2541795692179615e-02
      - -1.0899666530023004e+00
      - 1.1685612917159466e-02
      - -1.1650602449887817e+00
      - 1.1190013469465203e-02
      - -1.2513554497140789e+00
      - 1.1426540911539428e-02
      - -1.3352785915897898e+00
      - 1.1168987183642946e-02
      - -1.3924779646384848e+00
      - 1.1046976634818784e-02
      - -1.3800227334305242e+00
      - 1.0588941727864435e-02
      - -1.2117247469212011e+00
      - 1.0250001003974090e-02
      - -1.1287406859554880e+00
      - 1.0010851578076152e-02
      - -1.0826914746896110e+00
      - 9.8044993364555886e-03
      - -1.0185347720898961e+00
      - 1.0057691455031118e-02
      - -9.0365065026847291e-01
      - 1.0787012814068315e-02
      - -7.6286011454729563e-01
      - 1.1874446319570329e-02
      - -6.2603541742155355e-01
      - 1.5021334118779704e-02
      - -4.5981972774708979e-01
      - 1.5153748832577195e-02
      - -8.1580687911570837e-01
      - 1.4574535120222904e-02
      - -9.0422844975049599e-01
      - 1.3393387137108706e-02
      - -9.6479556558151669e-01
      - 1.2571496298720392e-02
      - -1.0529501170754627e+00
      - 1.2134901595806087e-02
      - -1.1774646704680594e+00
      - 1.1867247847937475e-02
      - -1.2584580597317268e+00
      - 1.1620172546386103e-02
      - -1.2728296639661265e+00
      - 1.1201413442211372e-02
      - -1.2261158276453918e+00
      - 1.0849300286503751e-02
      - -1.1088619921295826e+00
      - 1.0617757733832844e-02
      - -1.0036256428578636e+00
      - 1.0462504609842341e-02
      - -9.7554032938249702e-01
      - 1.0756241487056298e-02
      - -8.9289609391956626e-01
      - 1.1463337867807278e-02
      - -7.4840357315727102e-01
      - 1.1833616363551978e-02
      - -6.4540754961390412e-01
      - 1.3294241572504051e-02
      - -5.3334571634055317e-01
      - 1.6696708685750159e-02
      - -3.9762350396967516e-01
   output_scale:
      - 5.2631578947368418e-01
      - 4.9999999999999994e-01
      - 5.2631578947368418e-01
      - 4.9999999999999994e-01
      - 5.2631578947368418e-01
      - 4.9999999999999994e-01
      - 5.2631578947368418e-01
      - 4.9999999999999994e-01
   inv_output_scale:
      - 1.8999999999999999e+00
      - -9.4999999999999996e-01
      - 1.8999999999999999e+00
      - -9.4999999999999996e-01
      - 1.8999999999999999e+00
      - -9.4999999999999996e-01
      - 1.8999999999999999e+00
      - -9.4999999999999996e-01
   weights:
      -
         - -1.6655892090214400e-02
         - -6.8398758844431347e-03
         - 1.6656708616913582e-02
         - 2.1111138783196100e-02
         - 2.1404596570161253e-02
         - 1.5632655018571345e-02
         - 1.3734768906699776e-02
         - -3.6316737865047709e-02
         - -4.7122286065318210e-03
         - -9.5430447076031918e-03
         - -1.7267749421886053e-02
         - -4.2134654310693430e-03
         - -1.6088686534451765e-02
         - -8.3884811677341159e-02
         - 6.6572760606407305e-03
         - -1.1883049970351948e-02
         - -5.8539791712383306e-02
         - -1.8245590120056734e-02
         - 3.3992175296609422e-03
         - 4.4933530867990706e-02
         - -1.5759803955359249e-02
         - -8.9257631721663747e-03
         - -9.5622267061606561e-03
         - -6.6149904090335096e-03
         - 4.5805060772681108e-02
         - -4.5469823434477665e-03
         - -5.8041175965234740e-02
         - 7.2603804399679950e-02
         - -4.3590542217154978e-03
         - 3.8322259215513722e-02
         - -2.2828669566229656e-02
         - 9.7234018290813290e-04
         - 2.0515129009080816e-02
         - -9.1614388191299766e-03
         - 5.8536757023757414e-02
         - -5.8142296037674394e-02
         - 2.3604472506548367e-02
         - 3.3640586250514859e-02
         - 1.6002388957074100e-02
         - -6.9356774809643138e-03
         - -1.9007265139309410e-02
         - 3.4716610791457180e-04
         - 4.7191435398832589e-02
         - -2.2566437660242744e-03
         - -3.0847926814556136e-02
         - -4.1207062091172385e-02
         - 1.1875448119505085e-02
         - -1.1794484220191092e-02
         - -1.8732281918370643e-02
         - -2.4060110111145040e-02
         - -3.3513956586550930e-02
         - 3.6569124366372288e-02
         - 7.0074792273726073e-03
         - 1.3180222177453843e-02
         - -9.8320702726523226e-03
         - 1.4151152799657642e-02
         - 1.1944783075909069e-02
         - 2.8567789044437332e-02
         - -2.7070038096355848e-02
         - 1.2412591946735158e-02
         - 3.8327631400011711e-03
         - 2.7204188938889554e-02
         - -8.0565956060947852e-03
         - 2.0026763291029100e-02
         - 7.0040166018727939e-03
         - -6.7678491669385960e-03
         - 1.7034339400132516e-02
         - -4.5612578477509345e-03
         - -2.7726768532932565e-02
         - 1.4225900933248267e-02
         - -2.1493132429304302e-02
         - -9.2690704125467038e-02
         - -1.0479638915122194e-02
         - 4.3072134800412418e-03
         - 3.1370009023355162e-02
         - -2.3793749979643258e-02
         - 7.8365529532662178e-03
         - -1.4247706912424784e-02
         - 2.9734054262783950e-02
         - 5.1436819688593698e-02
         - -3.5213127096410841e-02
         - -9.3875566119113130e-02
         - 1.6869245944655758e-02
         - 1.3782515994385076e-02
         - 3.4672504385784300e-02
         - -3.3483469322520346e-02
         - -4.1444219869977211e-03
         - -2.3181747681307541e-02
         - -3.9241868260916904e-03
         - 2.1802587103459104e-02
         - -4.3478629697048014e-02
         - 2.7398809663943511e-02
         - -7.3753958219112707e-03
         - 2.0614929769326184e-03
         - -7.3640693155198021e-03
         - 6.4723562969516320e-03
         - -4.1413754985618639e-02
         - 3.8537002838663154e-02
         - 2.4335033239674567e-02
         - -6.1526740657140984e-02
         - -3.5991086934364175e-02
         - 4.0036051824960672e-02
         - 5.4084960427524167e-03
         - -7.0818308118273752e-03
         - -3.3040907535658713e-02
         - -2.2379349042390490e-02
         - 3.8429084082227082e-02
         - 3.4019482815046929e-03
         - -3.7205290253172264e-03
         - -6.1017234394659274e-02
         - -1.6642972025686511e-02
         - 1.0243765774714303e-02
         - -8.2104815829658565e-03
         - 5.4821335580911047e-02
         - 7.9771368330611783e-03
         - 2.1096997557802113e-02
         - -1.3338732149810522e-03
         - -1.4959997970732370e-02
         - -5.3356712011512642e-03
         - 2.8985288755777453e-03
         - -2.9160531140367055e-02
         - 6.1652286871473365e-03
         - -1.5513833447310168e-02
         - -6.3593637237979048e-02
         - -4.8525217142819915e-03
         - -2.5094442222998711e-02
         - -8.6779278278916419e-02
         - 8.0457756857661451e-03
         - -1.4171004659448186e-02
         - 7.0963167578923757e-03
         - 2.7148052880435120e-03
         - 2.0329196788273995e-03
         - -1.1585467856958130e-02
         - -7.1182360780988260e-03
         - -9.5786771430760378e-03
         - 5.7099501688365794e-03
         - -2.9141350418802510e-02
         - 1.8395651759653527e-02
         - 1.9049798778306589e-03
         - 1.9157270604036096e-02
         - -4.1385815110824314e-02
         - -1.4997757816627478e-02
         - -3.6110150930997284e-04
         - -1.0291836674634998e-02
         - 4.1766427477135042e-02
         - -1.6100642653869134e-02
         - 1.0052231737014111e-02
         - 2.4650406719089878e-02
         - 3.6815084787161195e-02
         - 6.9008606119528313e-03
         - -1.2084541488443470e-02
         - 2.8224948857461674e-02
         - 5.8938462234909374e-02
         - 3.3642336307341003e-03
         - -3.2674916472356361e-02
         - -2.7319069447954134e-02
         - 3.3930842942628235e-03
         - -1.0130318559169933e-03
         - -1.1526477028942486e-03
         - -2.4660152795864334e-02
         - -2.0379901393961772e-02
         - 1.9502144417713297e-02
         - 2.7864672839516846e-03
         - 8.6294630514831792e-03
         - -1.5507906704555596e-02
         - -1.2641036131380802e-02
         - 6.3964429180478595e-03
         - -1.6500148018433142e-03
         - 2.5449695471880356e-03
         - 1.0406341061173812e-02
         - 6.5838331058581260e-03
         - 1.3625190194442634e-02
         - -2.1323203577554860e-02
         - -2.5049324516426500e-03
         - 1.8980983952847797e-02
         - -7.3410884981638226e-03
         - 2.0795106093079007e-02
         - -6.9259383454824902e-03
         - -2.9987968820642599e-02
         - 1.3735436526556018e-02
         - -1.7949273482815612e-02
         - -4.7860560460267376e-02
         - 2.1468493293743115e-02
         - -4.4159375957993959e-03
         - -6.8273849874474386e-03
         - -7.0794769370138263e-03
         - 2.2075066516928522e-03
         - -6.2668524740882720e-03
         - -2.0913439871921265e-03
         - -9.3686154500661322e-03
         - -7.3637620130136989e-03
         - -6.2544290266268142e-03
         - 1.2451631041576686e-02
         - 3.9155757175525835e-03
         - 2.1208772297149327e-02
         - -3.1354436790964751e-02
         - -4.5367124056861982e-03
         - -1.2751649626539173e-02
         - -6.2186473715594194e-03
         - 1.5123332474635424e-02
         - -1.5100832987114709e-02
         - -1.2566416674105257e-03
         - 1.5089375438957451e-02
         - 5.5893877747853059e-04
         - -9.0159643091540162e-03
         - 3.0151926205368904e-03
         - 1.9766161346878267e-02
         - 1.4421909184134586e-02
         - 8.3178609632563408e-03
         - -1.6296329525674162e-02
         - -1.5148676987935913e-02
         - 4.4964583275178736e-02
         - 6.1109517840906742e-03
         - 1.6771546331623716e-03
         - -2.1519765789972646e-02
         - -1.2121877858242488e-03
         - 2.2736062808693145e-02
         - 3.3148289947747627e-03
         - 1.5090348298404963e-03
         - -5.0560285264839256e-03
         - -8.4368955041209930e-03
         - 9.5982740604921221e-03
         - -7.0383656509729097e-03
         - -1.9246741957578303e-02
         - 1.1443738389158591e-02
         - 9.1246949180918344e-03
         - 1.5988372249165765e-02
         - -1.5091408419939738e-02
         - 1.6858364553780456e-02
         - 1.9972401363280982e-02
         - -1.6107732534685681e-02
         - 1.5099049926006835e-02
         - -1.0284560882474640e-02
         - -2.8574418731064755e-02
         - 6.5240688372804022e-03
         - -1.7950939850591045e-02
         - -6.3474678043928506e-02
         - 2.5289165665436316e-02
         - -1.6938428769951972e-02
         - 2.3821620008554522e-03
         - -5.0583683157351643e-03
         - -6.9210283231519350e-03
         - -2.4218013338605342e-03
         - 1.4438904149005628e-02
         - 7.1654053050114616e-02
         - -1.6134733042023439e-02
         - -6.4400591457888734e-02
         - -3.1033758842257977e-02
         - 8.4237752772983714e-03
         - 2.3558356354184885e-02
         - -4.7558345865219238e-02
         - -1.9853250248031439e-03
         - -1.1032913058810913e-02
         - -2.4935877246223693e-03
         - -1.1312115312487820e-02
         - 3.0954576730281562e-02
         - 1.2003478440618687e-02
         - 1.4921073732484398e-02
         - -4.3515874598914014e-04
         - -5.8836272187638480e-03
         - 1.6249724446541363e-02
         - -1.9770164897394447e-02
         - 1.8473748919868204e-02
         - 1.4418573174866436e-02
         - -2.2894139185871132e-03
         - -2.6069870611425908e-02
         - 1.9475091742507167e-02
         - 2.3124742592149122e-02
         - 1.0983709453968760e-02
         - -1.7524256660035816e-02
         - -9.9478081054684732e-03
         - 3.1820884756005308e-02
         - -3.6634358665514660e-03
         - 1.4117462014166878e-03
         - -5.4562318041489182e-03
         - -3.3443474640675514e-03
         - -3.6491722233217968e-03
         - -2.2401647107497230e-02
         - -1.7844198522458672e-03
         - -5.2715586399034184e-03
         - -1.6541316952055200e-03
         - 8.7812132165467401e-03
         - 2.3589317586845027e-03
         - 1.5627168643310269e-03
         - 2.9771182219028969e-02
         - 1.5146444181371446e-02
         - 2.0059386747238016e-02
         - -1.7775274074695402e-03
         - 1.1929593487455288e-02
         - 9.7303692114062892e-03
         - -1.0015750741384605e-02
         - -3.6904243564600932e-02
         - 2.5171737344969063e-02
         - -3.6370302200040045e-03
         - -5.5468475120354008e-02
         - -3.1645102574058967e-03
         - 7.1816838740409788e-03
         - 5.3288214056231463e-03
         - 9.0562860744197726e-03
         - 7.9833642233602176e-02
         - -1.5489940054992025e-02
         - -3.0247114580808789e-02
         - -3.7472053554222264e-02
         - 7.2033548553911376e-03
         - 1.2751918241755051e-02
         - -9.7737910695575060e-03
         - -2.4880372133426039e-02
         - -9.8490739616512672e-03
         - 5.4638895918058469e-03
         - -3.7838016624920871e-03
         - 1.3109782583950753e-02
         - -1.3509187845579938e-02
         - -1.3964264925585711e-02
         - 1.2819870756258170e-02
         - -3.1351055893346436e-03
         - 1.5221648904001222e-02
         - -3.6534860061985877e-02
         - 1.4740821372377614e-02
         - 2.9164273997280871e-03
         - 1.6029985621091168e-02
         - 1.7759784644937486e-02
         - 9.7534359189902289e-02
         - 9.3831004708153486e-03
         - 3.6621816103510601e-03
         - -1.4425948100140942e-02
         - 4.3838016292667631e-04
         - 1.7133828319821097e-02
         - 2.8907322882517944e-03
         - -7.8730457515358721e-03
         - -1.0709625885368678e-02
         - 3.6860546012899137e-04
         - 6.1205698403641491e-03
         - -1.4683971798733157e-02
         - 4.0249173504141623e-02
         - 1.1321045578152807e-02
         - 1.1737294119254234e-02
         - -1.7356471788781806e-03
         - 2.6031233203797984e-03
         - -1.2373221595245274e-03
         - 2.7205410345163264e-03
         - 1.2668743408757789e-02
         - -2.2284163087743390e-03
         - 9.5815230571223990e-04
         - -2.8161556330720057e-03
         - -1.4610618862096416e-02
         - -1.4852856716933415e-02
         - -1.4718656630215201e-02
         - -1.2598445658276367e-02
         - -1.2813782228106781e-02
         - -1.0369045518848000e-02
         - 1.4398197064491934e-02
         - -5.8787247275305455e-03
         - 4.8599948049550109e-03
         - 3.8092337697064266e-04
         - 2.3702258015751855e-02
         - -9.9263299542703687e-03
         - 2.3149298402557895e-02
         - -6.3751650113892638e-02
         - -1.1475394179092609e-02
         - 1.4637312753929148e-02
         - 1.3762517629314843e-02
         - 1.1998306619054700e-02
         - -3.9222675147786721e-03
         - 5.0974284952700023e-03
         - 7.8587620588503465e-03
         - 4.4171788033667260e-02
         - -5.7840671765676515e-03
         - -2.1275916115216665e-03
         - 1.0390895423532082e-02
         - -1.0529981128018102e-02
         - -1.0486572010184312e-03
         - -6.4634240194950147e-03
         - 1.0736619407532974e-02
         - 5.7711480791015094e-03
         - 3.1673896743365466e-02
         - 1.0139465190232807e-03
         - 7.5011279893134372e-02
         - 2.4200928813447809e-02
         - -2.9673521903135405e-03
         - -4.8403076282433526e-03
         - -3.8411565334699189e-03
         - 1.2794123150085450e-02
         - -1.1989899469203508e-02
         - -1.0905093520524439e-02
         - -2.1956893537453521e-02
         - 3.0339889758690488e-03
         - -3.3833235508733978e-03
         - 6.7621260119090296e-03
         - 3.7500061994186359e-02
         - 1.3227688925572516e-02
         - 1.3569357093302023e-02
         - -8.1126436998008328e-03
         - 5.1159285020642925e-03
         - 4.1428085089077125e-04
         - -1.4362427846619433e-02
         - 2.8664920036723104e-02
         - -1.6548963317210747e-02
         - -7.4243584228553001e-03
         - -1.5807037799060789e-02
         - 8.1995363171165152e-04
         - -1.0432304592899142e-04
         - -6.5494838125341927e-03
         - -2.8205625404210233e-02
         - -7.1530867045684031e-03
         - 1.1291429234779396e-02
         - 1.1196628233863845e-02
         - -1.1523379610594768e-02
         - -2.2801545181645828e-03
         - -5.7638393091790354e-03
         - -3.2171790291318715e-03
         - -7.6244172739994330e-03
         - 1.9834966607869195e-02
         - -4.7752771769832995e-02
         - -1.2610733865342085e-02
         - 1.9185587546724569e-02
         - 1.8001164462081779e-02
         - 4.8309269537738515e-02
         - 2.3549861190178257e-02
         - -8.6953238278551954e-03
         - 2.7576486944943954e-02
         - 4.2411089718376579e-02
         - 1.4042230436511398e-02
         - 1.5346098561219101e-02
         - 1.7421593302114371e-02
         - -2.7667313065016987e-03
         - 6.6050179898946278e-04
         - -4.4572943726519246e-03
         - 1.0596906821588767e-02
         - 3.8725571449013349e-03
         - 2.4677169550007740e-02
         - -9.3629330355712425e-03
         - 3.5105526441389583e-02
         - 2.6809850729403041e-02
         - -1.5198058228946485e-02
         - 8.1823527895284499e-03
         - -2.1647346253969604e-02
         - 1.3836634367716512e-02
         - -8.5237817450137705e-03
         - 5.0712403494960166e-03
         - -3.1490761873409906e-02
         - 2.6531957737882784e-02
         - -1.4008933991311506e-02
         - 3.6437444968700605e-02
         - 1.5556004906186640e-02
         - 2.9529082558314703e-03
         - 9.6266057234771604e-04
         - 1.6471564274893979e-03
         - -1.1964108177304460e-02
         - 3.0390289105827060e-02
         - -7.8536971048564427e-03
         - 5.2228605132736250e-02
         - 9.3582271696078419e-03
         - -1.2346906289556772e-02
         - 3.3435981394885740e-03
         - 2.7859486079562473e-03
         - 8.4494362152744418e-03
         - 4.2856926276993869e-02
         - -2.3607695442940974e-02
         - 2.7388922846644386e-02
         - -2.3894076375497626e-03
         - -2.2930972260696666e-02
         - -4.6348478343570948e-03
         - 9.6030693486198358e-04
         - -4.6946440520858473e-03
         - -3.8211545205133631e-03
         - -1.1387719274274443e-02
         - -8.6864323888280609e-03
         - -6.6522384462035566e-02
         - 2.1364351530487823e-03
         - 2.2642035298913607e-02
         - 6.3980074527795569e-02
         - 6.8737540006995668e-02
         - -5.1274237096884685e-03
         - 7.6471542425660503e-03
         - 2.1115688881272937e-02
         - 5.0203649048388366e-02
         - 1.4733996452701535e-02
         - -1.3635989612470534e-02
         - 3.3279293829588705e-02
         - -1.6992457138138362e-03
         - -1.1680263995185323e-02
         - -1.7034496510573219e-02
         - -3.3642442391417886e-02
         - 1.3799713576903119e-02
         - 4.5845161287640740e-02
         - -5.7045745394169772e-04
         - 7.6854696206895501e-02
         - 1.4143561515610203e-02
         - -1.3756362953115626e-02
         - -1.2762114769259609e-02
         - -2.4081691851985006e-02
         - 2.5681778750419108e-02
         - 1.1140456940046254e-02
         - -2.1946895045336684e-03
         - -5.2328781619913875e-02
         - 6.8022682480130582e-03
         - -1.1185882927582847e-02
         - -8.8151073884704448e-04
         - 1.3325011441507316e-02
         - -7.2807097095227129e-03
         - -6.8496773895896099e-03
         - -1.3366129038509939e-02
         - 6.7619021405057678e-03
         - -4.5976690104351672e-04
         - 7.0014046532583729e-03
         - 1.9400575275180135e-02
         - -2.7063146402088466e-02
         - -5.9777311501313629e-04
         - 1.7250612863971736e-02
         - -2.2333941227412217e-02
         - -2.3768587770439478e-03
         - 5.3136667210737946e-02
         - 4.9953278587620952e-03
         - 1.4002839484034664e-02
         - -1.1488814439624828e-02
         - 9.5533396315373791e-04
         - -3.0719290318072874e-03
         - 1.6325522786558144e-02
         - -5.7410796677252090e-04
         - -1.5793310287489495e-02
         - 1.0530231465551970e-02
         - 5.2018947531914855e-02
         - -9.3877359825023030e-02
         - -1.3800717102004298e-02
         - -6.6157418313303809e-03
         - 7.3535126126946404e-02
         - 1.8529611487348767e-02
         - 7.2803131799445801e-03
         - 2.1269852019139057e-02
         - -1.8127615214908889e-02
         - 6.5344354052753725e-02
         - -1.2279421836520196e-02
         - -9.3674825279969150e-04
         - 4.6796826278777985e-03
         - -1.5923326751327751e-03
         - -4.9588157182653110e-03
         - -3.8959124185250732e-03
         - -5.9544462800149300e-02
         - -1.2992980825173910e-02
         - 4.0259013465873052e-02
         - 2.9521517448050393e-02
         - 6.4167933083131165e-02
         - -1.4184775931025658e-02
         - 2.8622545685673810e-03
         - 8.8299772199910524e-03
         - 1.8947470218609767e-02
         - 1.8820996675444050e-04
         - 3.9848953753300487e-03
         - -1.6962971081940369e-04
         - 2.8524565307870486e-03
         - -2.8722164308588763e-03
         - -1.9255722420468710e-03
         - 2.1404451404688882e-03
         - 4.5877628550998724e-03
         - 7.6618707002621914e-03
         - -3.1204677541425115e-03
         - -1.7809301387497697e-02
         - -2.2754775346171588e-03
         - -1.2590952082568285e-02
         - -6.4541250825008341e-03
         - 1.5756690490202802e-02
         - -2.0916808474986798e-02
         - -3.6751729362334879e-03
         - -8.9034927504547268e-03
         - -2.8193281229254009e-02
         - 2.7099531080224943e-03
         - 2.4147823246871137e-02
         - -5.1193095259244455e-04
         - 4.2901214727634075e-04
         - -6.7189612417881796e-03
         - 1.0406692795694113e-02
         - -7.0691448043436918e-03
         - -4.4088559622079086e-04
         - 3.7502511010916824e-03
         - 2.3608662902464290e-02
         - 3.8914566495760810e-03
         - 5.3081030663125660e-02
         - -4.8878173943444569e-02
         - -1.6799401393055344e-02
         - 6.9283978514345732e-03
         - 5.2611662867332598e-02
         - 3.2603040032813863e-03
         - 2.9218814467751222e-02
         - -2.2004503838737714e-03
         - 1.4494624896262883e-02
         - 1.9198184752253943e-02
         - -7.0673124476975336e-03
         - 1.2849933137691638e-02
         - 4.3748463563026791e-03
         - -1.2749018808185872e-02
         - 3.5774474528876875e-03
         - -9.0519430802863989e-03
         - -1.8131515318350916e-02
         - 4.1962586762495629e-03
         - 2.7134992301751384e-02
         - -4.2174379004403057e-03
         - 6.7022051498036320e-02
         - -2.2485009740509923e-03
         - 9.6555107862280956e-03
         - 1.0785951246965342e-02
         - 7.3270352528922366e-03
         - -2.9301321407322607e-03
         - -2.4639121206689102e-03
         - -3.3939624703307244e-03
         - -2.5433851224003403e-02
         - -2.8114837726690458e-02
         - 2.6910002941104922e-02
         - -1.8888403326870210e-02
         - -1.3035658310039359e-02
         - 1.8914271063036071e-04
         - 6.6768581328523731e-03
         - -1.8431474459954300e-02
         - -2.1136677865089458e-02
         - 1.3270734086970129e-03
         - -9.6164553635623585e-03
         - -5.7570802159787899e-03
         - -1.8084572537893921e-02
         - 1.3088387373912340e-05
         - -4.6253632733717825e-02
         - -3.9442296763297219e-02
         - -3.3098249973150341e-02
         - -6.7808719819513669e-02
         - 4.3233258914522378e-02
         - -3.4905470699144021e-02
         - 3.6530373005894165e-02
         - 1.8291784089521337e-02
         - -1.9283548273647665e-02
         - -1.4413623091067047e-02
         - 2.3020424436041461e-02
         - 3.1410260984933262e-02
         - -1.9580995132958971e-02
         - 1.7786192765838267e-02
         - -1.0295218870787998e-01
         - -1.9360488669501429e-02
         - 2.2537819958503260e-02
         - -4.9301433835953187e-02
         - -2.4161627403997948e-02
         - -1.0218258110873003e-03
         - -1.3854796432761909e-02
         - -1.2106806382293821e-03
         - -5.3282734249504943e-02
         - -5.2560113468511300e-03
         - 4.7882190801934843e-02
         - -1.9316735674599846e-02
         - -3.6441906254565552e-02
         - 1.6595489189379774e-02
         - -6.5087046487755590e-03
         - 1.2843780224839414e-02
         - 3.7768427711750950e-02
         - -4.3358761042370138e-02
         - -2.6528833545876127e-02
         - 5.1829538813501261e-02
         - 1.9470441005668086e-02
         - 1.1214899267559579e-02
         - -1.3847298840824990e-02
         - -1.9966669737636312e-03
         - -3.1323443713437362e-03
         - -1.1185759403361379e-02
         - -2.7987208511817663e-03
         - -3.5694400831966441e-02
         - -1.6634049950411151e-02
         - 3.1837978516624739e-02
         - -1.1332182559884770e-02
         - -2.9401622822655037e-02
         - 1.5306089060347201e-02
         - 1.3082418603730599e-02
         - -1.4704332350629901e-02
         - -3.7008523846144371e-02
         - 2.2534736899129222e-02
         - 1.8248314505516711e-03
         - 5.8036732779854225e-04
         - -2.0957394039996875e-03
         - -1.2063089087554822e-02
         - -8.1666363169362655e-02
         - -1.0522420287888122e-02
         - -3.6252036964513228e-02
         - -9.0186771872274613e-02
         - 6.8028605892521271e-02
         - -3.2338734198217797e-02
         - 8.1018208019636301e-02
         - -9.3188776263412373e-03
         - -6.9843483847091921e-03
         - -2.3855489052524957e-02
         - 2.8194660119296833e-02
         - 2.7908367034841914e-02
         - -3.6860431832881672e-02
         - -6.0864865133546504e-02
         - -8.0564469580229947e-02
         - 1.7892406896624462e-03
         - 4.4391423110992305e-02
         - -2.9737121485601634e-02
         - -4.6002684259945827e-03
         - -1.3717912444110344e-02
         - -3.1205098747426562e-02
         - 3.6316052177934348e-03
         - -3.8075925158567357e-02
         - 1.6347277904623710e-02
         - 4.0953574761146298e-02
         - -1.7636936226507877e-02
         - -4.0456088231709764e-02
         - 2.7312692298051586e-02
         - -2.8409727916115599e-02
         - 3.5339568378501066e-02
         - 4.9283856600139432e-02
         - -3.8914609086048185e-02
         - -7.0019265713746587e-02
         - 5.7399824536797463e-02
         - 2.7955553426877635e-02
         - 6.4856692603623744e-03
         - -2.9283518425181589e-02
         - -2.3924608325314407e-02
         - 3.1575602954996382e-02
         - 2.2687412483550491e-03
         - -3.4498067852656118e-03
         - -3.9759168510875159e-02
         - -8.1196207422897324e-03
         - 9.0513020893247653e-03
         - -1.3399316009283182e-02
         - -7.0133712152851566e-02
         - 1.0487650993024960e-02
         - 1.8070535820252100e-04
         - 9.9858379506310296e-03
         - -7.0642790525357203e-03
         - 8.8937439307329082e-03
         - 8.8723854683840971e-03
         - 1.4443325526729792e-02
         - 3.1918087817539016e-03
         - 5.3309856208887396e-03
         - -5.0728946769488185e-02
         - -4.8345231050375874e-03
         - -1.4143692650116956e-02
         - -3.3120918002562637e-02
         - 6.3730392520552598e-02
         - -3.9588445586652855e-03
         - 5.7219776801252779e-02
         - -8.5971096468023516e-03
         - 4.2035379109133042e-03
         - 4.6867033773363595e-04
         - 2.8575775837713809e-02
         - 8.3768050288761220e-02
         - -2.7739612002373421e-02
         - -1.4475921912032324e-02
         - -5.8359068069972236e-02
         - 2.3582117219985303e-04
         - 2.0893288280633217e-02
         - -2.0527839773082111e-02
         - -1.2836358822734794e-02
         - -1.1529414425456696e-02
         - -1.1968987858933893e-02
         - -5.1556157898570128e-03
         - -4.4744339011852832e-02
         - -1.2747347145967633e-02
         - -2.1357251882855414e-03
         - -1.9182936897294472e-02
         - -1.3324451576832309e-02
         - 1.7154719310034431e-02
         - -4.9875321708926307e-02
         - -1.2644942167385257e-03
         - 2.6376295978888714e-02
         - -1.1854008756982191e-02
         - -3.9100416120203658e-02
         - 6.0853656690258870e-02
         - 6.7104308733010719e-03
         - 5.2207494934872053e-03
         - -2.4770652973910942e-02
         - -9.6723165601221659e-03
         - 1.7137295974331810e-02
         - -5.6610793394637768e-03
         - 6.6877429570597283e-03
         - -5.3031838045148195e-02
         - 5.5531725876418400e-03
         - -1.2141573778002401e-02
         - -1.6422582267289303e-02
         - -7.8785186050250519e-02
         - 5.6396709003614194e-03
         - 6.4771769854413269e-03
         - 1.3665089165981867e-02
         - -9.8572659631535973e-03
         - -1.4490688637451128e-02
         - 4.0099510067633497e-03
         - 5.2092698805763546e-02
         - 1.2666790111669015e-02
         - -9.5664178556149528e-03
         - -8.3770340826089338e-03
         - 5.7768412131410339e-03
         - 2.7097588737387719e-04
         - 4.1624723048783209e-02
         - 2.1033902968874911e-02
         - 1.2431891638513467e-02
         - 2.6270764593328780e-02
         - 4.0233833241534759e-03
         - -9.5166488786371517e-03
         - -5.7646502290760815e-03
         - 1.1348535389060060e-02
         - 9.8323704386878985e-02
         - 7.6760134232620398e-03
         - 1.0696928847490949e-02
         - 2.0369816739510879e-02
         - -1.4674255324132093e-03
         - -1.6897821665493473e-02
         - 5.3795145165411493e-02
         - 2.3826691585243146e-02
         - 1.9358013046001966e-02
         - 1.4992926816463713e-02
         - -4.0241971525657337e-03
         - -1.6433923972070354e-02
         - -2.9207883482248562e-03
         - -6.4221409101770173e-04
         - 2.0130508109499949e-02
         - 1.6877328306994142e-02
         - 5.7624147555996891e-03
         - -5.6946003818658879e-02
         - -3.6773789874072288e-02
         - -1.4541298690614650e-02
         - 6.2569891630772270e-02
         - -1.4261326099959948e-02
         - 4.1652589467950710e-02
         - -1.3168799285969358e-02
         - 2.3028960528534400e-03
         - 9.5149497594431403e-03
         - -1.2780790978927290e-02
         - -1.1143649473573760e-02
         - 1.2394765402455130e-04
         - 7.6222426900503923e-03
         - -3.6898959374357269e-02
         - -1.8566381569898729e-02
         - -6.1601728964578804e-03
         - -3.1347256117516167e-02
         - -6.8090747554776010e-02
         - 7.8731540008386853e-03
         - 1.1303401486298360e-02
         - -8.9920412489209300e-05
         - -1.8813864384287435e-02
         - -3.1614774598836368e-02
         - -1.6477237976475808e-03
         - 3.0807442689645626e-02
         - 8.2871260933277680e-03
         - -1.2160010205942399e-02
         - -1.2994834387988451e-02
         - -9.8286733622386085e-03
         - -7.6999744056577011e-03
         - 2.9841560920274976e-03
         - 4.5849712403709220e-02
         - -1.4996346630108166e-02
         - -5.7096263836744470e-03
         - 1.9774819573949696e-02
         - -4.5905036999677627e-03
         - 5.6446475675001214e-04
         - -1.7260766347409245e-04
         - 9.8258053565377756e-02
         - 1.3715541400223350e-02
         - 6.6388006931524066e-02
         - 2.7688562909601571e-03
         - -1.6306470080453342e-02
         - -2.9665484146453598e-02
         - 7.7183265371889567e-03
         - -4.5931469369948101e-03
         - 1.5101268404564562e-02
         - 2.1314104873291096e-02
         - 1.4600834451361559e-02
         - -1.3034842853746134e-02
         - -4.4647373455593544e-03
         - 1.1127534232317148e-02
         - 1.6735712045170336e-02
         - 1.1788412287672103e-02
         - 9.7734292184151628e-04
         - -5.9362986785321911e-02
         - 1.9161176560668680e-02
         - -1.7357319987064568e-02
         - 5.4338652716318075e-02
         - -1.5547731713281467e-02
         - 1.7796554479900917e-02
         - 1.1646038033622872e-03
         - 1.1745582618688773e-02
         - 3.2110019966743557e-03
         - -5.4041253597911561e-03
         - -1.3016999255352798e-02
         - 3.6476076291992584e-03
         - 9.2742021162409184e-03
         - -8.3661099937894536e-03
         - -2.1456775069094339e-02
         - -2.8256460854294035e-02
         - -2.6033756849493201e-03
         - 2.9679925898665801e-02
         - -4.2430654464236011e-03
         - 3.2183195507013988e-03
         - 1.5795801396416603e-02
         - -1.4722927834303887e-02
         - -2.6310821786467476e-02
         - -7.0813023119453873e-03
         - -2.3371258392385255e-02
         - -2.6845902077938254e-02
         - -7.4885459270866896e-03
         - -4.1662674913003427e-02
         - 2.1838526129793232e-02
         - 7.2471717685466354e-03
         - -2.4502427707305117e-02
         - -1.3385273285606923e-02
         - 6.7929245482477715e-03
         - 5.2548300011410586e-04
         - -2.2663798030332148e-03
         - -6.3707208290991295e-03
         - -7.9523611108727656e-03
         - -3.3972847655938970e-02
         - -1.2865592496144700e-02
         - 3.4954291303629786e-02
         - 5.7137961312048293e-03
         - 2.3141149815407842e-02
         - -1.0262389042978473e-02
         - -5.2035080336038401e-03
         - 3.0751473303840069e-03
         - -7.4926681942295726e-03
         - 4.2324017894482216e-02
         - 2.1345432705517624e-02
         - 6.1279154292919830e-02
         - 9.4236696750122865e-03
         - 4.7451702158185340e-03
         - 1.3997214028108688e-02
         - 1.1722047540280597e-02
         - 1.3961596650848982e-02
         - -3.5398928219117325e-02
         - 2.3915227765269307e-02
         - 4.5726082601237485e-02
         - -3.3191856083970531e-02
         - -8.4262442454105732e-03
         - 1.8397661152555818e-03
         - 1.3013327390340492e-02
         - -2.8414767621791442e-02
         - -2.2223981950585878e-02
         - -4.1804644074438617e-03
         - 5.8867967033101034e-05
         - 2.0204972687778947e-02
         - 6.4110725017938073e-03
         - 7.1936085847557835e-03
         - 3.8395590919963855e-02
         - -6.2701053784804395e-03
         - -1.5472482147448573e-02
         - 5.0365192216577257e-03
         - -8.4337189036910783e-03
         - 9.2296986752104238e-03
         - 9.2306132016006369e-04
         - 8.7678948085790735e-03
         - -3.0759270948875327e-03
         - -1.9239605031535326e-02
         - 1.4374217632926011e-03
         - 1.1172856012418323e-02
         - 5.2243106031774492e-03
         - -1.1498717338047753e-02
         - 1.8080365843935540e-03
         - 1.2864642372868806e-02
         - 1.2860356227376664e-02
         - 3.0373209225986447e-02
         - -3.9773604131528957e-03
         - 1.6417755585210501e-02
         - -2.1451331203253026e-02
         - 8.0747655829774539e-03
         - 6.3070222979873800e-04
         - 2.5422293886795608e-03
         - -2.7796848525130546e-02
         - -2.2509535919827867e-02
         - 4.4692911157829453e-02
         - 1.0048879831865198e-02
         - 2.2268575312990490e-02
         - -6.9717261852159677e-03
         - -1.8633300644426660e-02
         - 6.7355076429933075e-02
         - 4.6666570607596398e-03
         - 4.3478382923522477e-02
         - 4.4006109309521549e-02
         - 2.0832917318346210e-02
         - 5.2254864738025701e-02
         - 4.8622872253785195e-03
         - -1.1757408489653513e-02
         - 1.1182891612402898e-02
         - 4.7703355364823438e-02
         - -3.0822966338048385e-02
         - -1.2916769449555264e-02
         - -1.3047447831204310e-02
         - -3.0797307370765709e-02
         - 2.3325421819606021e-02
         - 2.4267147765752672e-02
         - 1.7990225864043922e-02
         - -3.5632461498518245e-02
         - -1.3443209833366269e-02
         - 1.4555951497433748e-02
         - -6.8111315645259379e-03
         - -2.1757113723356461e-03
         - 5.0418240831993227e-03
         - 8.3185584065961667e-03
         - 1.9504996083356357e-02
         - -2.3021451645119231e-02
         - 3.5775989270594708e-03
         - -6.1881124870641988e-03
         - -1.5964422738722658e-02
         - 1.1784417126937331e-02
         - 1.1312470210383067e-02
         - 1.9663834973915762e-03
         - -1.4603008597044404e-02
         - 2.2575018934032368e-04
         - 1.6458662819415333e-02
         - -3.7576410922414878e-02
         - 2.4717549922241572e-04
         - -1.0943929715027285e-02
         - -4.7084761098025028e-02
         - -2.6727586613069418e-03
         - -2.0264593550717958e-02
         - -6.5850074737886566e-02
         - 5.9108022686005741e-02
         - -1.9875620820756442e-02
         - -1.6968588292958484e-03
         - 8.3413820926034159e-03
         - 2.2497852220643203e-03
         - -7.6673001806176642e-03
         - 7.2287826773154715e-03
         - 1.0595890074411921e-02
         - -3.1081077279373169e-04
         - -1.4242915844486663e-02
         - -2.7191816809261509e-02
         - -6.5348062032693638e-03
         - 1.8805715437803461e-02
         - -4.8962807433620463e-02
         - -5.0007545466104045e-02
         - 1.9038122553820219e-03
         - -1.5065158024829956e-02
         - 2.3575735590763980e-03
         - -5.6032345952907160e-02
         - 2.6918522712470953e-03
         - 2.5190150810411563e-03
         - 1.3110546757070039e-03
         - -9.1472026596607966e-03
         - 6.5051860434498865e-03
         - -1.7965947452223463e-02
         - 3.4112136071687713e-02
         - -1.0774350967167313e-03
         - -6.3753799062268746e-02
         - -1.6821306516290914e-02
         - -1.9576773030708246e-03
         - 2.2476848175944004e-03
         - -3.6644246582640430e-03
         - -2.0617985989133402e-02
         - -6.0376324080729429e-03
         - 1.0782548743849495e-02
         - -5.8236694901944979e-03
         - 4.2166257472652209e-03
         - -4.7299403676473858e-03
         - -8.0653952258146599e-03
         - -1.6291003977800454e-02
         - -7.1371155207598401e-03
         - -1.7206664421049737e-02
         - 2.0416662587946423e-02
         - 8.7361700324661805e-03
         - 4.8124217778879372e-04
         - -9.5886954132058493e-03
         - -1.6392196622159169e-02
         - 1.3409427760239873e-02
         - 6.8489694181959283e-03
         - 7.5437102313083652e-03
         - -1.6646061598220629e-02
         - -1.9864528672586545e-02
         - 1.0582023106752117e-02
         - 2.6315576911585137e-02
         - 4.2138294629995209e-02
         - 2.5562173519733292e-02
         - 5.6154413529877533e-03
         - -3.1440657821673164e-02
         - 1.0423897209653730e-02
         - -1.2881800337368202e-02
         - -1.1874014346364059e-03
         - -2.2692945458961541e-02
         - -1.7275671629089415e-02
         - 2.6294551852529574e-02
         - -2.5752263253739336e-02
         - 9.0036488094465787e-03
         - -1.2398334441787845e-02
         - -2.7130614739321234e-02
         - 3.6970017964407673e-02
         - 2.0183574888265769e-02
         - 4.4426453691012842e-02
         - 2.8652067928075953e-02
         - -1.3494871898722668e-02
         - 4.5854893051012764e-02
         - 8.5166190451361479e-03
         - -6.2262638612015314e-05
         - 3.6142354990844845e-02
         - 3.4168487704326518e-02
         - -1.9100455157621935e-02
         - -8.3055633881886064e-03
         - -1.6254418374317216e-02
         - -4.8821583656111320e-02
         - 5.0397205217298069e-02
         - -7.6152811948077004e-04
         - 1.2791455676744832e-02
         - -3.3889387334066670e-02
         - -5.2663712802313379e-03
         - 2.5701965103773736e-02
         - -1.3607137853195551e-02
         - -8.0737468273727707e-03
         - 2.8241491970395255e-03
         - 2.6782649676877254e-02
         - 3.8402828170918890e-02
         - -1.0104875060001042e-02
         - -1.0684498671542158e-03
         - -1.0703497876002842e-02
         - -2.5041266830356755e-02
         - 2.0480772260904334e-02
         - 1.9843150282368653e-02
         - -1.4690339346495756e-02
         - -2.7392767220082638e-02
         - 1.2385909160860494e-03
         - 1.6223863750628374e-02
         - -1.0866588122715357e-02
         - 5.4360226067611218e-03
         - -1.4409874198446365e-02
         - -3.9997585528567046e-02
         - -1.5002977135760249e-03
         - -7.4399350518051643e-03
         - -4.7634266407767578e-02
         - 3.3220930626199997e-02
         - -1.0763263460036920e-02
         - 5.8900201986039928e-03
         - 1.2795264653285614e-02
         - -1.6025847602890202e-02
         - -9.3859819273034162e-03
         - 4.1144231009510404e-04
         - 6.2109403331623660e-02
         - -4.8872089682425257e-03
         - -1.3056139256677474e-02
         - -2.0688147705340172e-02
         - -9.1594900239814411e-03
         - 3.0610894200184240e-02
         - -1.9596687769505926e-02
         - 2.1943532991970504e-02
         - 1.7844086826756374e-02
         - 2.0457054689349860e-03
         - 1.2100995435155065e-03
         - 4.9462959171667334e-02
         - 1.2527020597194407e-02
         - 6.9564109293015200e-03
         - 1.4630006055158825e-02
         - -1.9227538667497138e-03
         - -3.0503334256186398e-03
         - -3.9681924093368084e-02
         - 3.8270349003671510e-02
         - -1.1909796307929434e-02
         - 1.1590256197832480e-02
         - -1.1683646833776564e-02
         - 5.5989607028036674e-02
         - 8.6557793442027069e-03
         - 1.9911259584595845e-03
         - -4.3573219333036071e-03
         - -2.1297911881468276e-02
         - 2.4312149375697513e-02
         - -1.3046168789110908e-03
         - 1.3411508408619264e-02
         - 2.4955552356585770e-02
         - -3.1171724683244535e-02
         - 1.0327033119093849e-02
         - -3.5342821084148261e-02
         - -3.4582892904244961e-02
         - 6.2570633894410976e-03
         - 2.3352589406569174e-02
         - -3.2430813839813964e-02
         - -3.6307337566106458e-03
         - -1.7473893305546391e-02
         - 1.7417147468305277e-02
         - -6.3350003671371891e-03
         - -6.7204510820627348e-03
         - -1.0757289675150444e-02
         - -1.4012332563631932e-02
         - -3.6013260362084472e-02
         - -2.0930908041107893e-02
         - -7.3477957125310966e-02
         - 3.5173500292361937e-02
         - -3.3218850365990885e-02
         - -8.0462872981300695e-04
         - 2.3456345765347112e-02
         - -1.7802834634244789e-02
         - -8.4882209671947439e-03
         - 1.8334498308520013e-02
         - 7.4062172959173861e-02
         - -6.6456877561411097e-03
         - 7.1122524326237738e-02
         - -5.3316282068165216e-02
         - -2.2029281727611198e-02
         - -1.1848322982360977e-03
         - -3.2130079991558404e-02
         - -2.0357970303038674e-02
         - 2.2511790770103294e-02
         - 1.1707929978194717e-02
         - 2.0643461271020874e-02
         - -2.1878181922438556e-02
         - 3.4905319173438847e-03
         - 3.4230174857086654e-02
         - 4.1623628991193807e-03
         - 3.4158009383017936e-03
         - 1.2989427349675115e-02
         - -4.9049866313130470e-02
         - 4.9854099409332837e-02
         - -7.3364372579457510e-03
         - 2.8479119736497186e-04
         - 1.4670900622030117e-02
         - 5.2837404663940962e-02
         - 2.2131477541832131e-02
         - 8.6149567422471630e-03
         - -1.4265077567943860e-02
         - -4.4963371001632401e-03
         - 2.8290831488928087e-03
         - 3.3305380723795044e-03
         - -1.0354283213178240e-03
         - 8.3729434231755769e-03
         - -3.1520461060951195e-02
         - 1.2960665576330009e-02
         - -2.1624418896204409e-02
         - 3.6392323976060980e-04
         - -3.7193536489122975e-03
         - 7.0653970023000345e-03
         - -3.4583829106615782e-02
         - -8.1584050969373129e-03
         - -2.4487658879102179e-02
         - 1.0030217335824257e-03
         - -1.9210304310833901e-02
         - -1.7440514612950781e-02
         - -9.2391997261135079e-03
         - -1.8353072995373296e-02
         - -3.3533670681940797e-02
         - -2.8823832276849426e-02
         - -3.3383328906829782e-02
         - 2.1222467215680357e-02
         - -2.5640813137663386e-02
         - -5.3910411183058973e-03
         - 2.8077702771263265e-02
         - -1.3400895233590485e-02
         - -5.4076037760057262e-03
         - 6.3969109641986684e-03
         - 8.0527558523202074e-03
         - -1.9001836372262194e-02
         - 5.3131493378473449e-02
         - -7.4204147525170489e-02
         - -2.1390353698684205e-02
         - 3.0287169127221785e-03
         - -2.2000687373664542e-02
         - -3.3335667682464522e-03
         - 2.3012875610188568e-03
         - -3.9157354871736452e-03
         - 1.5142922119913478e-02
         - 1.2495747409127976e-02
         - -1.0926409379475643e-02
         - 4.0200954752402852e-02
         - 1.0656970126057701e-02
         - -6.0095916681622901e-03
         - -3.6648517989575037e-03
         - -1.5256486076306728e-02
         - 3.1057265177898148e-02
         - 5.9037351156813779e-03
         - -2.2192691624691114e-03
         - 1.0057571762332256e-02
         - 5.1046988007042729e-02
         - 6.8888733375686954e-03
         - -6.5233812233185598e-03
         - -2.8999489560935926e-02
         - 7.2211325399142989e-03
         - -8.4588172443694385e-04
         - -2.3554631558554660e-03
         - -1.4898859470963189e-02
         - 1.1980114022025670e-02
         - -2.5726352836000235e-02
         - 1.0958539516829404e-02
         - -2.0229048585357463e-02
         - -1.0281281096874643e-02
         - -2.9993747703380727e-04
         - 5.7389588449907672e-03
         - -3.7150615295563384e-02
         - -1.1121051342264075e-02
         - -9.8026723206619411e-04
         - -3.2694774957313860e-04
         - 8.0119530939331725e-03
         - -3.1559498845087575e-02
         - -1.6725944338576442e-03
         - -2.7695434518413900e-02
         - -2.2629253152056290e-02
         - -1.6755671490212194e-02
         - -1.0621522398702461e-02
         - 2.9399761944069812e-02
         - -1.4694522986201698e-02
         - -1.0734787682624160e-03
         - 1.3460801089954733e-02
         - -6.0504558106973961e-03
         - -3.2782047649579172e-03
         - 6.0407211677308619e-03
         - 4.9449692329968549e-02
         - -2.7143275033074413e-02
         - 4.8723173337068763e-02
         - -5.8401688344776194e-02
         - -1.6455824391070038e-02
         - 1.5116458927409463e-02
         - 3.0660320765037385e-02
         - 1.8372834254119307e-02
         - 9.4287893567365950e-03
         - -1.3169216570634553e-02
         - 4.4725164715502681e-05
         - 9.7121006770499538e-03
         - -1.1358170785669345e-02
         - 3.0283593509613294e-02
         - -1.2824034941529271e-02
         - -8.5874535545063611e-03
         - 1.4815812792604337e-02
         - -4.1466198787415469e-02
         - -1.2559297976360231e-02
         - 9.6835057463786518e-03
         - 1.0932257568221981e-02
         - -3.5263252927656102e-03
         - 4.3629008499975294e-02
         - 2.0245234904994740e-02
         - -4.0392641816796079e-03
         - -1.4521610714373757e-02
         - 1.3136643268850475e-02
         - 1.0815738820945584e-02
         - -8.8796204808403046e-03
         - -1.3980734178019533e-02
         - -2.5814642015883214e-02
         - -6.1864564871799629e-03
         - 1.5429591584659840e-03
         - 5.9108924734317149e-04
         - -4.3777593253237074e-03
         - -2.0494377201094221e-03
         - -6.0763698487368103e-04
         - -1.1845881541704521e-02
         - -2.0705308905676706e-02
         - -5.4756396175365263e-03
         - -5.1702718734337252e-03
         - 8.0548826045944433e-03
         - -1.5013765888166388e-02
         - -4.8736622376234781e-03
         - -1.6817855374408254e-02
         - -6.9472292815217340e-03
         - -1.6387004306131145e-02
         - 4.0776271753714538e-02
         - 2.2276256389149044e-02
         - 3.1192191549600169e-03
         - -7.1843021577967557e-03
         - 8.4855833034483460e-03
         - 1.1841442336068238e-04
         - 9.5552752414996955e-03
         - 1.1076571014607970e-02
         - 5.6674823843169631e-02
         - -1.6657848377455833e-02
         - 3.5708367964933485e-02
         - -7.1444248691860390e-02
         - 4.5683211802615047e-03
         - 1.4075614287302769e-02
         - 3.2669975099003275e-02
         - 2.9339028620167268e-02
         - -9.3112475644299263e-03
         - 5.0223835527374609e-03
         - 8.6904328702979931e-03
         - -5.0763291355212115e-04
         - -9.0824058883868918e-03
         - 2.2596175158935122e-02
         - 3.5170107102469330e-03
         - -2.6172310802268752e-02
         - -8.3642151217927854e-03
         - -5.7624764874226402e-02
         - -3.4954111535153473e-02
         - 1.4449655262624594e-02
         - 2.1933134870901861e-02
         - 6.0098952418248383e-03
         - 2.8728760288629539e-02
         - 4.8380445553614822e-03
         - -5.6709649481278233e-03
         - -1.7455200260677754e-02
         - 1.2797585201988254e-02
         - 1.1409701398164619e-02
         - 2.3436619667560887e-03
         - -1.4373093490039131e-02
         - -5.1940349581877661e-02
         - -3.3632035694877764e-02
         - 9.3333633290939254e-04
         - -1.7669545557184103e-02
         - -2.5567018260074317e-02
         - -1.1909721377786063e-02
         - 1.1775723211167649e-02
         - -3.8069139951128220e-02
         - -6.8397327990763436e-03
         - -1.9337816078447895e-02
         - -1.2405020817158397e-03
         - 1.4420576166454780e-02
         - -2.7723289115494532e-02
         - 1.8783171839248868e-03
         - -2.4955335247908609e-02
         - -4.0616015070859650e-02
         - -6.2142335415362581e-03
         - 6.1475283759523706e-02
         - 3.7939227955059253e-02
         - -1.5344654646983627e-02
         - 1.9611339828799392e-02
         - 3.4485954201645228e-02
         - -1.1646921583508664e-02
         - 6.0032433080519062e-03
         - 7.9131654970856381e-03
         - 4.8571300642361592e-02
         - 7.0631828486332690e-03
         - 7.7770705064685808e-02
         - -6.8956981219264912e-02
         - -2.6606976963741667e-02
         - -5.8640705524664882e-03
         - 6.5900266033724453e-02
         - 2.5906659732706155e-02
         - 2.5844683176107920e-02
         - 2.8874976814666536e-02
         - -1.8130911920083564e-02
         - 4.5846753818686255e-02
         - -8.7839812910856796e-03
         - 3.4563439340822580e-02
         - -1.0169489891294972e-02
         - -1.7113817105481037e-02
         - 2.0871791972626556e-03
         - -6.2543534015479380e-02
         - -9.4249591595540021e-03
         - 1.5800228234046719e-03
         - 2.6968094361796532e-02
         - 1.9218434634799778e-02
         - -3.0530405738023257e-02
         - -2.2562965927549546e-03
         - -5.4795693207077834e-03
         - 7.5451498934583474e-03
         - 1.8949242049448395e-02
         - -1.7438418987261371e-02
         - 1.1170240124825930e-03
         - -3.4613941668274015e-04
         - -3.5618197505256355e-02
         - -3.2541517128050458e-02
         - 2.5962444566146633e-03
         - -2.6642743178583672e-02
         - 7.3834896931894243e-03
         - 8.6626853325480740e-03
         - 1.2264470083559421e-02
         - -3.4355257725803473e-02
         - -8.1856864806066319e-03
         - -3.4459611575252895e-02
         - 7.9607601372426850e-03
         - -2.0580451511618118e-04
         - -1.8994884116064443e-02
         - -5.8087593835164340e-03
         - 7.2019460153461235e-03
         - -3.6798451122532820e-02
         - -1.3842559658952090e-02
         - 3.9368219198187442e-02
         - 3.2127656317188086e-02
         - -1.2125573790539962e-02
         - -1.7253779074159648e-02
         - 2.9305129127266811e-02
         - -2.0990615294453393e-02
         - -1.0228419551695723e-02
         - 9.8381297872355278e-03
         - 5.9277307274242380e-02
         - 2.1394237074872052e-03
         - 5.9372174526734510e-02
         - -6.1075031748057590e-02
         - -1.6191902656683476e-02
         - -1.3073283768893260e-02
         - 5.0508960588184333e-02
         - 2.0240044271717862e-02
         - 3.3482473361939630e-02
         - 8.0031480350765457e-03
         - -1.6527056226595810e-02
         - 1.6211555776140130e-02
         - -4.4690014947691725e-04
         - 3.2781047444040083e-02
         - 7.2559344574527778e-04
         - -8.5294203190656847e-03
         - 1.4772760926408309e-02
         - -2.5042355074785406e-02
         - 3.3139194222047530e-02
         - 5.0179124660282327e-03
         - 2.1879660990250304e-02
         - 6.1485819201905724e-03
         - -2.2261647243375673e-02
         - -6.2750934370723963e-03
         - -2.8057940109211133e-03
         - 5.2179382505109896e-03
         - 1.6228849660471081e-02
         - -1.8094158239960821e-02
         - 4.8141576487532754e-03
         - 1.6023147397297463e-03
         - -1.1322270276587228e-02
         - 7.1845221380929655e-03
         - -2.0246282554360284e-02
         - 9.0544791411970530e-03
         - -2.0874247726467639e-03
         - 2.1415260566087512e-02
         - 2.0499499496908470e-02
         - 1.7675472198505984e-02
         - -2.3413368512085357e-02
         - -1.4559459262722018e-02
         - -3.2103940034198513e-03
         - 5.6860511797074194e-02
         - 2.1847745101792694e-02
         - -1.7424163381345940e-02
         - -1.2611684352011106e-02
         - -9.6847182668658594e-03
         - 4.7822841500942542e-03
         - 4.1097225991321720e-02
         - -2.6060466413037955e-03
         - 1.2020120995959336e-02
         - 1.6719636598183669e-02
         - 3.7210055380796795e-04
         - -5.0456078992208687e-04
         - -8.2848334340776177e-03
         - 1.4579629191068734e-02
         - 6.2052070645036053e-02
         - 8.2346266871478249e-03
         - -4.4132227636935736e-02
         - -1.3732859297920591e-02
         - -1.1435892486487846e-02
         - -8.2462367887991255e-03
         - 7.5389619914174130e-02
         - 4.9763038922487367e-02
         - 1.8105227686280530e-02
         - 1.7253967477550390e-02
         - 2.8406009408159339e-02
         - 1.8028543064379815e-02
         - 2.0113527544962751e-02
         - 2.3511216485272705e-02
         - 2.9983415513555021e-02
         - 3.1124023720213272e-03
         - -2.1492208695323401e-03
         - -4.1992857364796667e-02
         - 2.6040639556170154e-03
         - 4.4792136047923882e-03
         - 5.4317554475474150e-02
         - -2.4533430161185556e-02
         - 2.9408897112058758e-02
         - -1.9374518586348422e-02
         - -3.6584410511175053e-03
         - -5.6555616286775821e-03
         - -3.5513405097628625e-02
         - 1.5521129480344433e-03
         - 2.3189804061033836e-03
         - 1.6693755471020501e-02
         - -3.4201739746467376e-02
         - 9.8385199085330947e-03
         - -1.9972604412520502e-02
         - -8.2010831051001435e-03
         - -1.0429219578264575e-02
         - 1.3703298830698768e-02
         - 5.7534973516679922e-03
         - 2.3427838278116255e-02
         - -2.2775967467540289e-02
         - -1.1140605089623560e-02
         - 1.1386322822053761e-02
         - 3.8644165242630334e-02
         - 3.6478986719425115e-02
         - -1.9457118523742802e-02
         - -3.1114386696937276e-02
         - 5.2087684027883401e-04
         - 5.4816545968348054e-03
         - 1.4098501564744376e-02
         - 3.7002560037452982e-02
         - 1.4303435604067062e-02
         - 3.5109913423107354e-02
         - 1.0887610695048315e-02
         - -7.2346198821831853e-03
         - 9.6140720788539299e-04
         - 4.1939007056625245e-03
         - 1.3210670328810101e-02
         - 1.0310356415933534e-02
         - -2.4070588836724902e-02
         - -5.8042401271184409e-02
         - -1.0458887959836535e-02
         - -4.9843373607086818e-03
         - 6.1511691198185656e-02
         - 3.0692428319240052e-02
         - 2.7343255133277129e-02
         - 1.1436302444000061e-02
         - 1.2518779010412874e-02
         - 2.0115316932698891e-02
         - 6.5896498708939780e-03
         - 2.5105492152177914e-03
         - 1.8330629187459875e-02
         - 2.4862387440222667e-02
         - -1.5724683904894399e-02
         - -1.1467061848466409e-02
         - 6.9843921976527950e-03
         - -1.3612192723979228e-02
         - 4.4698298768908629e-02
         - -3.3631483922372613e-02
         - 2.4651919565660645e-02
         - -1.9620192246426731e-02
         - 7.1221730590977361e-03
         - -5.8761516326366571e-03
         - -9.4517469624457832e-03
         - 3.7662849122821851e-03
         - 4.5389930624872791e-03
         - 9.5713431614923902e-03
         - -3.7123328359496485e-02
         - -6.3967914632732121e-03
         - -1.7602280759238215e-02
         - -1.0915421406027597e-02
         - -1.2903677595024128e-02
         - 1.7718238185690658e-02
         - 5.8767460420827301e-03
         - 2.1240690931748976e-02
         - -1.6744949393186739e-02
         - -2.1545701442665804e-02
         - -5.9178336550919442e-03
         - 3.2051138536521556e-02
         - 3.8066224969040836e-02
         - -2.0126534300737509e-02
         - -4.1769110127392317e-02
         - 1.2081939233521089e-02
         - 6.6454657648655976e-03
         - 3.7398905145184323e-03
         - 3.3626370387784453e-02
         - -1.2956852654285168e-03
         - 3.0022746236540637e-02
         - 1.2477651057414073e-02
         - -4.5833139960019219e-03
         - -7.6702849880573897e-03
         - 1.1335291886921907e-03
         - -3.2795601360978741e-02
         - 1.7729191902530167e-02
         - -2.1155687789847680e-02
         - -1.9922887820106355e-02
         - -1.1942449078042375e-02
         - 8.9563155739137059e-03
         - 6.6317687199018344e-02
         - 4.0513205507584346e-02
         - 3.3467450669677053e-02
         - -2.3338220038532482e-03
         - 4.3766300592055274e-02
         - 1.5516073599457574e-02
         - 7.5664699448951319e-03
         - 1.0160024289654911e-02
         - 2.4727252935155555e-02
         - 2.2794325997054121e-02
         - -1.3666948205415188e-02
         - 4.4724085583213481e-03
         - 4.3739362556013432e-03
         - -2.2092569300794784e-02
         - 4.7901510185004784e-02
         - -2.4896593230607448e-02
         - 9.3449070329783938e-03
         - -2.5412877546514234e-02
         - -8.7443033984788577e-03
         - -8.0157547363097993e-04
         - -2.4199273700513915e-02
         - 1.4220232849423582e-03
         - 1.0131696472012390e-02
         - 2.7453837379136276e-02
         - 4.7055960878370385e-04
         - -9.5064564828628816e-03
         - -1.1425537302675138e-02
         - -3.2961689715894950e-02
         - -7.0460843606246062e-02
         - -2.1477938105439209e-03
         - -1.0357232993529976e-02
         - 1.1363683907531204e-02
         - 7.9305927446867396e-03
         - -2.1144898329399045e-02
         - 1.7159216949022161e-02
         - 2.1754534791426729e-02
         - 1.4521360737322027e-02
         - 1.8187697165744394e-03
         - 1.5655585138921128e-02
         - -7.1296601068877290e-03
         - 3.9902199122332027e-03
         - 7.8149777501348716e-03
         - 6.6276664941638433e-02
         - -4.9568854134568316e-03
         - 4.5080583694366702e-04
         - 2.1856774875233468e-02
         - -2.5932395917064466e-03
         - 1.2584509495881651e-02
         - 1.6359399217135157e-02
         - 6.4322710919973047e-02
         - 2.0571394574413729e-03
         - 4.2052415523614946e-02
         - -5.0488801634655536e-02
         - -4.8598922709629580e-03
         - -2.0837757080622517e-02
         - 2.9265652206768421e-02
         - 8.7888242898259573e-03
         - 6.4867163304350656e-03
         - 2.1862769301483630e-02
         - -1.7790761980447534e-02
         - -4.8028294067937481e-02
         - -1.6021095656038164e-02
         - -2.1921579673671327e-02
         - 4.9335017797397490e-04
         - 1.3578191393058129e-02
         - 5.8787998188219188e-03
         - -4.1201822729245309e-02
         - -1.4010199312301833e-02
         - -8.3596860459753015e-03
         - 4.5650298947986417e-02
         - 1.8846422379348138e-02
         - 1.2485098621199772e-02
         - -5.1342938410430328e-03
         - 1.5204951615161388e-02
         - 6.7012907334838574e-03
         - 2.0326712761145196e-02
         - -3.0065353821206411e-02
         - 5.9651805771656361e-03
         - 8.2712239962692939e-03
         - -9.4748308873793402e-03
         - -1.2744346542382261e-02
         - 1.0854240469071344e-02
         - -3.2841944143037607e-02
         - -3.1772430476344808e-02
         - -2.0449990563089328e-03
         - 6.6367661811316103e-03
         - -9.7866168863693145e-03
         - -9.4775082412282309e-03
         - -2.0050732409903543e-02
         - 1.1845544519185540e-02
         - 1.2726401799177058e-02
         - 5.2705246035362101e-03
         - -4.7159015995498306e-03
         - 1.1457327189605768e-02
         - -2.4276702179557796e-02
         - -1.1358114840543446e-02
         - -1.6246089829105120e-02
         - 6.5069626791349464e-02
         - -1.6480481733096276e-02
         - -1.2309550376610613e-02
         - 2.6032842940325828e-02
         - -1.2710883143569487e-02
         - -4.9651157999086020e-03
         - 1.1324505550346902e-02
         - 8.6662550355032286e-02
         - -1.2117909522270869e-02
         - 3.5025769724972330e-02
         - -4.4869277735707196e-02
         - -8.0663456856758752e-04
         - 7.3017275312880665e-03
         - -6.1510912452969512e-03
         - -7.6961790134801224e-03
         - -3.3992337185412779e-03
         - 5.9440068368707896e-03
         - 3.5910019914903359e-03
         - -3.8665654281457774e-02
         - -8.5146085754545242e-03
         - 1.2195947590735196e-02
         - -1.3038422916238877e-02
         - 2.4226751185287233e-03
         - 1.2423731391484266e-02
         - -4.8295874648334305e-02
         - 3.8050830301236648e-02
         - 9.4812257076870715e-03
         - 1.5127301394854974e-02
         - 4.5335525408940420e-03
         - -7.9692125442985720e-04
         - 2.8568550772501899e-03
         - 9.9998083557304319e-03
         - -1.6609159923019975e-02
         - 9.1252064213038844e-03
         - -1.8428393303038942e-03
         - -3.2453678300247988e-03
         - 8.6127724798662085e-04
         - -1.4473583906650031e-02
         - -2.5055060445363687e-02
         - -4.3298604553441604e-03
         - -8.9006956294438409e-03
         - 1.3848920416409288e-02
         - 4.5281354743801610e-03
         - 1.7386704174199002e-02
         - -2.4408981122652600e-02
         - 1.1070799210593059e-04
         - -2.5704346047117365e-02
         - -1.3762281160229452e-02
         - -3.9982189750043286e-02
         - -1.9597279341518212e-02
         - 5.4207839416893023e-03
         - -3.8213065128793404e-02
         - 3.0367900675626501e-03
         - -7.3469751717479955e-03
         - -2.3859748944756443e-02
         - 2.4637171410795532e-02
         - -1.6736872096604162e-02
         - -3.3891672975735077e-03
         - 1.0972254167080347e-02
         - -1.1184976036666024e-02
         - -6.7295628443049755e-03
         - -2.3552864966383699e-02
         - -6.9463941937343038e-02
         - 2.6850905589391957e-02
         - 6.0233843253811703e-02
         - 8.9658108127810276e-03
         - -1.1783161719696100e-02
         - -7.8013074927728247e-03
         - -1.9542073006562709e-02
         - -2.7846632077607243e-02
         - 4.9938520489093162e-02
         - 3.1800860049044893e-02
         - 5.8756121547303718e-02
         - -1.4514297073378308e-02
         - -1.7455366864856650e-03
         - 1.3027699875841830e-02
         - 1.6304534021404703e-02
         - 1.9223108354771933e-02
         - -2.1953114660001223e-02
         - 3.2718243023771312e-02
         - 3.4872464012976716e-02
         - -2.7405500318974700e-02
         - -3.2796248616535871e-02
         - 1.4774279083358172e-02
         - 1.5712586874471926e-02
         - -1.7363462285043863e-02
         - -7.2802821224098434e-03
         - -1.2720128995863684e-03
         - 3.0948939132837464e-03
         - -1.0480652211297065e-02
         - 9.6566090926663195e-05
         - 3.0394407144340527e-03
         - 4.1676398313111623e-02
         - -3.0446353626729129e-03
         - -4.2519013147254339e-03
         - 7.3631624534853347e-03
         - -2.1082450435698587e-02
         - 2.0052409867753085e-02
         - 2.2070017744979860e-02
         - -7.6164459763430753e-03
         - -1.0352226160433929e-02
         - -1.4560095617152553e-02
         - 1.0575740940964938e-03
         - -1.8016877236154857e-02
         - 6.7469828125418657e-03
         - -1.1394695293924327e-02
         - -7.0470243830296292e-02
         - 6.5871224480431789e-03
         - 6.4181422955969511e-05
         - 3.8030388614136441e-04
         - 9.2088372600743172e-03
         - -8.7879327354919653e-04
         - 3.5723717515643454e-02
         - 5.6779435700661223e-03
         - -5.3981840187662571e-03
         - -9.1484135864735323e-03
         - -1.6226466590346454e-02
         - -7.6531700806835176e-02
         - 1.6125820685086462e-02
         - -2.4381128746554358e-02
         - 7.4770754881404791e-02
         - -8.5473594993905663e-03
         - -9.9492531973998169e-03
         - 2.1709885600975358e-02
         - 1.7378276271375549e-02
         - 3.5576032333580900e-02
         - 8.5453239333241390e-03
         - 3.1543427501043865e-02
         - -1.5818312239734719e-02
         - 4.7468438223605552e-03
         - 9.7862379505327616e-03
         - 1.6362068111482390e-02
         - 1.7323533972553328e-02
         - -2.8734853199038245e-02
         - -2.5213812297782362e-04
         - 2.2255126366654641e-02
         - 2.0339166645179244e-03
         - -1.1003521102584249e-02
         - -3.3976312387235058e-02
         - 2.1430396998707146e-02
         - -1.1389570583144970e-02
         - -8.0950666397061073e-03
         - -9.1914102041644064e-03
         - -1.6504293453742380e-02
         - 6.4848549123598231e-03
         - 6.5908298931700018e-03
         - 1.6766543772257770e-02
         - -7.9058529467348135e-03
         - -1.1133224660247092e-02
         - -7.3018474480775163e-03
         - -1.4429145518883172e-02
         - -5.5003310692799276e-02
         - 1.5226153116810267e-02
         - 1.3915355746601884e-02
         - -1.1523536435227926e-02
         - -1.7083481543075450e-03
         - -1.5770267642274738e-02
         - 5.0969564745461755e-03
         - -3.5030054724715876e-02
         - 4.0688217349346759e-03
         - -5.4201070223323135e-03
         - -5.3986044777197026e-02
         - 4.2654439882054166e-03
         - 1.4469976006875706e-02
         - -1.8470935711242052e-02
         - 3.6487386379658572e-02
         - -1.4749137135913439e-02
         - 1.6263068771677547e-02
         - 1.7044305196355018e-02
         - -3.7015167722337155e-03
         - -8.8978178867877844e-03
         - -9.8578867626014314e-03
         - -6.6596826011404431e-02
         - 1.3017899717605043e-02
         - -6.4121501825720626e-03
         - 5.3810577030841217e-02
         - -1.8397620710547225e-02
         - -2.7941249743917877e-02
         - -2.7549414775436688e-02
         - -2.5533575295863573e-02
         - 4.3126774164651625e-02
         - 1.4994369453291433e-02
         - -1.0052066271427703e-02
         - -7.7093442731642189e-02
         - 1.5887905504302469e-02
         - 5.6521839010849661e-03
         - 1.7484443291376800e-02
         - 2.3800909701029563e-02
         - -1.9068034978487039e-02
         - -3.1422397729137921e-02
         - 1.9204424803374205e-02
         - -3.4703340009714347e-02
         - -3.9108639203055649e-02
         - -1.3660575606190174e-02
         - 3.2579406052343017e-02
         - -1.7342578782431273e-02
         - -6.2594088811465123e-04
         - -4.7079267773855816e-03
         - -8.1741953334183610e-03
         - -1.8504552228720859e-02
         - -1.3803477622072618e-03
         - 2.0548374228954176e-02
         - 2.1774908228891176e-02
         - -2.0006971597597640e-02
         - -1.1868937097671624e-02
         - -3.3250307707234521e-02
         - -7.3540690778569340e-02
         - -3.3946468607497691e-03
         - 6.0614988585915314e-03
         - -6.5888202209083563e-03
         - 1.4539923826319974e-02
         - -2.4424420527361781e-02
         - 2.9254953605721237e-02
         - 1.5569748564212756e-02
         - 1.6342039259868387e-03
         - -9.5080867483697141e-03
         - 4.0561101161616563e-02
         - -3.4753625339545725e-03
         - 2.4481739799594060e-02
         - 1.4278698139681420e-02
         - 6.0841116218001950e-02
         - 5.5950574917411856e-03
         - -6.2735237006919756e-02
         - 1.6967440525243484e-02
         - -1.2480886967999091e-03
         - 5.5892281977407985e-03
         - 1.1658597725194363e-02
         - 4.5975648696467412e-02
         - 1.8702112340668098e-02
         - -2.3622033105830803e-03
         - 1.1474381152733167e-02
         - -5.8649420299191476e-03
         - -4.7304557231695993e-02
         - 3.7756511483225071e-02
         - -3.5488192334322453e-02
         - 4.1084512081252807e-02
         - 3.3200582483332922e-02
         - -3.1073653349019598e-02
         - -2.6437415306252900e-02
         - -5.3398326730526458e-03
         - -3.6397016591188568e-02
         - 8.0887017411681824e-05
         - 3.8933664004892295e-02
         - -1.3024164934826625e-03
         - -7.2962172755399540e-02
         - -2.6927253830308716e-02
         - -3.9754574323966625e-02
         - 2.4978578750125994e-02
         - 3.3115015431482056e-02
         - 3.9892111470668470e-02
         - -2.5677827183187472e-02
         - 1.0368152987544668e-02
         - 1.1772585051598353e-02
         - 2.2777565589215593e-02
         - -2.8230589147890353e-02
         - 2.5471312164319156e-04
         - 4.4592370063546950e-03
         - 4.1391780220738528e-02
         - -1.8574688876923019e-02
         - -9.2021331744890217e-03
         - -2.0336019932033680e-02
         - -3.2979308544637063e-02
         - 7.8857356093619338e-03
         - 2.2312658802462557e-02
         - -1.8100269724114715e-02
         - -1.4254284653217764e-02
         - -9.5631431776859246e-03
         - 1.2852291938628500e-02
         - 1.3722629543746506e-02
         - -5.5887107837021745e-03
         - -1.6609302098692727e-02
         - 1.5820032501916690e-02
         - -1.3903905088598323e-02
         - 9.9142080867896665e-03
         - -2.1201094039055311e-02
         - 5.1882687675386757e-02
         - 6.0094153352013445e-04
         - -2.1556386272304048e-02
         - 1.5502288632848920e-02
         - -1.2891115138175790e-02
         - 2.2183375245765722e-03
         - 8.5725972980294930e-03
         - 6.5966551353184522e-02
         - -2.7650384019388568e-03
         - -3.1445823924608707e-02
         - 3.5600251022304526e-02
         - -4.7332489173390396e-03
         - -5.5962343980396310e-03
         - -9.6085031503677257e-04
         - -3.1134552335570524e-03
         - 3.8743785141672545e-02
         - 1.4588298968173678e-02
         - -1.0186735865174455e-02
         - -2.7048108930190292e-03
         - 1.2671974257485792e-02
         - -4.8925207105633894e-03
         - -1.4497904793825171e-02
         - 2.5889328636366334e-02
         - 6.4121300731219801e-03
         - -5.0971371362235923e-02
         - 1.5601827180513513e-03
         - -2.7846194640136896e-02
         - 1.0656462487705454e-02
         - 9.5246273523504708e-03
         - 1.7532811089300018e-02
         - -9.1049405915246094e-03
         - 8.3709009234988561e-03
         - 5.4685510981352858e-03
         - -3.2101872482339336e-03
         - -1.3511110331967913e-03
         - -1.3213504977397409e-03
         - 5.6550010517944418e-04
         - 3.0659835880229483e-02
         - 2.2538081380682976e-02
         - -1.0032211002298359e-02
         - 1.1215353256287136e-03
         - -3.2337750298217408e-02
         - 1.9025348804816503e-02
         - 1.8124383445816364e-02
         - -9.4724308616695382e-03
         - -2.0005022285372858e-02
         - 1.6134265021009624e-03
         - 1.0407533077671210e-03
         - 2.3424565901287015e-02
         - 2.8078544953258153e-02
         - -2.4855367042450442e-02
         - 9.9862497670719888e-04
         - 1.5704678179650819e-04
         - 1.5578123468503891e-02
         - -2.3613241200220389e-02
         - 3.8730721288297722e-02
         - -3.2985312462550267e-03
         - -3.4207495289262074e-03
         - -1.0726758830413198e-02
         - -1.4079051197299616e-02
         - -2.3868241816737940e-02
         - 5.3187925636804488e-03
         - 3.3477660705369609e-02
         - -8.9360003364754251e-03
         - -3.2489872537403743e-02
         - 2.6984558065235805e-02
         - -1.0760285505599014e-02
         - 5.6522603804922437e-03
         - 3.4281582488702840e-02
         - 3.4300201263365471e-02
         - 4.0972767512030536e-02
         - -2.6248502217097140e-04
         - 1.5727581808558714e-02
         - 6.2136442230557455e-02
         - 2.3570661045277354e-02
         - 1.0420403555948267e-02
         - 1.6647308196589633e-02
         - 2.7903390131958271e-02
         - -5.8711362897301679e-04
         - -2.7656610629558254e-02
         - -5.2737964556902857e-03
         - -1.0918179009879873e-02
         - 4.8830995984982299e-02
         - -1.5819106234921960e-02
         - 2.4173482692166404e-02
         - 6.4737438267480334e-03
         - -5.2377298951027983e-03
         - -2.4850009276733108e-03
         - -3.4938045320565263e-02
         - 1.3159385454630060e-02
         - 9.3446123966259564e-03
         - 2.0318010653175719e-02
         - 1.5871841355726866e-02
         - 8.2247856539539900e-03
         - 6.3000063646682031e-03
         - -1.2416043106249320e-02
         - -3.5965907912819201e-02
         - 1.1611908542778507e-02
         - 3.6526197143543801e-03
         - -8.5261590395707357e-03
         - 1.9440305457668547e-03
         - -2.5404566805494943e-03
         - 4.8642226233251750e-03
         - 8.6258674229877149e-03
         - -7.7907164762953118e-03
         - -1.2432387177439377e-02
         - 3.0741779818860008e-02
         - -1.2258321254302608e-02
         - 1.3719260156368188e-03
         - 2.1267479465582238e-02
         - 4.5869330523533744e-02
         - 4.1477168285816773e-03
         - -1.2115278539392742e-02
         - 9.6518308799374928e-03
         - 8.7485218125676043e-04
         - 2.1890324573946300e-03
         - 3.2292496033455411e-03
         - 1.6502286192570971e-02
         - -1.3439303790715880e-02
         - 3.3239860732492847e-02
         - 7.1692868055505728e-03
         - -7.0002615551272521e-03
         - -1.0608761757513380e-02
         - 3.5708347340337815e-02
         - 2.1327033133947872e-02
         - 1.0927151308805626e-02
         - 1.1134878622856489e-02
         - -2.6796750582739697e-03
         - 3.4150538249033073e-02
         - 1.4836522895217993e-03
         - 9.3412840556577944e-03
         - -5.4218056080950960e-03
         - 9.7904557148698005e-03
         - -2.9853618497080534e-04
         - -1.6759168065465072e-02
         - -4.6548033613668854e-02
         - -1.5536731282934709e-03
         - 2.4869378469729621e-02
         - 1.8833952002490103e-02
         - 3.3511512545516958e-02
         - 4.8940403788919227e-03
         - 4.1365788653529412e-05
         - 3.4702798124158656e-03
         - -1.3156183933664715e-02
         - -5.2202276718246515e-03
         - 8.9193868702384452e-03
         - 7.8920597473187293e-03
         - 2.2617049065619229e-02
         - -1.3969391712684496e-02
         - 7.1795733858689295e-03
         - -9.5605325601039650e-03
         - -3.3199160120405816e-02
         - -2.8739663039930902e-03
         - 3.0693193497504504e-03
         - -4.8605384901124704e-02
         - -4.9314306275380811e-03
         - -1.3060162699185116e-02
         - -5.3785546856712774e-03
         - 8.3653491189268989e-03
         - -4.9595768468793766e-02
         - -1.0584905715825245e-02
         - 4.8684188017217309e-03
         - -3.0476590036096783e-02
         - 5.5781545156642943e-03
         - 4.8038083481227248e-02
         - 1.7477126992450825e-02
         - -6.5783564653600531e-03
         - 7.9364809577797801e-03
         - 2.1561316445445344e-02
         - -9.0689784236396096e-03
         - -5.9087520346439541e-03
         - -1.0403284705560543e-02
         - 4.6784628569184451e-02
         - -1.7201259423872855e-03
         - 8.4710202856745132e-02
         - -2.3549906871098675e-02
         - -1.6128140929423999e-02
         - -1.1723665594712039e-02
         - 6.9716077686458613e-02
         - 4.5355410347565246e-02
         - 3.3483137424615006e-02
         - 5.6978329440742137e-03
         - -2.4988056050400352e-02
         - 4.3185390905818702e-02
         - 3.2214949655908756e-03
         - 4.9626664343403071e-02
         - 7.4410231874697990e-03
         - 1.5154379562510303e-02
         - -2.3383212507465277e-03
         - -1.8275291335510924e-02
         - -6.3275683449290118e-02
         - -2.0103913583187659e-02
         - 2.6681546292695327e-02
         - 3.0206200966691778e-02
         - -5.0581325232423452e-03
         - -1.1500550758871482e-03
         - 1.6614948355338532e-03
         - 2.7404020816775343e-02
         - 2.0338478367584265e-02
         - -2.0724787363749442e-02
         - -1.0345967959820819e-02
         - 6.4336235860338051e-03
         - 1.9011619512110035e-02
         - -2.0538849421540464e-02
         - -4.6415491870625556e-03
         - -7.3081080307600054e-03
         - -2.0147364125248004e-02
         - -6.2515669935831603e-03
         - 9.6129325727528862e-03
         - -3.5543259990020185e-02
         - -9.3944763593999062e-03
         - -2.1637387772519358e-02
         - -1.0310756886933465e-02
         - 2.9535608588374108e-02
         - -2.3100542764924091e-02
         - -1.0057047255358633e-02
         - -4.2418997992890284e-02
         - -1.6495447662874363e-02
         - 1.4088969155120418e-02
         - 9.2994182756043611e-02
         - 8.4289264874457641e-03
         - 6.4799684707443021e-03
         - 4.2283239855573723e-02
         - 9.2514803958602398e-03
         - -1.3624472956807026e-02
         - -3.3522300715377769e-03
         - -1.8170205767635464e-02
         - 5.8433263223957622e-02
         - 1.9928473658878652e-02
         - 2.8767571595856061e-02
         - -1.6132466760185805e-02
         - -2.3035595020816830e-02
         - -9.8297231973705729e-04
         - 1.1002128887776477e-01
         - 4.5095102154935153e-02
         - 3.3846988248139594e-02
         - 3.2491214048773406e-02
         - -5.0132843521354664e-03
         - 2.1927404650465943e-02
         - -1.9382590918455050e-02
         - 4.7698590718701736e-02
         - 3.3731664837389159e-02
         - 7.4972715459573520e-03
         - -1.2492936104620154e-02
         - -5.0659569480290385e-02
         - -5.3003997841370408e-02
         - -1.9264946836297706e-02
         - 4.2857287621424940e-02
         - 1.3728517509357599e-02
         - -1.6529268251544858e-02
         - -1.9063689708219832e-02
         - -1.5252942937140702e-02
         - 1.4280045759220731e-02
         - 5.2247670993370316e-03
         - -3.6932799209872386e-03
         - 6.9773224235155640e-03
         - 5.8575954037443307e-03
         - -2.4015246221807757e-02
         - -4.8542577412949862e-03
         - -2.2831266568439789e-03
         - 4.8631081473680384e-03
         - -7.5134661967556041e-02
         - 9.6227494345817975e-03
         - 1.8792390611176588e-02
         - -3.6208267046090280e-02
         - -1.4114715971002357e-02
         - -9.3711112234903006e-03
         - 1.1316751161491764e-03
         - 3.5940462840100849e-02
         - 1.2270614442558557e-02
         - -1.8929117854238188e-03
         - -4.8798925002748551e-02
         - -1.8843785769254180e-02
         - -2.1330527744643151e-02
         - 1.2111723572888240e-02
         - 5.1878453591674450e-02
         - -1.1495762412944178e-03
         - 3.1814816246843659e-02
         - 1.1575119647383194e-02
         - -1.8252002820857743e-02
         - -9.6993041858514182e-03
         - 5.9135480850415782e-03
         - 5.4020640771148647e-02
         - -2.0476028812395184e-03
         - -5.3802565998272225e-03
         - -2.9804365954705099e-02
         - -6.8150328537076579e-03
         - 2.5884756355219946e-02
         - 5.6615692233249894e-02
         - 5.0939572418752486e-02
         - 1.1978089971289543e-02
         - 3.3721830567778207e-03
         - -1.2395410139855064e-03
         - -1.8334753079809109e-02
         - 3.8821720728381273e-04
         - 3.9761008424816273e-02
         - -1.2998130293646670e-02
         - -2.2774850496091134e-03
         - -1.0726653226763533e-03
         - -7.6468077006427507e-02
         - 1.1373339109858865e-02
         - 1.7754632740604820e-02
         - 9.6108992502923034e-03
         - -2.6032311381706894e-02
         - -6.1196296517484136e-02
         - 9.1622319189386611e-03
         - 9.5993950655312316e-03
         - 2.5382188329662061e-03
         - -5.3573869160768693e-03
         - 1.8469180801587031e-02
         - 2.9764846792374798e-03
         - -4.2382882057667446e-03
         - -5.9555070893518462e-02
         - 1.0892338589498573e-02
         - -7.7576042655070282e-03
         - -6.3992213299328710e-03
         - -2.7292561781520466e-02
         - 1.1367909264253032e-02
         - 6.3867064304967379e-03
         - -1.6428455859322507e-02
         - -1.9126082329017420e-02
         - -2.1106453559226607e-02
         - 1.1989852407081739e-02
         - 4.0720583825517326e-02
         - 1.1155061735114784e-02
         - -1.2560376537791469e-02
         - -9.8717028848467944e-03
         - -2.8406083868623394e-02
         - -5.7128209521608957e-03
         - 3.2091515176301356e-02
         - 4.5746261889444903e-02
         - -1.6736954735436433e-03
         - -5.9562795248310055e-02
         - 2.2171965066755076e-02
         - -2.3438687882810595e-02
         - -1.5761341232630562e-02
         - 2.8409203156856154e-02
         - 5.5627659814125416e-02
         - -2.6892082509887283e-03
         - 1.1982736948138784e-02
         - -3.4495167809550281e-02
         - -1.5178263227869410e-02
         - -1.3610543436451219e-03
         - 7.4336833070884165e-02
         - 3.2518240457376828e-02
         - 2.8507358445466938e-02
         - 1.9667286718087814e-02
         - -8.3059378912298948e-03
         - -3.3021304107743957e-03
         - 5.3914325175839616e-03
         - -1.7853016479925307e-03
         - -1.6908167291767319e-03
         - 2.6087559295433816e-02
         - 2.8828694229363983e-03
         - -6.4560624532119193e-02
         - 5.5111901180737735e-02
         - -1.6218139784631165e-02
         - 1.8554828877041598e-02
         - 1.1738590560586928e-02
         - -7.5116765297613103e-02
         - -4.5853131638433553e-03
         - 9.7545301381213017e-03
         - -4.4477685691862402e-03
         - -2.3422212670235046e-02
         - -1.3677625196286849e-03
         - 6.2525881806479314e-03
         - 1.4725436009768328e-02
         - -3.5755522086412847e-02
         - 1.0647430322149777e-02
         - -8.2741962284306695e-03
         - 3.9326865895052011e-03
         - -2.2775046984478246e-02
         - 1.2122772131588277e-02
         - 1.2292723172324483e-02
         - 5.0307827006070100e-03
         - -1.6490577546297087e-02
         - -1.8717714561580199e-02
         - 9.9827015932236942e-03
         - 3.1907757717042337e-02
         - 2.3200109560090342e-02
         - -2.1013643801463710e-02
         - 1.5044799060618846e-02
         - -2.3094511296335718e-02
         - 8.9089389111993449e-04
         - 2.0813588077712910e-02
         - 1.3971822216935144e-02
         - 4.6039939746559495e-03
         - -5.2330972068467589e-02
         - 1.3261552920835147e-02
         - -1.2162830351111738e-03
         - -1.7299076633876854e-02
         - 3.4280460352365080e-02
         - 8.1853198095304294e-02
         - -1.5153712692400869e-02
         - 4.8589385829035041e-02
         - -3.2518461910888731e-02
         - -6.0337587083664742e-03
         - 1.5512347348223815e-02
         - 3.9953709458705133e-02
         - 4.0732675756964896e-02
         - 1.2353011423732067e-02
         - 8.4429073105661227e-03
         - -9.0376208729127765e-03
         - -2.9542947302787403e-02
