%YAML:1.0
---
opencv_ml_ann_mlp:
   format: 3
   layer_sizes: [ 256, 47, 4 ]
   activation_function: SIGMOID_SYM
   f_param1: 2.
   f_param2: 1.
   min_val: -9.4999999999999996e-01
   max_val: 9.4999999999999996e-01
   min_val1: -9.7999999999999998e-01
   max_val1: 9.7999999999999998e-01
   training_params:
      train_method: BACKPROP
      dw_scale: 1.0000000000000000e-03
      moment_scale: 0.
      term_criteria:
         iterations: 20
   input_scale:
      - 2.4505798943470495e-02
      - -2.6271514787874195e-01
      - 1.5887782722673525e-02
      - -3.4267106470995456e-01
      - 1.3868863831987561e-02
      - -4.4639372182931092e-01
      - 1.2347768169516269e-02
      - -5.0429593577090615e-01
      - 1.1356937872882953e-02
      - -5.9738997441546171e-01
      - 9.9413779899487128e-03
      - -7.1994010990521295e-01
      - 9.6478674716825689e-03
      - -7.5737676447570090e-01
      - 9.9959273207262511e-03
      - -7.0536823823355299e-01
      - 9.7418631011846803e-03
      - -6.9836900462055584e-01
      - 8.9253452812294472e-03
      - -7.7763991780735664e-01
      - 8.5978755353587205e-03
      - -8.1567077231205787e-01
      - 8.2528688543434849e-03
      - -8.6382942262695128e-01
      - 9.2249104019195925e-03
      - -6.5021567145503711e-01
      - 1.0977222886887354e-02
      - -4.6418386475068296e-01
      - 1.2329122185320189e-02
      - -3.8328056531344390e-01
      - 1.5341445057674723e-02
      - -2.9435254715957093e-01
      - 1.7835790564964902e-02
      - -4.7055776458746473e-01
      - 1.4379366906110920e-02
      - -5.8547830206722629e-01
      - 1.2258095156252587e-02
      - -6.7416276181864387e-01
      - 1.1301599300319638e-02
      - -7.9708458429499396e-01
      - 9.9769853802543409e-03
      - -1.0239162055677185e+00
      - 9.5623864252149787e-03
      - -1.0599303745257826e+00
      - 8.9927735741121648e-03
      - -9.6644325169521450e-01
      - 9.1869775803712465e-03
      - -8.0481574058719818e-01
      - 8.9623929434019412e-03
      - -8.0545203443140212e-01
      - 8.6378608257097131e-03
      - -8.8599282146196812e-01
      - 8.3564210991981941e-03
      - -8.9417026193645521e-01
      - 8.2455723542613230e-03
      - -9.6191427317387357e-01
      - 8.2066269531449829e-03
      - -1.0169260810972609e+00
      - 8.4661485414346364e-03
      - -8.2736137461281034e-01
      - 9.5163563021157475e-03
      - -5.8280434794334823e-01
      - 1.1419771209033791e-02
      - -4.3679490460195736e-01
      - 1.6276038300075183e-02
      - -5.6806607317255775e-01
      - 1.4469082522491968e-02
      - -6.8980153154248458e-01
      - 1.2718980615237031e-02
      - -8.1593524121641103e-01
      - 1.1297462361147976e-02
      - -1.0465939204314871e+00
      - 1.0216332067623249e-02
      - -1.1906965880244240e+00
      - 9.6230082833376127e-03
      - -1.2082419777844666e+00
      - 8.8805295015064283e-03
      - -1.0968453729072529e+00
      - 8.9412636941830926e-03
      - -8.7788998196834234e-01
      - 9.1844855998806322e-03
      - -8.0027890023012893e-01
      - 8.6457679529928777e-03
      - -9.6173003412470703e-01
      - 8.6353015593383063e-03
      - -1.2285689434409053e+00
      - 8.2994451442352322e-03
      - -1.2121367114761996e+00
      - 8.2924944263159661e-03
      - -1.2125494035449405e+00
      - 8.2087278140312303e-03
      - -1.0617092447257799e+00
      - 8.2693047580745839e-03
      - -7.6045840881837934e-01
      - 9.1758714357897883e-03
      - -6.1117380498410179e-01
      - 1.5458141684963043e-02
      - -6.6283692570727626e-01
      - 1.4380296993471431e-02
      - -7.7272668745051121e-01
      - 1.2972831276658088e-02
      - -9.1567569743627308e-01
      - 1.1380201818542643e-02
      - -1.1239871117972269e+00
      - 1.0282326618932299e-02
      - -1.1998862310389553e+00
      - 9.5724134874878540e-03
      - -1.2960667501257725e+00
      - 9.0186625354896580e-03
      - -1.1988490190553815e+00
      - 8.9251915892650784e-03
      - -9.2184816599003983e-01
      - 8.7116440100596989e-03
      - -9.3841136960282812e-01
      - 8.5088389666290471e-03
      - -1.0472972019747073e+00
      - 8.2402360807219497e-03
      - -1.1390734818551349e+00
      - 8.2843034184914097e-03
      - -1.1007150959284315e+00
      - 8.3633102196837249e-03
      - -1.2318989795112940e+00
      - 8.1890353222673976e-03
      - -1.1336987271382188e+00
      - 8.1000071719110195e-03
      - -9.2012862927013050e-01
      - 9.4502155180909760e-03
      - -5.8752803470685078e-01
      - 1.6265493688442812e-02
      - -7.2789700033300309e-01
      - 1.4129771219171604e-02
      - -7.9888416428182552e-01
      - 1.2503321953216295e-02
      - -9.1439857171766581e-01
      - 1.1145906059258972e-02
      - -1.1260908189327352e+00
      - 1.0254031316589189e-02
      - -1.2239918017399349e+00
      - 9.8283324764605988e-03
      - -1.3116072410573036e+00
      - 9.5185451266745803e-03
      - -1.3008258094970639e+00
      - 8.8411171599624885e-03
      - -1.0609691894623594e+00
      - 8.4886105735159454e-03
      - -1.0629426916963853e+00
      - 8.2501826102452311e-03
      - -1.0592906649729303e+00
      - 8.2936571894869811e-03
      - -1.1375382471524964e+00
      - 8.5575879697083850e-03
      - -1.3293844537949904e+00
      - 8.6117163692059785e-03
      - -1.4058883613282809e+00
      - 8.2741701393035869e-03
      - -1.2223853474674464e+00
      - 8.0866077140870525e-03
      - -9.6058188904660025e-01
      - 9.6930754407276044e-03
      - -5.9066135337954284e-01
      - 1.5850493061320987e-02
      - -6.9914320520279671e-01
      - 1.4549453631687527e-02
      - -8.2080116362181044e-01
      - 1.2724976102129979e-02
      - -9.0863071078401225e-01
      - 1.1476492284966470e-02
      - -1.1026704991307983e+00
      - 1.0458957915799722e-02
      - -1.2485502225074345e+00
      - 1.0197357753205854e-02
      - -1.4287781323481872e+00
      - 1.0085025774884938e-02
      - -1.4783979903479672e+00
      - 9.3681895354033907e-03
      - -1.2400008649417251e+00
      - 8.6577981497308627e-03
      - -1.0620652864021500e+00
      - 8.3678984637703055e-03
      - -1.0652168494741245e+00
      - 8.5288879854199372e-03
      - -1.1943267314682422e+00
      - 8.6498311348603956e-03
      - -1.3681626942053355e+00
      - 8.6825720754760537e-03
      - -1.3733069000491709e+00
      - 8.3606179355195636e-03
      - -1.1719150139047680e+00
      - 8.5016515609952926e-03
      - -8.6447720793267502e-01
      - 1.1235324375107911e-02
      - -4.4119853916980045e-01
      - 1.6495010609859535e-02
      - -6.8134225281997285e-01
      - 1.4349938864100116e-02
      - -8.0756894357185405e-01
      - 1.2875004073334225e-02
      - -9.2515857084308406e-01
      - 1.1936517388288123e-02
      - -1.1756441980271430e+00
      - 1.1103130048946456e-02
      - -1.4219065406258742e+00
      - 1.0820376397633237e-02
      - -1.5715629332917456e+00
      - 1.0601761886281914e-02
      - -1.6433854289234850e+00
      - 9.3161452386336698e-03
      - -1.2831725291533165e+00
      - 8.6525755182738553e-03
      - -1.1253390734322952e+00
      - 8.4986611425972702e-03
      - -1.1187727580153644e+00
      - 8.8801927691638111e-03
      - -1.3525180488896491e+00
      - 8.9531620737224905e-03
      - -1.4212285051305522e+00
      - 8.9510523171131406e-03
      - -1.3948940548639255e+00
      - 8.6727650559508696e-03
      - -1.1881917868773377e+00
      - 8.3740759853409494e-03
      - -8.2284447036356156e-01
      - 1.1009182236466009e-02
      - -4.6537490208849364e-01
      - 1.6925022685405206e-02
      - -6.6722698703099415e-01
      - 1.4435753488734913e-02
      - -8.5017983957165288e-01
      - 1.2425800264707590e-02
      - -1.0530001678625911e+00
      - 1.1942225681959186e-02
      - -1.3422270790649149e+00
      - 1.1734153823084381e-02
      - -1.6298817369892173e+00
      - 1.1632180803031508e-02
      - -1.8293491653360914e+00
      - 1.0763778216360655e-02
      - -1.7753533426847150e+00
      - 9.6279943808355913e-03
      - -1.4825581069234228e+00
      - 8.9111510809447587e-03
      - -1.3237721480602931e+00
      - 8.8932638133686487e-03
      - -1.2953068192064858e+00
      - 9.1779204707298379e-03
      - -1.4547915660060839e+00
      - 9.4625988279841179e-03
      - -1.5280655784194062e+00
      - 9.1556285881948269e-03
      - -1.4504455949361681e+00
      - 8.4279815329622414e-03
      - -1.1380900678544363e+00
      - 8.2824329124338361e-03
      - -8.2863821519682412e-01
      - 9.9819750955521397e-03
      - -5.0342207379250170e-01
      - 1.6127425414594210e-02
      - -7.5636557153028661e-01
      - 1.3702474084655391e-02
      - -1.0066871954008811e+00
      - 1.2835262361322639e-02
      - -1.1994935184474722e+00
      - 1.2670659045516584e-02
      - -1.5843526329152828e+00
      - 1.2362367999229908e-02
      - -1.8353286149638171e+00
      - 1.0996814110079398e-02
      - -1.7345107394686161e+00
      - 1.1007559002306698e-02
      - -1.9209283925151248e+00
      - 9.8826185602961265e-03
      - -1.6722175977681468e+00
      - 1.0424444876087903e-02
      - -1.9082947368531247e+00
      - 1.1846665790883773e-02
      - -2.2571271885468076e+00
      - 1.0792723157747508e-02
      - -1.9316401352807251e+00
      - 9.7902797266442628e-03
      - -1.6443650090808375e+00
      - 9.0854808471066834e-03
      - -1.5203679750796724e+00
      - 8.3984120041741533e-03
      - -1.2668698605872717e+00
      - 8.2493621171962211e-03
      - -9.0413008804470574e-01
      - 9.8933305799526108e-03
      - -5.2686244056709219e-01
      - 1.3637411287655481e-02
      - -8.1457792958860831e-01
      - 1.2942734504213998e-02
      - -1.1380006454672078e+00
      - 1.2910530741402309e-02
      - -1.3877025042732190e+00
      - 1.2821604830253221e-02
      - -1.5950416053996073e+00
      - 1.1540103771922156e-02
      - -1.6626156129679901e+00
      - 1.0420511703236048e-02
      - -1.4611765728297892e+00
      - 1.0285311960902356e-02
      - -1.6369312387046717e+00
      - 1.0347149227513229e-02
      - -1.8052417717824172e+00
      - 1.1586569209412444e-02
      - -2.2597186177196740e+00
      - 1.1839074691921045e-02
      - -2.3292242591566361e+00
      - 1.0220264894866578e-02
      - -1.8689141879669795e+00
      - 9.4307087027320439e-03
      - -1.6925936195545768e+00
      - 9.2475635762315385e-03
      - -1.6397461274230740e+00
      - 8.3650576686167873e-03
      - -1.2690845040216856e+00
      - 8.2285812784173937e-03
      - -8.7675261051958575e-01
      - 1.1199959402675687e-02
      - -4.5006035538778499e-01
      - 1.4071263666500378e-02
      - -8.6567159573723118e-01
      - 1.3617726478018467e-02
      - -1.2952171369357697e+00
      - 1.3491281197139174e-02
      - -1.5281779708335659e+00
      - 1.2970672641192449e-02
      - -1.6230520500353067e+00
      - 1.1571050728809661e-02
      - -1.4854010697840547e+00
      - 1.0624437186078169e-02
      - -1.4841142620261381e+00
      - 1.0074026991388664e-02
      - -1.5724955694862852e+00
      - 1.0916824680948178e-02
      - -1.9045882741384026e+00
      - 1.0868011626029756e-02
      - -1.9681465239631395e+00
      - 9.7566918897835243e-03
      - -1.6963074978972641e+00
      - 9.4439998931761006e-03
      - -1.6633948421119971e+00
      - 9.3991099177418193e-03
      - -1.6870717598975076e+00
      - 8.8291740109873573e-03
      - -1.4687418674304067e+00
      - 8.3658643561320429e-03
      - -1.1027095670585332e+00
      - 8.9035483243405569e-03
      - -6.5998289002876720e-01
      - 1.1263708024862717e-02
      - -4.4058255018575598e-01
      - 1.4130793932966177e-02
      - -9.8473853243587084e-01
      - 1.3370102832331017e-02
      - -1.3393832551265221e+00
      - 1.3483022321975690e-02
      - -1.4948832218913126e+00
      - 1.2753733730479411e-02
      - -1.5429146112245409e+00
      - 1.1592065893248946e-02
      - -1.5214471331916792e+00
      - 1.1003327237012540e-02
      - -1.6012100091074088e+00
      - 1.0323436696019638e-02
      - -1.5477634659681363e+00
      - 1.0045531213691226e-02
      - -1.5430335104410400e+00
      - 9.7782793516759930e-03
      - -1.5771393241999898e+00
      - 9.3757272694250087e-03
      - -1.5257971630989562e+00
      - 9.4352407617794860e-03
      - -1.5147872890288940e+00
      - 9.1312227429918777e-03
      - -1.3886110453465066e+00
      - 8.2911612795935011e-03
      - -1.0798825754024197e+00
      - 8.3740168768288142e-03
      - -8.7694257531982800e-01
      - 9.7140779675943829e-03
      - -5.8868599116465348e-01
      - 1.3607180784389715e-02
      - -3.5935573199992921e-01
      - 1.5210044201167710e-02
      - -1.0856949696547422e+00
      - 1.5254115978215681e-02
      - -1.4427969220137220e+00
      - 1.3836032557878011e-02
      - -1.4390023636321259e+00
      - 1.2554043452943375e-02
      - -1.4596777543266679e+00
      - 1.2279739145834714e-02
      - -1.5754336064675336e+00
      - 1.1331953633181182e-02
      - -1.5641998408418676e+00
      - 1.0470292213455797e-02
      - -1.4857968708045572e+00
      - 1.0188217547774931e-02
      - -1.4904755027640222e+00
      - 9.8522731663354887e-03
      - -1.4064609296260120e+00
      - 9.8262438995193341e-03
      - -1.3586506664352616e+00
      - 9.0573732289304671e-03
      - -1.1148966636167588e+00
      - 8.7219542827225507e-03
      - -1.0595961466488448e+00
      - 8.5936921763221773e-03
      - -9.4300689989925801e-01
      - 9.2584782238255541e-03
      - -7.0295762344712054e-01
      - 1.2128070628533513e-02
      - -4.2836988006768634e-01
      - 1.9416004709090412e-02
      - -2.7671021280769914e-01
      - 1.5574384139707393e-02
      - -1.1386834496845670e+00
      - 1.6131553796201244e-02
      - -1.4785263458852052e+00
      - 1.5148152966653953e-02
      - -1.5793805367272395e+00
      - 1.3248690726900809e-02
      - -1.4181363458205152e+00
      - 1.2464433230585216e-02
      - -1.4589495277526845e+00
      - 1.1411945819896220e-02
      - -1.3951141552723194e+00
      - 1.0874188099774799e-02
      - -1.4867967726511959e+00
      - 1.0403690061816424e-02
      - -1.4381757987572428e+00
      - 1.0491375419005321e-02
      - -1.2261847130443027e+00
      - 9.6547819639593649e-03
      - -9.5051648129946964e-01
      - 9.3249624050159158e-03
      - -9.1477263646026996e-01
      - 9.4021305146064008e-03
      - -8.0335289999636939e-01
      - 1.0097981079661028e-02
      - -6.5401480372760878e-01
      - 1.1519212898392287e-02
      - -5.1093430667729922e-01
      - 1.3321382711615884e-02
      - -4.0488181335556250e-01
      - 1.8452340716344419e-02
      - -2.8663450585600975e-01
      - 1.5567830513489683e-02
      - -1.2187652425971320e+00
      - 1.6170696684601360e-02
      - -1.5268350391459300e+00
      - 1.5892322603960066e-02
      - -1.5927685652933117e+00
      - 1.3832422322995462e-02
      - -1.4759469434973700e+00
      - 1.3190362413802637e-02
      - -1.5071605095548688e+00
      - 1.2602852546529921e-02
      - -1.5020597133072164e+00
      - 1.1822868446457092e-02
      - -1.4708744507381035e+00
      - 1.0965440727373247e-02
      - -1.3407175687752042e+00
      - 1.0413830732983487e-02
      - -1.0187071292916932e+00
      - 1.0307119268824234e-02
      - -9.0040536606000310e-01
      - 1.0205249742859272e-02
      - -8.0015916427555012e-01
      - 1.0455123683897645e-02
      - -6.3805334948247405e-01
      - 1.1199975247950999e-02
      - -5.5781810496516748e-01
      - 1.1937336166372317e-02
      - -5.0394531871627135e-01
      - 1.2851062664407081e-02
      - -4.3537017328503885e-01
      - 1.7131160358370898e-02
      - -3.0470775159279845e-01
      - 1.5719062999763781e-02
      - -1.2977908252016894e+00
      - 1.6528232283204478e-02
      - -1.5649937343863864e+00
      - 1.5436567899084262e-02
      - -1.4929512423723612e+00
      - 1.4237576295953510e-02
      - -1.3514948582495314e+00
      - 1.4053111878332863e-02
      - -1.4886433492628177e+00
      - 1.3552940049013515e-02
      - -1.5234761179069245e+00
      - 1.2374309410468421e-02
      - -1.4357476878901110e+00
      - 1.1452556014837193e-02
      - -1.2812148856704555e+00
      - 1.1046036106781683e-02
      - -1.0245600828103503e+00
      - 1.0318426904373521e-02
      - -8.8961240064421943e-01
      - 1.0281222539948629e-02
      - -7.7182703621423621e-01
      - 1.0800400173671816e-02
      - -6.1311940588552849e-01
      - 1.0998026550054706e-02
      - -5.6461391931141769e-01
      - 1.0951965253020824e-02
      - -5.3889471410559420e-01
      - 1.2191200123432467e-02
      - -4.7384207632069630e-01
      - 1.4282127241560324e-02
      - -3.7317023058842452e-01
   output_scale:
      - 5.2631578947368418e-01
      - 4.9999999999999994e-01
      - 5.2631578947368418e-01
      - 4.9999999999999994e-01
      - 5.2631578947368418e-01
      - 4.9999999999999994e-01
      - 5.2631578947368418e-01
      - 4.9999999999999994e-01
   inv_output_scale:
      - 1.8999999999999999e+00
      - -9.4999999999999996e-01
      - 1.8999999999999999e+00
      - -9.4999999999999996e-01
      - 1.8999999999999999e+00
      - -9.4999999999999996e-01
      - 1.8999999999999999e+00
      - -9.4999999999999996e-01
   weights:
      -
         - -1.1556273716004081e-02
         - -1.7319185383822856e-03
         - -2.9204350689011165e-03
         - 1.4630683324294911e-02
         - 2.1145130272740974e-02
         - -2.3435306079184820e-03
         - 1.0053167949629450e-02
         - -5.0098023646579903e-04
         - 7.0010336326540891e-03
         - -4.3528861802632777e-03
         - -9.5373266937646747e-03
         - -3.0497468940779491e-03
         - -6.0879641210874859e-03
         - -1.1951984953613989e-02
         - -3.7006095864353587e-03
         - -4.8483225885525330e-04
         - 1.0712418544415292e-02
         - -7.2635641296813274e-03
         - 6.2497900676836849e-03
         - -1.2723240189386805e-02
         - -2.5358708914473660e-03
         - -8.1451157893785127e-05
         - -7.0610858699027002e-03
         - -1.5549895789652969e-02
         - -2.1690308277285643e-03
         - -2.8103504795659972e-03
         - -7.7976568337197053e-03
         - 7.1032215664931734e-03
         - 7.5014011136478051e-03
         - -1.8294613938621270e-03
         - -2.6957965412986616e-03
         - -1.7333495551776525e-03
         - 1.9122859041279133e-03
         - -7.5249040809783410e-03
         - 1.3014073326200864e-02
         - -1.6073021955429815e-02
         - 6.5432016040440884e-03
         - 1.7583771986606402e-02
         - 1.6680988041516961e-02
         - 4.0015948637644978e-04
         - -1.9689886338247649e-03
         - -7.2545442250707666e-03
         - 2.5648978463937502e-03
         - -6.1654346168708877e-03
         - -1.2426527937542058e-02
         - -1.4569402388569601e-02
         - 4.1631407853198431e-03
         - 1.1170493603389369e-04
         - -1.1459329050708424e-02
         - 1.2278644376899996e-02
         - 4.7963902525018920e-03
         - 2.5188045799354186e-02
         - -3.2863311017738094e-03
         - 8.3991346262141213e-03
         - 4.8381492453151830e-03
         - 1.7211728311575622e-02
         - -4.0153395696032124e-03
         - -8.3177002679914996e-03
         - 1.6903739702419007e-03
         - -2.8079916806363673e-03
         - -1.3139635630113422e-02
         - 1.3561704049677301e-02
         - 6.8622146844481858e-03
         - 1.5683697333997063e-02
         - -2.0629707007907533e-02
         - 2.9540401914563454e-03
         - -1.9282594706961195e-02
         - -3.6058131252250376e-03
         - 5.7017403346936030e-03
         - -1.6583064125685935e-02
         - -9.8952548220775302e-03
         - 2.0881248765037786e-03
         - -2.9758897032777232e-03
         - -5.0402696663183781e-03
         - 1.8149046399878802e-02
         - 1.0675620411464661e-02
         - -5.1618821874768340e-03
         - -1.9312967530529579e-02
         - 1.0708480699670413e-02
         - -1.0073268951737062e-02
         - -1.3021278432821617e-03
         - 1.1549139444053318e-02
         - -1.9778766566765974e-02
         - 1.6749305151406810e-02
         - 1.7644552899447972e-02
         - 3.2110407061300909e-02
         - 4.7892711277020073e-03
         - 1.1369891138983955e-02
         - -1.7001393570175820e-02
         - 1.1711907871111182e-02
         - -8.0547335175015881e-03
         - -1.4797760013380318e-02
         - -2.1206215462928633e-02
         - 2.7122160624363234e-03
         - -7.2132575962876979e-03
         - 4.4811545840978181e-03
         - -4.4425210911680684e-03
         - 6.7616369518561457e-03
         - 6.5385353620527253e-03
         - 1.3374484500657254e-02
         - 4.5005905775896270e-04
         - 1.4236595579893085e-03
         - 8.8453481136610453e-03
         - 5.5348958056590835e-03
         - 1.9557987887814251e-03
         - -7.1297222384319198e-03
         - -2.0104899422592293e-03
         - -3.8030017286543598e-03
         - 7.6000345338227381e-03
         - -1.7546028268491502e-03
         - 2.8137886697872554e-03
         - -1.7210709803574243e-02
         - 2.4189045032895454e-03
         - -9.3784945170993159e-03
         - -2.5289862292719330e-03
         - 3.0958871389596865e-03
         - -1.3785290072090418e-03
         - -7.1698882001514745e-03
         - 2.4507127426872111e-03
         - 1.3016074252360125e-02
         - 1.1857591140556967e-03
         - -1.0374331186635758e-04
         - 5.8038925893670913e-03
         - -2.8870121447085806e-03
         - -9.9051083821922771e-03
         - 4.6812419886803659e-03
         - -2.3324213259588505e-03
         - -7.3377235392227238e-03
         - 2.2787333929298850e-03
         - -1.3855755289086485e-02
         - 1.1719228485906464e-02
         - 9.3651504806842624e-03
         - 2.0258667442727238e-02
         - 1.4580434427056109e-02
         - -3.9986878535999892e-03
         - -1.0346972320683337e-02
         - -6.1948991340290372e-03
         - -8.9811922779796122e-04
         - -5.5909580633378593e-03
         - -4.7026614463158084e-03
         - -2.9344695708618705e-04
         - -7.1743636820596861e-03
         - 1.7138989804815501e-03
         - 3.7863008375352571e-03
         - -9.3632897813329761e-03
         - 7.1876533623869560e-03
         - -5.9724636593647910e-03
         - 8.5519717090269738e-05
         - -8.7967021482748368e-03
         - -2.0662773005507857e-03
         - 9.4791255271277318e-03
         - 2.4067032408124560e-03
         - 3.4391721971141760e-03
         - -5.8530285023399471e-03
         - -1.6807678038277018e-03
         - 9.2035240771089852e-03
         - -2.2931997583479150e-03
         - 3.2398522015126790e-03
         - -8.8208816635484619e-03
         - 6.4209972258569325e-04
         - -9.0645467503516260e-03
         - -6.8896825124670847e-03
         - 5.0014900360793183e-03
         - -6.5027972312947935e-03
         - 2.2236361902891575e-03
         - -2.7472004089378285e-03
         - -1.0264075974023257e-02
         - 3.2998550698950047e-03
         - 8.2356597064679859e-03
         - 1.3405916123226120e-03
         - 1.2949672298672508e-03
         - -7.8813832814920819e-03
         - 1.2700086949091500e-03
         - 8.0481983334862908e-05
         - 4.5385783413261971e-03
         - 7.9175573963061966e-03
         - 3.7570608870539858e-03
         - -3.1023383541564113e-03
         - 3.9386970337293220e-03
         - -7.8355873164169809e-03
         - -6.2114727947702401e-03
         - 6.4482336434700431e-03
         - -5.8347559181549128e-03
         - -4.1157594651692253e-04
         - 7.8064179387649464e-03
         - -5.5827501213049271e-03
         - -2.1657914403566160e-03
         - 2.9479123907194728e-03
         - -1.0188693638227058e-02
         - 2.9526103324291632e-03
         - -3.6442990188867994e-03
         - -4.3649967337361078e-03
         - 3.6636641184760363e-03
         - -2.5028357908179768e-03
         - 3.1084173621840380e-03
         - -3.5335433885564549e-03
         - 8.9974234974776572e-03
         - 9.5764713761044209e-04
         - -8.4039873021760775e-03
         - -4.1491223021682616e-03
         - -2.7900927481264715e-03
         - -6.4179222663597255e-03
         - 3.6913442117907898e-03
         - 2.5683458551510720e-03
         - 2.6761558924141859e-03
         - -7.8853508695487136e-03
         - -2.4836078739555647e-03
         - -7.2644332633968805e-03
         - -5.3743069107160622e-03
         - -7.6948997055858864e-03
         - 5.3533263645011275e-03
         - 3.2824720225044994e-03
         - 7.4549120908382303e-03
         - 8.9073043986413281e-04
         - -4.7810908701103015e-03
         - -6.6543682307115453e-03
         - 2.2092762454953723e-03
         - -4.7233305577975273e-03
         - -3.3101261507857047e-03
         - 7.2040751993736503e-03
         - -2.7498957482699777e-03
         - 5.0218951863968981e-03
         - 8.9956174860064187e-04
         - -6.5922895751803819e-03
         - 9.2123496006149119e-03
         - 8.3789337274235934e-03
         - 3.6179592688017599e-03
         - 5.2713327378219087e-03
         - 1.0103063993790150e-03
         - -1.9156432736154416e-03
         - -9.8256530845217682e-03
         - 1.7313927550588538e-03
         - -7.0259505424255225e-03
         - -7.8322350469517948e-03
         - -8.2664183790551685e-03
         - -1.1765872308937037e-03
         - -6.5792557438326617e-04
         - -2.0664776465167266e-03
         - 9.1895709036086577e-03
         - 4.4931215080846274e-03
         - -1.7151545540966193e-03
         - -6.6267634967707321e-03
         - -3.6995258968445109e-03
         - 2.3746661829261908e-03
         - 1.1701238541173616e-02
         - 5.9580902934198059e-03
         - 9.7491334800336778e-03
         - -2.2407134013296163e-03
         - 7.1366585859039180e-03
         - 1.8416776246624789e-02
         - 6.5682540693569524e-03
         - 6.9526757688655651e-03
         - -1.2748216659269170e-02
         - -4.6583103355180644e-03
         - -8.1512432384933404e-03
         - -4.0896027791113539e-03
         - 4.2631179469623829e-03
         - 7.4096338431322781e-03
         - -2.3707086383956181e-03
         - -5.4242095630044091e-04
         - 2.0425149219201119e-03
         - -1.2779815692834313e-04
         - 9.7799367244426755e-03
         - 6.6210766113197813e-03
         - 3.0264465806980065e-03
         - -6.7593342124708513e-03
         - -7.2900956871594540e-04
         - -1.8224602829282886e-03
         - -8.4091800676727082e-03
         - 2.9134287840575303e-03
         - 8.0771521137773202e-04
         - 3.5483922325442985e-03
         - 6.2742632644688474e-03
         - 7.1549447362739427e-03
         - 5.0600962639190802e-03
         - 7.6393655766167062e-03
         - -1.2703916011636410e-02
         - 2.9204457481863638e-03
         - 8.6627875601097068e-03
         - 1.6405534925477542e-03
         - 6.2614357177095013e-03
         - 1.5722989073453728e-03
         - -5.9942855057799364e-03
         - 2.1327681552538317e-03
         - -1.6798885634255058e-02
         - 1.9730017597742992e-04
         - 6.1700156562280225e-03
         - 6.1252437144422396e-03
         - 9.0504643561022096e-03
         - 2.9283675082904881e-03
         - -1.1645879334538396e-04
         - -8.7350955253761124e-03
         - -7.1988644125682297e-03
         - -3.0389108010460148e-03
         - 3.1037928890551283e-03
         - -5.6406551792359929e-03
         - -1.6003333810121766e-02
         - 2.1598030858848050e-03
         - -7.5782301692149780e-03
         - 9.7621145330353924e-03
         - 5.8334790697947376e-03
         - 3.3630099778294963e-03
         - 3.7328612806283999e-03
         - -4.8741692193080052e-03
         - 1.8290589348242422e-04
         - -9.0043321310575555e-04
         - -1.3013102358694448e-02
         - 5.1468373165035504e-03
         - 1.5275321108240075e-02
         - -1.9493385530307970e-02
         - -3.6073547174737841e-03
         - 3.3573252851694076e-03
         - 1.4274117552222380e-02
         - 4.4927479628188941e-03
         - -8.7170625934298689e-03
         - -4.4207527524652290e-03
         - 7.3189507912819795e-03
         - -1.0719456977788630e-02
         - -3.0114535255651945e-03
         - -2.3804313790006951e-03
         - -2.7261726813964482e-03
         - -1.1340553486750976e-05
         - -2.3162161728744839e-02
         - 7.6440034646707636e-03
         - -1.0575482344244217e-02
         - -1.0723948639776420e-02
         - -1.9748033783810827e-02
         - 7.4269088410006156e-04
         - -1.2863368070138771e-03
         - 5.8472324164405790e-03
         - -1.6738169784397534e-02
         - 1.5695446808843972e-03
         - -1.8889812026832771e-02
         - -3.0456774488071187e-02
         - -2.3100740702172606e-02
         - -8.4051279760636623e-03
         - 6.1635599103462618e-03
         - -2.4984051620074419e-02
         - -4.0326387641777947e-03
         - 1.9755172840236312e-02
         - -5.2273201924352940e-03
         - -3.1818535899109687e-03
         - 5.4299043302061091e-03
         - -1.6024801583192291e-02
         - 1.1663812881648682e-02
         - -7.3785323173600438e-03
         - 2.5283881207455498e-02
         - -6.7999339413402074e-03
         - 1.0674895766165085e-02
         - 1.9578891395520101e-03
         - 3.1619933027245261e-03
         - 1.0695747638872748e-02
         - 1.3026802245293985e-02
         - -1.6379184288009122e-03
         - -1.6207445821586359e-02
         - -1.8338399685580271e-02
         - -3.3704056209748617e-03
         - -6.6693242675207641e-03
         - 7.8836995868771711e-03
         - 1.4342778942836641e-02
         - -3.2248424469467269e-03
         - 6.7343645813652767e-03
         - 2.1300320796089133e-02
         - -6.0792218517216907e-03
         - 1.9466348221445606e-02
         - -1.9221489711667046e-02
         - -1.8711686419477177e-02
         - -2.8047343321946645e-02
         - -2.4071147304610754e-02
         - 7.9380213262376074e-04
         - 1.4231744126477989e-02
         - 7.8688168997493313e-03
         - 2.6178417856347722e-03
         - 2.8358638074841508e-03
         - 9.4027601697416405e-03
         - -7.6014364399834978e-04
         - -1.7735931946896471e-02
         - -1.3487739478169083e-02
         - -3.5214215699297603e-03
         - -7.3727446793019043e-03
         - -1.2476347662546237e-02
         - -1.3639101562034508e-02
         - -3.8237031233187683e-03
         - 8.3194783160517091e-03
         - 2.5783036591283314e-03
         - -2.6134407630492518e-02
         - -1.1435853165353541e-02
         - 3.0201963549437282e-03
         - -5.7875454899381316e-03
         - -3.6352834097258869e-03
         - -3.8965710612916135e-02
         - 1.7614877011362412e-02
         - -5.0233860721296299e-03
         - 2.5736736151918758e-02
         - 5.2441089820772710e-03
         - -5.6133919104162187e-04
         - -6.1542241174119654e-03
         - -7.6411974291816414e-03
         - -1.1329532391308851e-02
         - -6.2764121462531436e-03
         - -1.3319644201188668e-02
         - -8.4356241940439242e-03
         - 3.9171861343881304e-03
         - -1.8461547171981164e-02
         - -5.3297984110190523e-03
         - 1.4336172607538769e-02
         - 1.8113491547971941e-02
         - -2.5149878869002878e-03
         - -1.1312324777496052e-02
         - 1.7355670157461461e-02
         - 6.2614054201037567e-03
         - -1.2897370591882637e-02
         - -3.6584529662665505e-04
         - -1.2930589205535157e-03
         - -9.8350371880551960e-04
         - -1.0962554099868405e-02
         - -2.2242848212049943e-02
         - 2.6970669956673125e-02
         - -1.1156708894178916e-02
         - -1.3118336107297552e-02
         - -2.5379757910624731e-02
         - -3.1252276501130861e-04
         - 1.0467449529281553e-02
         - 1.1689474078665324e-02
         - -1.2833172306980009e-02
         - 3.3901148727895603e-03
         - -1.4766166733305924e-02
         - -6.9010651295778299e-03
         - -1.9525674794614412e-02
         - -7.8750157445655576e-03
         - 8.3824560722453503e-03
         - -2.5949669607919436e-03
         - -3.6596679300906943e-03
         - 4.2436625173981005e-03
         - -4.6302817541196365e-03
         - -7.3570888938694241e-03
         - -3.9927234311913588e-03
         - -2.1707709333080711e-02
         - 1.1297884867375468e-03
         - -1.2759959192484025e-03
         - 1.6929874636976303e-02
         - -3.1758436482560238e-03
         - 7.0846969256527930e-04
         - -7.4211988842911268e-03
         - 5.1170161763448921e-03
         - 3.3118624936091978e-03
         - 3.9359168859964856e-03
         - -4.0471850674704034e-03
         - -1.2883856869004742e-02
         - -1.5218502991053854e-02
         - -1.0056908587800277e-02
         - -5.9783128550866113e-03
         - 2.8152490583667564e-03
         - 2.5788378260302469e-03
         - -4.4404576624296494e-03
         - -3.7729508053739856e-03
         - 9.5536128717970247e-03
         - -1.0017945023077316e-02
         - 9.7856938612022135e-03
         - -8.9528059796928402e-03
         - -1.2277366089254484e-03
         - -9.6168062450208616e-03
         - -1.7271738815112528e-02
         - -7.3211021804931104e-03
         - 1.5587153407431836e-02
         - 8.2564805267583852e-03
         - -8.0279614477771449e-04
         - -3.5573650053405976e-03
         - -5.7034828226408237e-04
         - 4.6932631500468296e-03
         - 1.3361468397952856e-02
         - -6.7040571344870927e-03
         - 4.6706740719983202e-03
         - -1.2155240425100392e-02
         - -5.8319577588689560e-03
         - -9.8024984356719115e-03
         - -8.0415592049543766e-03
         - 2.7196026485539135e-03
         - -1.3418631031528594e-02
         - 1.9129617764835571e-03
         - 8.8401658680222657e-03
         - -3.9520946501437086e-03
         - -1.9359116656047278e-03
         - 1.0278533172564034e-02
         - -9.2908481665584242e-03
         - 4.0491629983126646e-03
         - -4.1347527995948454e-03
         - 7.6083694889657492e-03
         - 2.7261530510976338e-03
         - 3.8592609857529469e-03
         - -7.2727878539763195e-04
         - 1.7524954114122528e-03
         - 9.1020113810018274e-03
         - 5.0516188295208412e-04
         - 1.1759008105385967e-02
         - 1.1937285815537323e-03
         - -6.7691256398665070e-03
         - -5.0386771563400564e-03
         - -9.4675300622306859e-03
         - 2.1510345513310633e-03
         - 1.3793447009964311e-02
         - -6.4860263357950270e-03
         - 8.4364379996520415e-03
         - -1.3496862564384784e-03
         - -1.7689420061432458e-03
         - 1.7323695145315014e-02
         - -1.3006045434548334e-02
         - -1.2249190490050741e-02
         - -1.1248032382862247e-02
         - -1.1547048651829931e-02
         - -9.3754990716973189e-03
         - 1.4177754977569668e-02
         - 1.1650505243835544e-02
         - 5.6231843998735802e-03
         - 1.5343895285040902e-02
         - 5.6860069284199047e-03
         - 5.9009777312973785e-03
         - 1.7438430414284067e-02
         - 7.5088678148694762e-04
         - -8.8908134579079726e-04
         - 3.5097985707567065e-04
         - -2.9519229259902142e-03
         - 5.1270593511859473e-03
         - -3.9307750070213678e-05
         - -1.5205194741462019e-02
         - 6.2891505367098834e-03
         - 9.0450560428603811e-03
         - 1.7492117057996612e-02
         - 7.6080182095569476e-03
         - -2.0050629448332318e-04
         - 6.7258649523509574e-03
         - 1.9179650035534880e-02
         - -7.0907155712810312e-03
         - 2.2506642904828035e-03
         - -2.4979590892830649e-02
         - -5.0703637612955210e-03
         - -3.1325913748715666e-03
         - -3.6094720035881100e-04
         - -4.8250471572031158e-03
         - 1.1770191432670826e-02
         - 5.3384919579535714e-03
         - 1.8329394314626803e-02
         - 1.1427368244278618e-02
         - -1.2168480368568912e-02
         - 5.2591198864381239e-03
         - -2.4058731621318945e-03
         - -6.1195285450901847e-03
         - -1.5711261258959271e-02
         - -1.8446998208216851e-03
         - 5.4531589424708787e-03
         - -2.7031677451467800e-03
         - -2.7632562634243934e-03
         - 5.8402154358434257e-03
         - -3.0473944334235164e-03
         - -5.4036418584626810e-03
         - 5.2461506629231779e-03
         - 5.9987509064309236e-04
         - 4.3700084913139000e-03
         - -4.2873550199444563e-03
         - 9.1722635844015341e-03
         - 2.0656162643272247e-02
         - 2.2056709678685608e-02
         - 9.3120838726077730e-03
         - -1.4522735449846062e-02
         - 5.9662834357667683e-03
         - 1.1827970612047090e-02
         - -4.7848153605030549e-03
         - 1.7006584487406152e-02
         - 2.7536610578190922e-02
         - 1.7935372789774202e-02
         - 4.9468803111353933e-04
         - -1.6819713409387291e-02
         - 2.4184143762711746e-02
         - 1.0725652510756079e-02
         - 3.0923426385432318e-03
         - -1.7161850975444832e-03
         - -7.9935403554420789e-03
         - 1.6154433235447297e-03
         - 3.7167018937956209e-02
         - -9.1655835280149509e-03
         - 1.1458025222568009e-02
         - -3.3200013160973971e-02
         - -1.0022146629105139e-02
         - -1.1897260346591311e-02
         - -1.3516754723489671e-03
         - 4.6558383598506239e-03
         - 3.7502897995291135e-03
         - -6.7527364110486722e-03
         - 1.4466348352903339e-02
         - 1.9332032706757867e-02
         - -1.1974395327750919e-03
         - 1.5761662298051069e-02
         - 1.6991278899144764e-02
         - -2.0070352820479028e-02
         - -1.9264719833219493e-02
         - 5.1205301256257120e-03
         - 1.0346566158809021e-02
         - -1.0490080557103612e-02
         - 4.2863860375913715e-03
         - -9.0642116448338295e-03
         - 1.6976133613861796e-02
         - 1.4896210712292024e-02
         - 2.2550568541318310e-02
         - 1.0520811391138408e-02
         - 1.5544365786133867e-02
         - -2.3905644030880760e-02
         - 9.7110549663472472e-03
         - 1.3910677874614299e-02
         - 2.0291247850721485e-02
         - 6.7485784318748595e-03
         - -1.0270806700136902e-02
         - -5.7776698384735450e-03
         - 1.1275710494167113e-02
         - -3.6374990085120125e-03
         - -1.0526376317641934e-03
         - 4.8836534911823523e-04
         - 1.4982940035170186e-02
         - -2.5090619739186566e-03
         - -4.6732950967254784e-03
         - -7.7059011737458634e-03
         - 7.7387255905130257e-03
         - -1.1028942719037217e-02
         - 2.7419651663000786e-03
         - 1.2734178708350656e-02
         - 1.2044527591469947e-02
         - -1.3379874843209719e-03
         - -3.8576194139105162e-03
         - -2.2442558884108375e-02
         - -5.4817830146557441e-03
         - 9.1643454219929050e-03
         - 1.0805381099000875e-02
         - -5.9796029735884075e-03
         - -1.0622477116679019e-02
         - 1.4718530802109058e-02
         - 1.3563513194503335e-02
         - 6.6917903003976915e-03
         - -6.2180983388700802e-04
         - 2.1122489755612213e-02
         - 5.6429961810788821e-04
         - -1.7846207538848451e-02
         - -4.4587098322287147e-03
         - 5.4149254670968743e-03
         - -1.8455070501134268e-03
         - -4.1779091974319714e-03
         - 2.4394238625387024e-03
         - -7.0162695212991639e-03
         - -1.3783400588302970e-03
         - 2.3154877088725329e-03
         - -1.2698969561629881e-02
         - -1.1730726785336189e-02
         - 1.3341435618424135e-02
         - 1.5782859762073453e-02
         - 1.5327909748288026e-02
         - -1.9257926863730991e-02
         - 9.5510498187751313e-04
         - 1.2204312288475469e-02
         - 1.6340451035417848e-02
         - -5.7211614215291074e-03
         - 9.4221630046875649e-04
         - 5.1948410700786438e-03
         - 8.6205352503224263e-03
         - -9.8243484051762264e-04
         - 1.2032240897324380e-03
         - 4.7699305266664244e-03
         - -5.3866006833004128e-03
         - -6.1185927346266442e-03
         - -6.2704040596293286e-03
         - -5.6017840321951227e-03
         - -2.0796206570236168e-03
         - -3.5416584319253631e-03
         - -3.4593788233729128e-03
         - 1.0407300572988738e-02
         - 1.6487136249300021e-03
         - -7.1998143392722237e-03
         - 1.8885993874385592e-03
         - -6.4922223409785611e-03
         - 4.0501541213962327e-03
         - 4.8710413797668122e-03
         - -4.0996118670629314e-03
         - -1.3141204967015463e-02
         - -2.4239874850835396e-03
         - 5.2311700257642426e-03
         - -1.8192304450585666e-03
         - -3.2901650490163624e-03
         - 5.2429064176747709e-03
         - 1.8742146953126843e-02
         - 4.6848865269481213e-04
         - 6.4496489063952354e-03
         - 1.3499017604672521e-02
         - 1.2098700714246031e-02
         - -3.1350258128286681e-03
         - 7.7013078487315261e-03
         - 6.4250820754992461e-03
         - 9.8225945495872678e-05
         - 8.5714202275773681e-03
         - 3.8589596855051599e-03
         - -3.4737293794756628e-03
         - 5.2041471791150293e-03
         - 1.8790539967645292e-02
         - 1.9501476346634666e-02
         - -9.9339414506247666e-03
         - 2.1560041540076851e-03
         - 7.7273816815569950e-03
         - 6.1412757975893642e-03
         - -1.1311064959684033e-03
         - 2.5175448043568234e-03
         - -6.3205346183499130e-03
         - 1.0645505644897607e-02
         - -5.5238638977007622e-03
         - 1.3631197570988091e-02
         - -7.4848904063438866e-03
         - 2.9097964480858354e-03
         - -7.7222525639327466e-03
         - 2.6918081963603012e-03
         - -8.6458665550380245e-03
         - 3.9082328950048725e-03
         - 1.2665096752159546e-03
         - -7.3922864990145247e-03
         - -6.1208177552711665e-03
         - 7.7247153920556996e-03
         - 4.8369588121689689e-03
         - 9.7877432366526105e-03
         - 4.9208512219341841e-03
         - -2.4890227080119958e-03
         - -1.8212766674268240e-02
         - -6.6647453208565181e-03
         - 7.2006543228363730e-03
         - 2.5957734346024101e-03
         - -1.7615445402261081e-03
         - 1.2377975546884482e-02
         - -5.2527677762599376e-03
         - -2.9224244420572357e-03
         - 2.8516803365659565e-02
         - 4.6549458722877884e-04
         - -3.7740567046965919e-03
         - -5.3337366926874148e-03
         - 4.6296341613721991e-03
         - -9.4045627061714633e-03
         - 6.1122827767016198e-03
         - 7.8528959035565615e-03
         - -8.5636156551740505e-03
         - 1.1873261965443523e-02
         - 4.5725926612932979e-04
         - 5.7216900600049955e-03
         - 9.4045710234350033e-04
         - 1.5230444066639920e-02
         - -4.0295955126244128e-04
         - 1.3328510388563166e-02
         - 1.1050187980775894e-02
         - 1.0890213773945093e-02
         - -1.3290384185441019e-02
         - -4.5012048450049696e-03
         - -8.0332722386815963e-03
         - -5.0912130176390315e-03
         - -1.1983059286590216e-02
         - 1.6713810906113073e-03
         - -4.1473926430130852e-03
         - -8.9548265294087728e-03
         - 7.9792589083432317e-03
         - 1.0173993156858834e-02
         - -6.0269776076929500e-03
         - -3.0854389640508997e-03
         - 5.6127090528699988e-03
         - -9.5771232629882786e-03
         - -2.7896664087973923e-03
         - 4.8860647415290828e-03
         - 7.1584539771896551e-04
         - 3.1855069138162356e-03
         - -4.1937010740885597e-04
         - -4.2135728630219868e-03
         - -3.7585293242853196e-03
         - -9.3877754598337831e-03
         - 5.7631249650521143e-03
         - 2.3812249715917336e-03
         - -1.0042711114922819e-02
         - -8.4610355258782736e-03
         - -3.5371624620976065e-04
         - 2.0395978678124553e-03
         - 6.9699068397325811e-04
         - -7.3149990643199946e-03
         - 5.0921521712799292e-04
         - -1.2975013184712866e-03
         - 2.0619710540045709e-03
         - -2.1715764759543199e-03
         - 9.9652728106403941e-03
         - -5.5175452971815307e-03
         - 2.0457603885421678e-03
         - -6.5069711546016998e-03
         - -3.6808638131730375e-03
         - 2.9386972877225451e-03
         - -8.8003394318501380e-03
         - -6.2537350401842291e-03
         - -1.5843505661556512e-02
         - -2.0442361124074901e-03
         - 4.2391588559047410e-03
         - -1.1798247579529256e-02
         - -5.8164618873993859e-03
         - -5.7429325300061623e-03
         - 1.0867581914840047e-02
         - -1.2645967020532041e-02
         - 8.2636728159118013e-03
         - -1.2008009015273002e-02
         - 2.8243758271815507e-03
         - 1.4208477226014822e-02
         - 1.7907224978964281e-03
         - 5.2404552898322786e-03
         - 7.7004573037740319e-03
         - 4.9116803523660485e-03
         - 1.9202028617746063e-03
         - -5.5583989162800042e-05
         - -2.5658386890272133e-03
         - -4.8762377240270868e-03
         - -4.4146450708549886e-03
         - 1.0157758096987115e-03
         - -1.0392997034738179e-02
         - -1.0193792194998737e-03
         - -2.1167108545348343e-03
         - 5.1463850257979010e-03
         - -4.7694210404272304e-03
         - 1.4286950468383068e-02
         - 4.9597460183551309e-03
         - -8.7281434103036511e-03
         - -1.2816328850801388e-02
         - -1.3173199652281847e-02
         - 1.4007130911109156e-02
         - 2.8520230002974435e-03
         - -6.4786938167030088e-03
         - 9.2379207932356440e-03
         - 1.4674887690196373e-03
         - -6.1988373266042111e-03
         - -1.3482287571013614e-02
         - 6.0745666533584108e-03
         - -7.0736850890807832e-03
         - 1.0824239652630922e-03
         - -1.2776391173769434e-02
         - 1.8506832456150098e-03
         - 6.2885785354746052e-03
         - 7.4470684081695982e-04
         - 1.5459944487254434e-02
         - -2.1178901588764159e-02
         - -7.4602349020526822e-03
         - -5.9846870690806247e-03
         - -1.5718992365232491e-02
         - -1.5947159840866872e-02
         - 4.1954934639036297e-03
         - 1.1351758262064526e-02
         - -2.9211159908753941e-03
         - -5.7128022669196039e-03
         - 6.4290128700769727e-03
         - 3.0014191292493399e-03
         - 4.3110283515272220e-03
         - -5.6171551142427086e-03
         - 5.7885991535340069e-03
         - 2.1865682033536801e-03
         - 5.7409172995003454e-03
         - 3.4034876373906118e-03
         - 3.8799735060902813e-03
         - -7.7067357893754313e-04
         - -1.2189428683258393e-02
         - -4.6708699199429025e-03
         - 5.5636584952326942e-03
         - -3.4155244009125845e-03
         - 7.7489538448364910e-03
         - 1.5052961317936324e-03
         - -1.0152646683525356e-02
         - -1.3139031101161750e-02
         - 1.0603709730286653e-02
         - 1.8755726210273396e-02
         - -3.3488553427337632e-03
         - 1.4505546401379448e-03
         - -7.6592934991890219e-03
         - 3.5514220156781648e-03
         - -1.5809504729524082e-02
         - -7.3771013552895058e-03
         - -5.0828133240442643e-04
         - -4.2456262317569173e-04
         - -1.9682130453680086e-02
         - -1.5303141107685988e-02
         - 1.1637765798048570e-02
         - -3.4701594315203403e-03
         - 3.1582693703582302e-03
         - -6.5568061826637490e-04
         - -6.4625585994789484e-03
         - -5.0100728974305777e-03
         - -6.3322958200397158e-03
         - -9.2521591158893548e-03
         - -8.0282169337424041e-03
         - -1.2264832625693431e-02
         - 1.6737113223421321e-02
         - -1.6125039045567842e-02
         - -3.4572819622959495e-03
         - -5.9532838707594933e-03
         - 5.5207118617278039e-03
         - -1.0206246848416945e-02
         - 7.7185216984755880e-03
         - -6.5393127590557213e-03
         - 4.3932832786367453e-04
         - 4.0115831019408802e-03
         - -2.6789517679951681e-03
         - -6.7375541246372924e-04
         - 7.1756759728407058e-03
         - 1.0470903258145029e-03
         - 1.0368679005900624e-02
         - 3.7278500234786809e-04
         - -6.8043835953823118e-03
         - -8.3055493481465771e-04
         - -1.6377975560514459e-03
         - 9.8915211282955004e-04
         - -4.2829849831140469e-03
         - 4.1836901056374175e-03
         - 2.4792697055570361e-03
         - 6.1088299850955399e-04
         - -4.6764410444582426e-03
         - 5.6447457829762442e-03
         - -3.2217512833022247e-03
         - 1.4095220058561226e-04
         - -2.8643468972959457e-03
         - -7.7471269433964270e-03
         - 1.0997318425362698e-03
         - -9.9051459946263498e-04
         - -9.6426111190934475e-03
         - -1.3200039870212325e-04
         - -8.1355499854425389e-03
         - -4.9327263888783680e-03
         - -4.4424662270111451e-03
         - 6.6049824396579764e-03
         - 4.0111751459085670e-03
         - -7.9677339684122925e-03
         - -7.5471232873071186e-04
         - -5.8112849699915583e-03
         - -5.7192648321037346e-04
         - 2.9367378987278656e-03
         - -2.6463189091989704e-03
         - -2.4909049636592264e-02
         - -7.9282897110331766e-03
         - -1.0241331077900519e-02
         - -1.5989515815200087e-02
         - -8.5502334999908326e-03
         - -2.2512334828899898e-03
         - 2.7663658162546535e-03
         - 1.0541231532592846e-02
         - 7.6968599671241086e-03
         - 3.2460470099344922e-03
         - 9.9432350150427604e-03
         - 1.8415462294258011e-02
         - 2.9468070949873696e-03
         - -7.3432810342331321e-03
         - -1.2635111448914724e-02
         - 1.5998003388193342e-02
         - 1.7970094987850807e-02
         - 2.6793493674800001e-03
         - 2.6931342504205049e-03
         - -3.1004612982518062e-03
         - -6.3197097946129871e-03
         - 2.2252923428145732e-02
         - -9.0767784253844002e-03
         - 7.6935933885345408e-03
         - -1.8788662457742734e-02
         - -4.6309656024357826e-03
         - -3.6226466953177966e-03
         - 8.0818000916478405e-03
         - -1.8456909135252297e-03
         - 7.2039852463906921e-03
         - -5.7925643875963648e-03
         - 1.2629152137407479e-02
         - 2.2415651586881781e-03
         - -1.3559861103104268e-02
         - 1.2633312048758902e-02
         - 9.8158164610817802e-03
         - -4.5153836211752575e-03
         - -2.5947350290000653e-02
         - 1.2628704423355411e-02
         - 1.1663594902887686e-02
         - -6.0498461193512765e-03
         - 5.6609405855040495e-03
         - 1.2308794244074018e-03
         - 7.4066771960750568e-03
         - -1.3474467103643021e-03
         - 1.1626481710467103e-02
         - 5.4808052821390743e-03
         - -5.1839035302368415e-03
         - -2.3756893462541697e-02
         - 1.0564523734998364e-02
         - 6.3417733412791857e-03
         - 5.4530815367330333e-03
         - -8.2590493652484316e-04
         - -1.9345504433933337e-03
         - 7.2207213612671128e-03
         - -2.4811636599739459e-03
         - 2.0851230510273173e-03
         - 1.2470313672020963e-02
         - 1.1662272939141429e-02
         - 5.6929345818075789e-03
         - -3.4875894420753248e-03
         - -4.7415445644555555e-03
         - 1.1983502369752406e-02
         - 2.5473909039437536e-02
         - 6.2685395790670374e-03
         - -1.9429554538285920e-03
         - -5.2035949507764408e-03
         - 1.7612012520474359e-03
         - 1.8055289611755683e-02
         - -2.3290151921501172e-03
         - 1.1035810998349891e-02
         - -2.4351132888391355e-02
         - -8.2915851878187143e-03
         - -2.3582476798053773e-03
         - -3.3674189899284192e-03
         - 3.2100097721683113e-03
         - 1.0668674871784131e-02
         - 3.3731039641411793e-03
         - 1.7196560483653076e-02
         - 1.2146053418963958e-02
         - -5.0469084745724067e-03
         - 1.7452155151751768e-02
         - 9.4122025217041431e-03
         - -1.2397854377756607e-02
         - -2.5648934873831873e-02
         - 1.2858321553052054e-02
         - 1.0967301747184589e-02
         - -8.9892404645599340e-04
         - 9.8057817696557397e-03
         - 4.5479485903023107e-04
         - 1.0809389439795517e-02
         - 3.5410395880260850e-03
         - 1.3440203233029744e-02
         - 1.0432417162149826e-02
         - 9.8306764628159175e-03
         - -2.3661412000201623e-02
         - 1.4192726601581291e-02
         - 1.3332028100702983e-02
         - 1.4251204456593279e-02
         - 4.1610470622962309e-03
         - -4.9139026561278434e-03
         - -6.4954783231982224e-03
         - -1.2401165828964601e-03
         - 3.5696488521545127e-04
         - -4.9454124624118802e-03
         - -5.9313975963061691e-03
         - -9.6705420639574425e-03
         - 4.6289401113307352e-03
         - 1.9802696459455785e-03
         - -3.8572500320030946e-03
         - -7.3361276807605716e-03
         - -2.4761397684231021e-05
         - 5.1911328196504059e-04
         - -4.6368334140587213e-03
         - 5.3300889255102741e-04
         - -1.4626969066043280e-02
         - 1.8352247562711390e-04
         - 4.5271717831774239e-03
         - 7.7444155846874147e-04
         - 1.8904267487594468e-03
         - -5.8040098208700834e-03
         - 6.4055919806401090e-04
         - 2.6795386741431610e-03
         - -2.7517313901870150e-03
         - 3.7647362465797916e-03
         - -3.9993250907115838e-03
         - -7.1746013032425995e-03
         - -9.2252811800446199e-03
         - -6.9994691372151398e-03
         - -4.3131821330476784e-03
         - 6.5544828804458615e-03
         - 8.1869362739348753e-03
         - 2.5063840834190533e-03
         - -6.6171714361105442e-03
         - -6.3641286788195875e-03
         - -6.5833103655812937e-03
         - -2.7712491733465263e-03
         - -5.8510737753199637e-03
         - 6.4091123798858968e-03
         - -4.5406714512801405e-03
         - -4.5123114713611235e-03
         - -1.9767484993810591e-02
         - 4.1419508675984401e-04
         - -3.5365386239593743e-04
         - 1.5162406930568644e-03
         - -1.2071758276924121e-02
         - 4.4608124716451090e-03
         - 2.8157223429000596e-03
         - -7.4881462186207649e-03
         - -9.5969190197894207e-03
         - -1.4511837139680428e-02
         - -1.7435482762053051e-02
         - -3.2425721209763635e-02
         - -1.5916056815731969e-02
         - -1.2804362631114390e-02
         - 2.3859958417042905e-04
         - -1.8793155072156117e-02
         - -1.1016512777881944e-02
         - 2.2340068353844801e-03
         - 3.0791337489314238e-03
         - 3.9626990089713281e-03
         - 9.3996686587352312e-03
         - -2.8674516317510695e-02
         - 5.7009153694932294e-03
         - -1.4673461617918528e-02
         - 3.1112435870846892e-02
         - 7.5278409214417277e-04
         - 1.2465640933935132e-02
         - -5.7128746507458302e-03
         - 6.2355711554070558e-03
         - 4.4023578706353069e-03
         - 7.8856119479746682e-03
         - -9.7075761359704613e-03
         - -1.8928645532894597e-02
         - -6.2637134765402298e-03
         - -2.6818841081252626e-02
         - -2.2422123723424545e-02
         - 1.4481502263877183e-02
         - 3.0395215985666694e-02
         - -9.9281751344427443e-03
         - 3.1452432642505310e-03
         - 2.3418409623039229e-02
         - -1.8376599142372191e-02
         - 1.2521972067392369e-02
         - -1.8565211800441773e-02
         - -2.2401495214372808e-02
         - -3.4020689933685316e-02
         - -1.7590740811189654e-02
         - -1.9493822939555105e-02
         - 2.1308362980353077e-02
         - -1.1999658475899032e-02
         - -7.7792122071890972e-03
         - 2.3197941777440526e-03
         - 2.8491487694093046e-03
         - 1.1636614083698366e-02
         - -1.3927784799798660e-04
         - -3.3385116739978013e-03
         - -7.3407127020505888e-03
         - -1.1530648044551652e-02
         - -1.2043569257790989e-02
         - -1.0196856125254306e-02
         - -2.1756578776324457e-05
         - -4.1200998876046819e-03
         - -1.8448594256362184e-02
         - -1.9396658988756608e-02
         - -7.2799418438853148e-03
         - 2.9256388171792691e-03
         - -9.4826827669618598e-04
         - 9.7482174321458382e-03
         - -1.9079373143915695e-02
         - 2.7369299681829187e-03
         - -1.5152580745945329e-02
         - 2.4507461232503008e-02
         - 5.6699125511424232e-04
         - 9.5859061592243212e-03
         - 2.8505805982075275e-03
         - 1.3155088817326133e-03
         - 5.8574822280928040e-03
         - 1.0445002335678268e-02
         - -5.1138308978763616e-03
         - -1.5989749970507897e-02
         - -3.0945616585154431e-03
         - -2.4456647700715737e-02
         - -5.3573348097374377e-03
         - 1.2069918104886146e-02
         - 1.4780348885376849e-02
         - -3.5440924550828009e-03
         - -5.0172734178524515e-03
         - 3.6310114997556236e-03
         - -1.2029714319163226e-02
         - 1.9135448935323337e-03
         - 1.4767921376335653e-03
         - -2.8434741713538585e-03
         - -2.0526934904729434e-02
         - -1.8406657077795947e-02
         - -2.5511314736686257e-02
         - 2.8411811504701043e-02
         - -1.4966627900166046e-02
         - -7.0134095652307679e-05
         - -1.1495381028940099e-02
         - -3.1011421038107645e-03
         - 3.7397426549932063e-03
         - -5.9881434434138367e-04
         - -2.1322022168982557e-02
         - 9.5786674789132414e-03
         - -2.3131608768741717e-03
         - -2.1956529524997474e-04
         - -1.9056675580099151e-02
         - -1.4898604738573244e-03
         - 5.7960122854268008e-03
         - 1.0965057198701991e-02
         - -1.9182887619253138e-02
         - 1.0897597895997231e-02
         - -5.8016600264707251e-03
         - -7.8179441796733546e-03
         - -6.1454348510296235e-03
         - -1.1223051817477911e-02
         - 9.3521385381654769e-03
         - 1.6766483745076770e-02
         - 9.1482207233406585e-03
         - -6.2906737214298751e-03
         - -1.7340972446049627e-02
         - 5.2434344807401039e-03
         - 2.0148041110576380e-02
         - -8.2096018234134455e-03
         - -1.0442753520678765e-02
         - -4.7119453881699479e-03
         - -1.2071615746309718e-02
         - -1.6203938087840999e-02
         - 3.3982450547408046e-03
         - 6.8384176657052447e-03
         - 5.3292466293934776e-03
         - -2.5024183096601805e-03
         - -8.4802335616524633e-04
         - 1.0011554878225588e-02
         - 1.4959751223669973e-02
         - -4.0969589505102880e-03
         - 1.2932414413858876e-03
         - -7.1428630011521463e-03
         - 1.6103110584818996e-02
         - -3.5411422574846063e-03
         - -2.3758732625045118e-02
         - -1.8512341624583029e-02
         - -2.5795498893778791e-03
         - 2.1368763809367367e-02
         - 9.5763709070425355e-03
         - -8.9758231322524286e-03
         - -1.3149251903154170e-02
         - -3.5764329934533344e-03
         - 1.0742315508584699e-03
         - -6.7155121136401605e-03
         - -4.1236337373449809e-03
         - -1.3597016752531627e-02
         - -4.7680986834932881e-03
         - -4.7213689838704106e-03
         - -8.3824187995075253e-03
         - -2.0646869314468563e-03
         - -1.4370517355029285e-02
         - 1.0855758963132400e-02
         - 8.9724317830391503e-03
         - 6.8139571356343439e-03
         - -1.3141197236769464e-03
         - 1.4418852748031171e-02
         - 2.0191011353733871e-03
         - -6.5967999338017958e-04
         - -2.6004816741623344e-03
         - 3.6361755431129064e-03
         - 2.5654690581827441e-03
         - 4.4148109574716548e-03
         - -6.1150291829926012e-03
         - -1.1719483896021629e-03
         - 2.1731711099458114e-03
         - 6.1746713687550157e-03
         - 1.2960738414745763e-02
         - -1.1356469080729535e-02
         - -7.8772613978016701e-03
         - -1.3311594913949135e-02
         - 2.4713625871121267e-03
         - 1.0402505498233185e-03
         - 3.1532422736381323e-04
         - 1.0886249849509000e-02
         - 5.3153275839705350e-03
         - 3.9875743205512529e-03
         - -1.1357093729067663e-02
         - 7.2417759725157500e-03
         - -2.8710900478098075e-03
         - -1.3261673951723450e-02
         - -5.1618523184158351e-03
         - -4.2965755458039398e-03
         - -2.5631459438445747e-03
         - 4.3250419236057405e-03
         - 2.8981525407606652e-03
         - 1.3952904841092077e-02
         - 2.7187077628185443e-03
         - -3.3843290098076657e-03
         - 3.8899694025670210e-03
         - -6.0765786190570738e-03
         - -9.5826003849254493e-03
         - 1.8930394967971759e-03
         - -9.0911141764394073e-03
         - -5.3350576696889673e-03
         - 2.8918665315791798e-05
         - -6.7158276489018157e-03
         - 4.3773493769913669e-03
         - -1.3902747061833089e-02
         - -9.0915785509717260e-03
         - 5.2026594612053978e-03
         - 1.8209063965240700e-03
         - -1.1855459204830553e-03
         - 2.0956132109769495e-03
         - -1.8036866546460723e-02
         - 5.7685644578207686e-03
         - -1.0668034181834908e-02
         - 8.4503721582570770e-03
         - -2.9153528621374356e-03
         - 1.8172425129051749e-03
         - -1.4783631197674088e-03
         - 5.5845520193405912e-03
         - 2.1442765269098509e-03
         - 1.0601447812444132e-03
         - -5.2237014193383027e-03
         - -3.0105004854077389e-03
         - -3.6558499275086281e-03
         - -1.9624332587536990e-03
         - -6.2144980374597000e-03
         - -9.3051622171216986e-05
         - 1.3724143033056326e-02
         - 3.3554016344041139e-03
         - -8.8030329020880420e-03
         - 5.8595871008023616e-03
         - 3.6606484653401192e-03
         - 6.8069860630716140e-03
         - -3.2801134135625572e-04
         - -1.3242458577230806e-03
         - -6.0405758378890232e-03
         - -4.8793472753404154e-03
         - 2.1444648366392566e-03
         - 8.3970328170235101e-03
         - 3.8748823922464377e-03
         - 5.5222251104660872e-03
         - -7.0454792033998199e-03
         - 5.3356734442074885e-03
         - -3.1475169236684442e-03
         - 1.1337556740682236e-02
         - -1.0322200665373574e-02
         - 1.5370933272523452e-02
         - -7.5301831791974340e-03
         - -3.1786966832027777e-03
         - -1.7278583462947115e-02
         - -6.6344630936228059e-03
         - -4.3004099726250420e-03
         - -3.2322776918097059e-03
         - -2.2603281811918886e-03
         - 9.0792810552063185e-03
         - 2.7898519079965801e-03
         - -6.5518176826172107e-03
         - 2.1997508628127352e-03
         - -1.6430019873894020e-02
         - 7.0842113784102337e-03
         - -7.0991459339491752e-03
         - 9.4424118569679753e-03
         - 3.0398372598006355e-03
         - 7.5361986820893486e-03
         - -1.5389115343605649e-03
         - -4.9731700934465672e-03
         - 1.7075380016836413e-03
         - -2.1944285635832070e-03
         - -3.1414315497314878e-03
         - -8.6773130557510712e-03
         - -9.1478334393630609e-03
         - 1.0715180604261826e-02
         - -7.2725420531605479e-03
         - 8.5228949193873593e-03
         - 5.5678359521870854e-03
         - 7.5769822474708688e-03
         - 1.0722181787827456e-03
         - 2.1007988723173465e-03
         - -1.0470533758108191e-03
         - 5.9384589135357511e-03
         - 3.8390154351018014e-04
         - 9.7894125027738529e-04
         - -8.3066305270145437e-03
         - -7.7184798457540123e-03
         - 1.5876885299744018e-02
         - 1.6044981703046347e-02
         - 7.1597507470567319e-03
         - 1.2877981980395021e-02
         - 5.5884343099926884e-03
         - -5.6826285098483809e-03
         - -1.2465749249142573e-02
         - -3.6985348006205324e-03
         - -7.2509101430467560e-03
         - 7.0564012043416681e-03
         - -1.2772039708829813e-02
         - -1.3549754616854927e-02
         - -2.1200948198699717e-02
         - -3.6837675264320361e-03
         - 9.3672497184465082e-03
         - -1.8446832646399368e-02
         - -9.6358853907319211e-03
         - -2.0818966677494661e-03
         - 5.0679031035082891e-03
         - -2.8465386052372713e-03
         - 2.7517876602021060e-03
         - -2.0802256275546372e-02
         - -1.1329475218185079e-03
         - -4.7947907284589947e-03
         - 1.9521266737307513e-02
         - -1.8565984129555509e-03
         - -5.6287605727576109e-04
         - 1.6012666934743145e-03
         - -1.1505766039261016e-03
         - -2.2661769115148679e-03
         - 1.3198177679404129e-02
         - -1.7823620323080588e-03
         - -1.0722592282985074e-02
         - -3.2955820519104478e-03
         - 5.4365169568884042e-03
         - -1.2063078240888928e-02
         - 2.8967555426552302e-03
         - 1.6405285152838782e-02
         - 1.0161510281075722e-02
         - -2.2950364681005510e-04
         - 5.2796912458270449e-03
         - 8.4003120553669517e-04
         - 7.7719235708333650e-03
         - -1.1009592990894020e-02
         - -5.0486590938034048e-03
         - -1.9985939190534940e-02
         - -1.3992131277858675e-02
         - 2.1110209634092887e-02
         - 1.7954277197469743e-02
         - -4.5335599987462389e-03
         - -5.9036120632215815e-03
         - 2.4816369330817679e-04
         - -3.7476038837926605e-04
         - -9.7300562122665246e-03
         - -9.6882179927170933e-03
         - -1.2975161483765171e-02
         - 1.0242473480178042e-02
         - -1.7976488691256978e-02
         - -6.6864554043087540e-03
         - -1.5956965355103533e-02
         - 2.7895487490211335e-03
         - 5.2839973598084186e-03
         - -1.1285866577749971e-02
         - -1.3666606167935422e-02
         - -8.6315187602256493e-03
         - 1.5691397434841865e-03
         - 4.7133263014482495e-03
         - -1.0351637742707874e-03
         - -7.1235446758744691e-03
         - 1.4442624788120596e-02
         - -3.5328756415219536e-03
         - 1.5432852437634715e-02
         - 4.3142832067850001e-03
         - 5.0434118255961030e-03
         - -5.8969549013075809e-03
         - -9.5576015459438220e-03
         - -2.3969785408515056e-03
         - 9.5239318110278050e-03
         - -5.9848644886375266e-03
         - -1.0852591003158239e-02
         - -4.2110302103078407e-03
         - 2.6033839835500898e-03
         - -1.3403269630141058e-02
         - 5.1446620369694721e-03
         - 2.0888268873034934e-02
         - 5.9702888224132918e-03
         - -6.2206277588887273e-03
         - 1.0716745145270585e-02
         - -1.3160304422591687e-04
         - -3.2706051576373968e-03
         - 1.4712105852089737e-03
         - -5.7551092852717580e-03
         - -1.2115513847708715e-02
         - -8.0495407618773381e-03
         - 8.0369100247393854e-03
         - 1.7170842746888928e-02
         - -8.2131068866182749e-03
         - 2.0985431982258199e-03
         - 2.5367750136615838e-03
         - -2.8680333226670509e-03
         - 2.9561027577461930e-03
         - 1.0903032765736226e-02
         - -1.3670348809986875e-03
         - 1.1356312174607971e-02
         - 1.2487186515012004e-03
         - 2.3299006585242353e-03
         - -4.1933465153014108e-04
         - -6.2273507109129522e-03
         - -7.5983596984988931e-03
         - -2.5222450267260686e-03
         - -2.2782551310735781e-03
         - 4.0602719414109152e-03
         - 9.7101458342817113e-03
         - -2.9456669279560401e-03
         - 9.4117057276836748e-03
         - 4.5139135091044969e-03
         - 9.4126246985321085e-03
         - 2.5723897833464151e-03
         - -2.3262173642528351e-03
         - 4.0858215527779995e-03
         - -6.5587402461339799e-04
         - -4.2300445864754913e-04
         - -7.5890698247155367e-03
         - -7.6018653971000319e-04
         - -2.4948970660509224e-03
         - 4.9269589383312586e-03
         - -5.5083276924924379e-03
         - -7.8443504805459606e-03
         - 1.3729139235211059e-02
         - 1.5445922137212503e-03
         - 8.0283826397345229e-03
         - -9.7794952794649694e-03
         - 1.8948694416963955e-02
         - -6.8990994731563081e-03
         - 2.7692001225624123e-03
         - 2.2007391005137659e-03
         - 4.7285810555983418e-03
         - 9.5632957441645922e-03
         - 4.6586361796562255e-03
         - -5.0773380099856328e-03
         - 1.1795582334407253e-03
         - 1.6177591657219038e-02
         - 1.0646585231409637e-03
         - 2.4444465682287001e-03
         - 1.9670940123264445e-02
         - 1.3069200275932891e-02
         - -6.2337750338499510e-03
         - -8.8404491333904569e-03
         - 3.8560439958304374e-04
         - 9.4598575204180562e-03
         - -1.0270050894829496e-02
         - 2.3106516629102071e-03
         - -1.1137623921772810e-02
         - 9.0093775523679802e-03
         - -7.2702781732854865e-03
         - 7.7690478846406110e-03
         - -1.4416663101047795e-02
         - 9.9297925262889792e-03
         - 6.9610501044389695e-03
         - 7.9821975609891383e-05
         - 6.2998096592714655e-03
         - 3.1316872111580960e-03
         - 7.6242692916198311e-03
         - -1.3348403497422256e-02
         - -6.2002003360132540e-03
         - -7.3152011076065195e-03
         - -6.9578659507294775e-03
         - 7.7296241632503603e-03
         - 1.1118868127316729e-02
         - 3.8066226651065549e-03
         - 3.9706476280388344e-03
         - 9.9869553067798624e-03
         - -1.8296400698176881e-03
         - 6.4251615706551130e-03
         - -5.1857717962512616e-03
         - -1.0551984642713050e-02
         - 1.4752609963802697e-03
         - -1.0128079239367682e-02
         - -5.8609467333350321e-04
         - -2.1902107435393510e-02
         - 1.9491976492445936e-02
         - 7.0892543132019365e-04
         - -4.7497767643782636e-03
         - 1.7371773590109156e-02
         - -1.8087358059862415e-02
         - -1.6618212527810938e-02
         - -7.8640843400946230e-03
         - 5.9252928271386887e-03
         - -1.8376821639342858e-02
         - 7.1653212978742818e-04
         - 1.7463936416822446e-03
         - -1.6374389712791846e-02
         - 2.6296573575455458e-03
         - 1.3753121507267416e-02
         - 1.0041543437123251e-02
         - -8.4481226677620997e-03
         - 9.6686448577033932e-03
         - -2.2317149362569785e-02
         - 2.9946966850459781e-03
         - -1.0729423238035017e-02
         - 1.2834409175902528e-02
         - -1.7403374432101283e-03
         - 1.4950820054957790e-03
         - -1.8121948784408190e-02
         - 1.0226480566455415e-02
         - -4.4548288676632044e-03
         - -7.7397849757397516e-03
         - -5.4193575644456314e-04
         - -2.8565911084039164e-03
         - -7.7053545200197159e-03
         - -4.7370966272424720e-03
         - -7.8645045087077439e-03
         - 1.3620174805313129e-02
         - 6.9808539158340913e-03
         - 8.6052504304186157e-03
         - 1.6019191200724814e-02
         - 2.3155646118622366e-03
         - 4.1221528626648159e-03
         - 4.7792442451268183e-03
         - -7.3366906877700578e-03
         - 1.0510221235160497e-02
         - 2.8261732036946833e-05
         - -2.0430501513246935e-02
         - -3.2496873749221842e-03
         - -1.2551270313736431e-02
         - 1.1393244806773067e-02
         - -1.6146216823540952e-02
         - 2.0691263212073300e-03
         - -7.3325414818329378e-03
         - -5.1678241448946220e-03
         - -1.7345711672872004e-03
         - -1.9714600312837970e-02
         - -1.5655574560503871e-02
         - -1.3404196932268825e-02
         - 8.8822299952447167e-03
         - -3.3852687772790560e-02
         - 6.8435892186872000e-03
         - -1.2306809052786446e-02
         - -1.4753707870066281e-02
         - -1.6946164953212620e-02
         - 1.7236926169863316e-03
         - 2.0352235598791877e-02
         - 1.2264683053456588e-03
         - 1.1471560812103950e-03
         - -7.1480610468025226e-03
         - -7.7503422954378386e-03
         - -1.3927602563674544e-02
         - -1.0232038683994240e-02
         - -1.2628379027751669e-02
         - 8.6583462469191907e-03
         - -4.7826405601688240e-03
         - 3.4890313825766233e-04
         - 1.0806606377283161e-02
         - -2.2717716542122817e-03
         - 1.1606427045743181e-03
         - 4.4972359833823135e-03
         - -3.2768786701784791e-03
         - 5.5783004073853941e-03
         - 5.0789415044929197e-03
         - 1.3278913764104765e-02
         - -8.6791714830316679e-03
         - -2.1674423150293762e-05
         - 6.5042352194511436e-03
         - 1.6314676549316662e-02
         - -2.2660257638977004e-03
         - 7.1545967159489200e-03
         - -7.5040049401975985e-03
         - -8.4461253523280162e-03
         - -1.3024834444431359e-02
         - -7.1071526603549351e-03
         - -6.6851871326447073e-03
         - -7.6088583557015780e-03
         - -9.9520617684344097e-03
         - -9.3013255611788265e-03
         - 8.8739945147485455e-03
         - 7.9834656007310104e-03
         - -1.6912987803747805e-02
         - 1.1268320634259789e-02
         - -1.0758619506044223e-02
         - -1.3123507974226253e-02
         - -1.5157328474189387e-02
         - -3.7428735065560713e-03
         - -2.5320372706476493e-02
         - 6.9098912335451958e-03
         - 5.0829561099723945e-03
         - -1.7114989587339396e-02
         - 4.1483551261037666e-03
         - 9.8737680855945885e-03
         - 9.8707430736836386e-03
         - -1.1133372022205068e-02
         - -1.0567883868797022e-02
         - -3.9030892972490663e-03
         - 3.4930191855568897e-04
         - 4.8617874027363124e-03
         - -8.1787600809888044e-03
         - -5.0839915228974688e-03
         - 1.1799698707992884e-02
         - 4.8147547519170331e-03
         - -3.5737530707569943e-03
         - -1.0302067295665485e-03
         - 1.0118952427749612e-03
         - -9.5836808284259431e-03
         - -4.8234287461759139e-03
         - -5.6452452893996901e-03
         - 1.7619957065464861e-02
         - 4.0319655437750226e-03
         - 8.4184056989975269e-03
         - 3.7595778565109724e-03
         - -1.9194298879350855e-02
         - -4.1182063176082263e-03
         - 8.1073061090595651e-03
         - -1.8132198105815015e-02
         - 5.5691327758155260e-04
         - -2.5126548391751604e-03
         - -8.3314032888394778e-03
         - -3.4547379655001185e-03
         - 4.5609292708751663e-04
         - 2.1034768905624050e-03
         - 8.2867476796787045e-03
         - 2.9762744428938275e-04
         - -2.7029723906107990e-03
         - -2.6160590995789441e-03
         - 6.7750024240168932e-03
         - 1.0749960473831113e-02
         - -1.6162117833456918e-02
         - -1.5223963981801701e-03
         - 8.8529011064987992e-03
         - -4.3019489761350563e-03
         - -2.1277670243203231e-03
         - -2.3645100856258292e-02
         - 2.4114808197994455e-03
         - 9.0862720717013856e-03
         - -1.6011995890980284e-03
         - -1.8116428255614669e-02
         - -1.6132583036372751e-02
         - 5.4047560213186336e-03
         - 1.1141296171286180e-02
         - 3.0046555084123727e-03
         - 8.9414950419296740e-03
         - 5.9730924278530422e-03
         - 9.7321697017147390e-03
         - 1.3837043220189532e-02
         - -2.4713659264438627e-03
         - -1.7902571901044870e-02
         - 1.0199468219750233e-02
         - 2.7963598423101019e-02
         - 1.3411535779236400e-02
         - -1.4399925388608311e-03
         - -7.4845063323535580e-03
         - 1.2990656548113967e-02
         - 2.7292468690595716e-02
         - -8.7292718915368481e-03
         - 1.3367457032149142e-02
         - -2.6011462767360986e-02
         - -3.1887097966627195e-04
         - -1.1205603802163736e-02
         - 7.4379635337033477e-03
         - 1.7326799059555365e-03
         - 1.8898648341662227e-02
         - -1.7396910306317643e-03
         - 1.9216243270994141e-02
         - 2.2109015913387132e-03
         - -1.7655536085769058e-02
         - 1.5780680204077267e-02
         - 1.6833497051646853e-02
         - -1.4707361406767630e-02
         - -2.9228704392547728e-02
         - -1.3168727316517721e-03
         - 1.2180585964404645e-02
         - -4.1435894237809240e-03
         - 1.2104984031736626e-03
         - 4.1341936072973647e-03
         - 7.5866182999533372e-03
         - 4.4453790213018598e-03
         - 8.3024826651026187e-03
         - 1.6150208197535720e-02
         - 7.0912557829466679e-03
         - -2.5373895792403147e-02
         - 1.8238491520836789e-02
         - 1.8869451389459665e-02
         - 8.8751044369779781e-03
         - 3.1526666561769571e-03
         - -1.2535388390228401e-02
         - 2.8953869831157496e-03
         - 5.9361824813240240e-03
         - -1.2498467066304225e-02
         - 1.2402607506282295e-02
         - 5.9554059154339305e-03
         - 2.0634780766791041e-03
         - 5.2476103745416839e-03
         - -2.0519280712069056e-03
         - 8.8035750768535696e-03
         - 1.1726462910180245e-02
         - -4.1113915982471600e-03
         - -4.0554207346451569e-03
         - -7.4172417536526244e-03
         - -1.3116490216467150e-02
         - 1.2870058639080882e-02
         - -1.1764863141282115e-02
         - 1.9994441811934491e-03
         - -9.4843611521017324e-03
         - -1.0923878006171393e-02
         - -1.2544620716653365e-02
         - 3.5442101990250659e-03
         - 3.2807755728663521e-03
         - -6.3767737591504704e-03
         - -2.5419019438170246e-03
         - -6.6198940267774131e-03
         - 6.4337777418487837e-03
         - -1.3487612605726229e-03
         - -3.0027470461916018e-03
         - 1.6054485522082145e-02
         - -1.3690085489760133e-02
         - -1.7314666451427652e-02
         - -1.1981925678202754e-02
         - 1.1502399928300091e-02
         - -1.5307147939450025e-02
         - 7.6625187606746354e-03
         - -1.4038937190580095e-02
         - -1.1811996078103130e-02
         - 1.1369041155643262e-02
         - 9.9833616684449379e-03
         - 1.4655036970979862e-02
         - -1.6096837394859630e-02
         - -1.3574915979949871e-02
         - 8.0868685515892384e-03
         - -5.8898178449938825e-03
         - -3.2294577707390748e-03
         - -2.8950660176653878e-03
         - 9.4264079209187990e-03
         - -7.7295075515110539e-03
         - -9.5682450183557017e-04
         - -1.1533973523025362e-02
         - -7.5805769124886778e-03
         - 3.2279586181236256e-03
         - -1.1750668964256668e-02
         - 4.1897174667500760e-03
         - 6.8300251254525476e-03
         - 1.3709712294335296e-04
         - -8.6706319467290578e-03
         - -6.7642304592017335e-03
         - -8.3062366666621906e-03
         - -6.5531127302006949e-03
         - -5.1429051057240811e-03
         - -2.0232037755003991e-02
         - 1.2284885369403089e-03
         - 7.7748828295468603e-03
         - 1.2069464714378787e-02
         - 7.0182041647059833e-03
         - -4.5295564589787994e-04
         - -2.2620700002109733e-03
         - 2.5677649277828494e-03
         - -5.3233256338235235e-03
         - 4.3140712245363591e-04
         - -7.3351540053558182e-03
         - -1.5071210613204745e-02
         - -2.6620079873332096e-03
         - -1.4666064329811860e-02
         - -2.7799812330462593e-03
         - 1.1680895945827227e-02
         - 1.2719577201123352e-02
         - -2.1501610891200997e-04
         - -1.4890009251237901e-02
         - 1.1188383826952307e-02
         - 1.4820679645807485e-03
         - -4.8592819834730391e-03
         - -8.8839238368785163e-03
         - 1.0947708329037476e-03
         - -8.9398616249761059e-03
         - -1.4033998029040116e-02
         - -2.0670581051467248e-02
         - 6.5656159869610592e-03
         - -1.7937206590155604e-03
         - -4.8829815292939956e-03
         - -2.0846768265291929e-02
         - -1.7103262036782399e-03
         - -2.0911470842663736e-03
         - 2.4232173459863633e-03
         - -1.5739537573713030e-02
         - -1.6608193424054653e-03
         - -5.3100991915170691e-03
         - -1.5902402984248862e-02
         - -2.7162409279797770e-02
         - -9.2913438362812340e-03
         - 8.8762560381942107e-03
         - -7.5340148284849847e-05
         - -1.3154627933648350e-02
         - 5.8544428174810374e-03
         - -6.6946929103568987e-03
         - -9.5297377824840098e-03
         - -6.9010948701677790e-03
         - -2.4689726254632175e-02
         - 5.1468597164209843e-03
         - 7.7769128020771915e-03
         - 2.1720177219823524e-02
         - 7.4521811830921799e-03
         - -1.2848277774700875e-02
         - -6.1816970392292942e-03
         - 1.3325929986743036e-02
         - -1.2055518849850304e-02
         - 2.5687173869256654e-03
         - -7.0274549194986819e-03
         - -2.1803552242518596e-02
         - -5.4727732066471926e-03
         - -1.2148015455400124e-02
         - 6.2963403531306021e-03
         - 1.7455215308611566e-02
         - 1.0670652149625181e-02
         - 5.0839034512853935e-03
         - -4.4092619579768674e-03
         - 1.5425884467257041e-02
         - -2.1646930931559452e-05
         - -5.9852917279816934e-03
         - -8.3843704548332270e-03
         - 8.5500148216267006e-03
         - -6.6124216076559614e-03
         - -1.9072324809464483e-02
         - -2.2184052262342688e-02
         - 1.0482285083833113e-02
         - 2.2518499496018665e-03
         - -1.1657227081830236e-02
         - -5.5112657790879959e-03
         - -2.7895036526034739e-03
         - 9.5732943896203061e-03
         - -1.1510601908094050e-02
         - -3.8984278192507153e-03
         - -1.1567105963316308e-02
         - -1.3988270880620417e-02
         - -2.8203563982444366e-02
         - -1.0684108085649176e-02
         - -1.1273464239997798e-02
         - 9.4147198955148101e-03
         - -1.7949801445498518e-02
         - -1.4995530768793858e-02
         - -3.2974571020897938e-03
         - 2.5692842872093819e-03
         - -1.7752570509421122e-03
         - 2.7504346124751478e-03
         - -1.9735802051701393e-02
         - 9.8392980480920336e-03
         - -2.7011615437587230e-03
         - 1.5038842900788454e-02
         - 4.6904521144091058e-03
         - 1.0952731872165606e-02
         - -5.5337058110822655e-03
         - -3.1484999926639284e-03
         - -1.2878331460235114e-03
         - 1.5529528802957428e-03
         - -1.1066142832523714e-04
         - -9.6654181709367928e-03
         - -4.0917800838522218e-03
         - -1.2034497607668167e-02
         - -1.7574003064219489e-02
         - 6.9442422008190296e-03
         - 1.0621407506744601e-02
         - -5.5674979662469863e-03
         - -4.6237138784324941e-03
         - 1.4355308588585750e-02
         - -1.4691465291340640e-02
         - 6.7689397779592724e-03
         - -1.6326170935266279e-02
         - -5.7663704605448937e-03
         - -1.2671490704635307e-02
         - -1.7522475541585775e-02
         - -2.1585109421366766e-02
         - 1.4083673237343121e-02
         - -7.6225305259138227e-03
         - -1.4176615809893302e-03
         - -1.1832710436891568e-02
         - 1.0004139144397595e-02
         - -1.6454059972231139e-03
         - 1.8618960614030645e-03
         - -1.9987157910057906e-02
         - 6.8792952456329477e-03
         - -1.6988107828587722e-02
         - -1.8012921969920003e-02
         - -1.2160993427172730e-02
         - -1.7035606839293962e-02
         - 2.8107979019682630e-03
         - -1.4664749348967778e-02
         - -1.3252330891846058e-02
         - 6.4746249897458513e-03
         - 8.1539726925779956e-03
         - 2.7572753097116804e-03
         - 2.8558997485672723e-03
         - -9.7944007131152283e-03
         - 2.1050454270417260e-03
         - 6.9288650719960395e-03
         - 1.4015141027174325e-02
         - 9.4396360420392488e-05
         - 1.0301708912889977e-02
         - 3.0468735585686530e-03
         - 4.9504579721326158e-03
         - 5.9234023312849972e-03
         - -1.6358171520424465e-03
         - 2.0369311590386083e-03
         - -6.7665316045203835e-03
         - -8.2955625935037924e-03
         - -4.9825540410674612e-03
         - 7.1392152195953046e-04
         - 1.0558993323630396e-02
         - 2.9586653773128139e-03
         - 3.9626403478178369e-03
         - 1.9884283801812892e-03
         - 6.3171310667496034e-03
         - -5.0053444213488544e-03
         - 8.4369157407814879e-03
         - -1.3789235078380473e-02
         - -5.5408588413748657e-03
         - -1.7355637050464865e-02
         - -1.3934021437248340e-02
         - -1.5195088386098465e-02
         - 1.3384164800609518e-02
         - 1.3909207360943676e-02
         - 1.2062523685834638e-02
         - 1.3285321859143879e-03
         - -5.6701049346468742e-03
         - -3.1562976260877318e-03
         - 1.7667229987526588e-02
         - -1.1798655300102989e-02
         - 1.4620514948444234e-02
         - -1.1481623480751102e-02
         - -1.8786973720591550e-02
         - -1.7174780894235887e-02
         - -1.1644326178708890e-02
         - -1.0980207144848179e-02
         - -1.3771449936295933e-02
         - 2.8041050599661994e-03
         - 1.7628029357034565e-02
         - -2.0351138588355997e-03
         - 2.1000757394132284e-03
         - 5.6826322745352894e-03
         - -8.7689993046634832e-03
         - -1.2690262453466862e-03
         - -1.9960736151590037e-03
         - 3.1615313658524087e-03
         - -9.2559892765387859e-03
         - 1.4579314853754662e-02
         - 2.2070266042254739e-03
         - -2.4480341203592720e-03
         - 7.9773138933136364e-03
         - 1.4495300257517925e-02
         - 4.2431729523328748e-03
         - -1.0615526025686909e-02
         - -9.1841929557725036e-03
         - 1.3799716203419039e-03
         - -4.2903405239514657e-03
         - 6.9094357318912466e-03
         - 3.4546395184237347e-03
         - -1.4987795308915269e-03
         - 3.3462850726921887e-03
         - 1.2774444967437378e-02
         - -7.4161502359932820e-03
         - 2.3650783403343222e-02
         - -9.3141210412927243e-03
         - -2.2908582378970723e-02
         - -6.7682289143029878e-03
         - -2.7356249136878106e-03
         - 1.0718442730338121e-02
         - 1.2324794418657688e-02
         - 1.6367230773867029e-02
         - 1.0285920261535908e-02
         - 2.0472664691602388e-02
         - -3.0543884336016120e-03
         - -2.7671335611583088e-03
         - 1.7206711616502560e-02
         - -1.6227576860606309e-02
         - 2.8892992441059136e-02
         - -8.1247187637397394e-03
         - -6.2307909091721871e-03
         - -1.1310221022647077e-02
         - -7.5609381323016650e-03
         - -7.3660506910965462e-03
         - -5.9485312525511145e-03
         - 4.7731514185792414e-04
         - -6.6536271932500068e-04
         - 1.0064915290775397e-02
         - -5.3290863620791429e-03
         - 4.8244165377132487e-03
         - -4.2190310853290414e-03
         - 1.5795132660028043e-02
         - 1.3059777602213718e-02
         - -3.2372016274047695e-03
         - 1.9254239657677625e-03
         - -2.2934174432202620e-03
         - -1.2924207883747037e-02
         - 6.4991123440762957e-03
         - -4.0532563983857644e-03
         - 6.7072534346575134e-04
         - 1.6261726736126587e-02
         - -1.4440989921573815e-02
         - -3.9126074633084153e-03
         - 3.0024051427685747e-02
         - -2.7056050785486873e-03
         - 1.5273678454197569e-02
         - 1.5763221215966958e-03
         - 1.9369172330762959e-02
         - -1.1328827876275710e-02
         - 4.7857453520650569e-03
         - -1.1779035513799815e-03
         - 4.7799989964703374e-03
         - -3.9091161502707649e-04
         - -2.7142313990811367e-03
         - -6.9742462215545923e-03
         - -1.0851835276367567e-02
         - 3.3001944001264084e-02
         - 8.5537699829251069e-03
         - 6.3753646540808118e-03
         - 1.9580798199543368e-02
         - 8.0578512554516212e-03
         - -1.0854296481794697e-03
         - -1.2037041719967896e-02
         - -2.7742014495963150e-03
         - -1.6240675468483262e-02
         - 1.4205840641976910e-02
         - -1.0321656720637149e-02
         - 9.5123794791314928e-03
         - -2.1900490381514100e-02
         - -4.5120661832891368e-03
         - 7.1604711798100122e-03
         - 7.9122819237211969e-03
         - -9.3867523204884135e-03
         - -7.4586448286249460e-03
         - -2.0707271158079818e-03
         - 3.2116948831215314e-03
         - -4.2982566839113524e-04
         - -1.4695850627738174e-02
         - 1.1242430433452558e-02
         - 7.0028802146919209e-03
         - 1.3662832911769051e-02
         - 1.9885867700692910e-03
         - -1.8548722246348261e-02
         - -1.4308729126330213e-02
         - 8.2122919054321859e-03
         - -1.1402294652849474e-02
         - -3.9630188258822233e-03
         - -6.5304294366872015e-04
         - -1.8063215645770802e-02
         - -1.6620015924867719e-02
         - 2.0271706069617795e-02
         - 4.2263936331912505e-03
         - 1.0697509122912867e-02
         - -3.0120846529606603e-03
         - 1.1673116328905962e-02
         - 1.0265880522096833e-03
         - 9.8303264142833970e-04
         - 1.1459232324448653e-02
         - -9.0019220254486682e-03
         - 3.0609366908525694e-03
         - 1.4207708806832697e-02
         - 4.5513590226358876e-03
         - -1.0739900502006631e-02
         - 2.4864291050242140e-02
         - 3.7671809229783766e-03
         - 3.6071741175326324e-03
         - 1.3695028396910157e-02
         - -1.5236811931631706e-03
         - -7.9417531857839552e-03
         - -1.4646276792229488e-02
         - 7.1107318617171780e-03
         - -1.0850560236675548e-02
         - 4.8781156823022344e-03
         - -2.1641231660645292e-04
         - -6.4403550625864925e-03
         - -2.5418006282454955e-02
         - -1.5086025738146600e-03
         - 1.1578517891723020e-02
         - -5.8949562931355573e-03
         - -2.0144816413868741e-02
         - -7.8450013471899459e-03
         - 2.6253554831667672e-03
         - -8.6387955290507593e-03
         - -1.0193683371907803e-02
         - -2.2392925855508124e-02
         - 8.4021988597157132e-03
         - 9.4497996836150136e-03
         - 1.8642348875622328e-02
         - 4.8839718790654688e-03
         - -2.1032610812932164e-03
         - -8.3967910501764453e-03
         - 4.0750603533547423e-03
         - -1.2312299743268884e-02
         - -1.0235205951609212e-02
         - -4.3096374655763325e-03
         - -1.9064726420945782e-02
         - -1.0379731090555386e-02
         - 1.1945063624777610e-02
         - 6.5424978196587475e-03
         - 1.4451881588661626e-02
         - 7.6747271733967120e-03
         - -4.1683065233124672e-03
         - -4.8179770217832750e-03
         - 1.4795185139257728e-02
         - -1.6597448983496090e-03
         - 2.8591348193701522e-03
         - -7.0371330181498151e-03
         - 1.9647699238639986e-03
         - -4.4185121183145772e-03
         - -2.1798276607351501e-02
         - 6.4175420158521746e-03
         - 1.1632345261445022e-02
         - 6.2306309825509850e-03
         - -3.4116636944757691e-03
         - -1.6891999360634830e-03
         - -1.6676913631248610e-02
         - 3.3473232281707346e-03
         - -2.3790545220244612e-03
         - 1.1782651397427528e-04
         - 7.9767230875759498e-03
         - -4.0800543331850564e-03
         - -3.7443428449599465e-03
         - -1.2408146442836500e-02
         - -6.2550933830920607e-04
         - 3.0868730057928089e-03
         - -1.1383841078420753e-02
         - -1.1019472269589920e-03
         - -3.5875275695156496e-03
         - 9.1098508157469987e-03
         - 3.5446814728197631e-04
         - -9.9374588511842526e-04
         - -9.2698850135722113e-03
         - 1.5011292949613137e-02
         - 2.7094529363666177e-03
         - 1.4421396775859196e-02
         - 3.8566524135471543e-03
         - 6.9800343534038535e-03
         - -9.3866837251835623e-03
         - -7.7302784051097098e-03
         - -7.7381049200940921e-03
         - 1.1667504733436525e-02
         - -9.0000718152229587e-03
         - 1.8405013030085615e-04
         - 2.4398511498555067e-03
         - 1.6604293760270193e-02
         - -4.5011888519069180e-03
         - 1.0416762812490158e-02
         - 1.6996213166345156e-02
         - 3.3444982212129733e-03
         - -1.0434738037077566e-02
         - -1.0256902055685991e-04
         - 3.5502698668043310e-03
         - -2.3616742791678224e-04
         - 8.2418392345119385e-03
         - -4.7253004503565316e-03
         - -3.6644364585894755e-03
         - -1.1543649344989792e-02
         - 1.7115948528952932e-02
         - 1.3041938151325578e-02
         - 1.5009578659322966e-05
         - 5.1462797562956651e-03
         - 5.0027637334712225e-03
         - -9.5476735347058183e-04
         - -1.2124672842793876e-02
         - -1.3812013716943546e-03
         - -1.7047416791447778e-02
         - 1.5016906787624372e-02
         - -1.5392183353984115e-02
         - -1.1709731190598725e-02
         - -2.3623666308710276e-03
         - -1.0726160491229354e-02
         - -1.0399255059163558e-03
         - 1.1254947715318379e-03
         - -5.3857475547050570e-04
         - -8.8512100675856280e-03
         - -3.9626110294194898e-03
         - 7.4632638897690054e-03
         - 4.7335264321812908e-03
         - -1.7596862994529673e-03
         - 2.7340390498276712e-03
         - 8.9790782460829853e-03
         - 8.5398725259324196e-03
         - -9.2501867947791350e-04
         - 1.1329261332771918e-03
         - -1.3917624357763964e-02
         - -6.1172806934543418e-03
         - -5.6830783819017379e-03
         - -1.3965233833582588e-03
         - 9.6357993896090881e-04
         - -1.2108168614448758e-02
         - 3.3597874309047116e-03
         - 2.7304102441606824e-02
         - -6.9160969858240188e-03
         - 1.3263863729411351e-02
         - -6.7473860314388860e-04
         - 9.3310413364121481e-03
         - -8.3220525919221241e-03
         - 4.4832924095613933e-03
         - 3.3409342803013922e-03
         - 7.7469385424136549e-03
         - 1.3827471738917838e-02
         - 4.8382710222883351e-03
         - -4.9463726382714410e-03
         - -1.0836593598887919e-02
         - 3.0527773925425515e-02
         - -5.5501856458586851e-04
         - -5.4427734412865799e-03
         - 1.0525700512826979e-02
         - 1.0596065326990612e-02
         - -1.2316543320961172e-02
         - -1.8566066305600221e-02
         - 8.7020119306685569e-03
         - -5.1757375167009820e-03
         - -8.1687870948943427e-04
         - -3.7078651090910711e-03
         - -5.9272164911336276e-03
         - -4.0325998134264690e-03
         - -7.3948060634027278e-03
         - 1.1435522917217113e-02
         - -8.3197788226127382e-03
         - 1.4202580475059334e-03
         - 1.0759754844810157e-02
         - 5.7426552288374141e-05
         - -2.0271977275047918e-03
         - -4.8675507589033797e-05
         - -1.6443317693489378e-03
         - 1.7706140540931859e-03
         - -2.7991828068957178e-04
         - -1.0202394217738624e-03
         - -1.6052381472363611e-02
         - -7.3815526924172507e-03
         - 6.9047662486426738e-03
         - 1.8810729899515679e-02
         - 2.7331924626193475e-03
         - 2.0582347122928527e-03
         - -3.9036151922731363e-03
         - 1.4311355554505834e-03
         - -1.4725792188186324e-02
         - -5.7161705818897157e-03
         - 1.0185072400077717e-02
         - -1.0569862157422012e-02
         - -1.7198700815510379e-02
         - -1.8141012679270201e-02
         - 9.0860322141156479e-03
         - -1.1560052051340398e-04
         - -8.2839545750718058e-03
         - 5.6776672478489193e-03
         - -2.5573206953456176e-02
         - -2.8200252502843730e-03
         - -1.2427895693038513e-02
         - -1.0738881810024341e-02
         - -1.2005389603497573e-02
         - -8.8439664165036076e-03
         - 1.7688697998954308e-02
         - -3.8372422689069794e-03
         - 6.7723057478703223e-03
         - 5.9111790723300611e-03
         - 6.1711697151233189e-03
         - 3.0530148532383751e-03
         - 1.7029769680267957e-02
         - -1.2515807125882957e-02
         - -4.9516781781682130e-03
         - -1.5645732855039098e-02
         - 4.4355061379100892e-03
         - 2.0192270118462039e-03
         - 8.1162209829108625e-03
         - -1.7613514901199574e-02
         - 1.4450140373633097e-02
         - 1.4771417215205234e-02
         - -9.0365244878979466e-03
         - 4.2037338339081113e-03
         - 8.1119372047311639e-03
         - 1.1543634021770020e-02
         - -1.6078021434104976e-02
         - -1.0143977252512922e-02
         - 6.5042457879889914e-04
         - -4.9739532094337496e-03
         - 1.4487168094096522e-02
         - 1.4505529867518860e-02
         - -4.6512358775844809e-03
         - 1.2089485648365570e-02
         - 2.1881497569495477e-03
         - -5.3866067167279577e-03
         - 7.6887712981536975e-03
         - -3.4742967040940435e-03
         - -2.1295479685599319e-02
         - -4.8633098997456488e-04
         - -9.7172593865050821e-03
         - 7.4450558638674495e-04
         - -1.3347582114688620e-02
         - 6.2283693878270336e-03
         - -4.9110612085642600e-03
         - -1.9228450979929840e-02
         - 1.1848090756912559e-02
         - -1.2472870937626385e-02
         - -1.6665893328138538e-02
         - -2.0066045706735272e-02
         - 7.2391486485404149e-03
         - -2.5593000235437056e-02
         - -5.5292268909627107e-03
         - 3.3094060666034558e-03
         - -1.0196402375585183e-02
         - 5.0299781367682912e-03
         - 6.9561040345131053e-03
         - 1.8668930508290275e-02
         - -1.1784842419245059e-02
         - 9.9958902574318314e-03
         - -8.8773155910159256e-03
         - 3.1932242701770575e-03
         - -1.4884300199011173e-02
         - -4.1550188120222696e-03
         - -3.6544116078564308e-03
         - 4.9743206551557204e-03
         - -5.6532498619823760e-03
         - 3.2076997706509919e-03
         - 7.5211933274355958e-03
         - -1.0070718036297090e-02
         - -9.7266992251148507e-04
         - -8.3047623090374547e-04
         - -7.8387163841915804e-03
         - -9.8597195307597463e-03
         - -1.7229742589400807e-04
         - 1.3999365328815634e-02
         - 4.2927071750494599e-03
         - 2.2566570332913705e-03
         - 7.3762761484362609e-03
         - 8.2801380361032309e-03
         - -3.5626416203334352e-04
         - 5.2106819269769648e-03
         - -1.5072985268496054e-03
         - -3.2821291143662799e-03
         - -9.4216724228625287e-03
         - -2.3485358832519683e-02
         - 3.1854860383379682e-03
         - -4.0760432705816418e-03
         - 9.9208961867340000e-03
         - -2.4074780483094655e-02
         - 1.3326323208630558e-02
         - 8.3295263015244411e-03
         - -9.7279979699900682e-04
         - -4.4813354426842048e-03
         - -2.3337943553292623e-02
         - -5.3857933264330115e-03
         - -6.9897984925707994e-03
         - -4.0680172956596280e-03
         - -3.1907669824236352e-02
         - 3.1840858201579797e-04
         - -9.1838355929314049e-03
         - -2.5313664727185405e-02
         - -6.8579433129085854e-03
         - 9.7774781181617330e-03
         - 1.7371600935769598e-02
         - -8.7534739964407523e-03
         - 3.0746108373872136e-03
