%YAML:1.0
---
opencv_ml_ann_mlp:
   format: 3
   layer_sizes: [ 256, 34, 26 ]
   activation_function: SIGMOID_SYM
   f_param1: 2.
   f_param2: 1.
   min_val: -9.4999999999999996e-01
   max_val: 9.4999999999999996e-01
   min_val1: -9.7999999999999998e-01
   max_val1: 9.7999999999999998e-01
   training_params:
      train_method: BACKPROP
      dw_scale: 1.0000000000000000e-03
      moment_scale: 0.
      term_criteria:
         iterations: 20
   input_scale:
      - 2.4505798943470495e-02
      - -2.6271514787874195e-01
      - 1.5887782722673525e-02
      - -3.4267106470995456e-01
      - 1.3868863831987561e-02
      - -4.4639372182931092e-01
      - 1.2347768169516269e-02
      - -5.0429593577090615e-01
      - 1.1356937872882953e-02
      - -5.9738997441546171e-01
      - 9.9413779899487128e-03
      - -7.1994010990521295e-01
      - 9.6478674716825689e-03
      - -7.5737676447570090e-01
      - 9.9959273207262511e-03
      - -7.0536823823355299e-01
      - 9.7418631011846803e-03
      - -6.9836900462055584e-01
      - 8.9253452812294472e-03
      - -7.7763991780735664e-01
      - 8.5978755353587205e-03
      - -8.1567077231205787e-01
      - 8.2528688543434849e-03
      - -8.6382942262695128e-01
      - 9.2249104019195925e-03
      - -6.5021567145503711e-01
      - 1.0977222886887354e-02
      - -4.6418386475068296e-01
      - 1.2329122185320189e-02
      - -3.8328056531344390e-01
      - 1.5341445057674723e-02
      - -2.9435254715957093e-01
      - 1.7835790564964902e-02
      - -4.7055776458746473e-01
      - 1.4379366906110920e-02
      - -5.8547830206722629e-01
      - 1.2258095156252587e-02
      - -6.7416276181864387e-01
      - 1.1301599300319638e-02
      - -7.9708458429499396e-01
      - 9.9769853802543409e-03
      - -1.0239162055677185e+00
      - 9.5623864252149787e-03
      - -1.0599303745257826e+00
      - 8.9927735741121648e-03
      - -9.6644325169521450e-01
      - 9.1869775803712465e-03
      - -8.0481574058719818e-01
      - 8.9623929434019412e-03
      - -8.0545203443140212e-01
      - 8.6378608257097131e-03
      - -8.8599282146196812e-01
      - 8.3564210991981941e-03
      - -8.9417026193645521e-01
      - 8.2455723542613230e-03
      - -9.6191427317387357e-01
      - 8.2066269531449829e-03
      - -1.0169260810972609e+00
      - 8.4661485414346364e-03
      - -8.2736137461281034e-01
      - 9.5163563021157475e-03
      - -5.8280434794334823e-01
      - 1.1419771209033791e-02
      - -4.3679490460195736e-01
      - 1.6276038300075183e-02
      - -5.6806607317255775e-01
      - 1.4469082522491968e-02
      - -6.8980153154248458e-01
      - 1.2718980615237031e-02
      - -8.1593524121641103e-01
      - 1.1297462361147976e-02
      - -1.0465939204314871e+00
      - 1.0216332067623249e-02
      - -1.1906965880244240e+00
      - 9.6230082833376127e-03
      - -1.2082419777844666e+00
      - 8.8805295015064283e-03
      - -1.0968453729072529e+00
      - 8.9412636941830926e-03
      - -8.7788998196834234e-01
      - 9.1844855998806322e-03
      - -8.0027890023012893e-01
      - 8.6457679529928777e-03
      - -9.6173003412470703e-01
      - 8.6353015593383063e-03
      - -1.2285689434409053e+00
      - 8.2994451442352322e-03
      - -1.2121367114761996e+00
      - 8.2924944263159661e-03
      - -1.2125494035449405e+00
      - 8.2087278140312303e-03
      - -1.0617092447257799e+00
      - 8.2693047580745839e-03
      - -7.6045840881837934e-01
      - 9.1758714357897883e-03
      - -6.1117380498410179e-01
      - 1.5458141684963043e-02
      - -6.6283692570727626e-01
      - 1.4380296993471431e-02
      - -7.7272668745051121e-01
      - 1.2972831276658088e-02
      - -9.1567569743627308e-01
      - 1.1380201818542643e-02
      - -1.1239871117972269e+00
      - 1.0282326618932299e-02
      - -1.1998862310389553e+00
      - 9.5724134874878540e-03
      - -1.2960667501257725e+00
      - 9.0186625354896580e-03
      - -1.1988490190553815e+00
      - 8.9251915892650784e-03
      - -9.2184816599003983e-01
      - 8.7116440100596989e-03
      - -9.3841136960282812e-01
      - 8.5088389666290471e-03
      - -1.0472972019747073e+00
      - 8.2402360807219497e-03
      - -1.1390734818551349e+00
      - 8.2843034184914097e-03
      - -1.1007150959284315e+00
      - 8.3633102196837249e-03
      - -1.2318989795112940e+00
      - 8.1890353222673976e-03
      - -1.1336987271382188e+00
      - 8.1000071719110195e-03
      - -9.2012862927013050e-01
      - 9.4502155180909760e-03
      - -5.8752803470685078e-01
      - 1.6265493688442812e-02
      - -7.2789700033300309e-01
      - 1.4129771219171604e-02
      - -7.9888416428182552e-01
      - 1.2503321953216295e-02
      - -9.1439857171766581e-01
      - 1.1145906059258972e-02
      - -1.1260908189327352e+00
      - 1.0254031316589189e-02
      - -1.2239918017399349e+00
      - 9.8283324764605988e-03
      - -1.3116072410573036e+00
      - 9.5185451266745803e-03
      - -1.3008258094970639e+00
      - 8.8411171599624885e-03
      - -1.0609691894623594e+00
      - 8.4886105735159454e-03
      - -1.0629426916963853e+00
      - 8.2501826102452311e-03
      - -1.0592906649729303e+00
      - 8.2936571894869811e-03
      - -1.1375382471524964e+00
      - 8.5575879697083850e-03
      - -1.3293844537949904e+00
      - 8.6117163692059785e-03
      - -1.4058883613282809e+00
      - 8.2741701393035869e-03
      - -1.2223853474674464e+00
      - 8.0866077140870525e-03
      - -9.6058188904660025e-01
      - 9.6930754407276044e-03
      - -5.9066135337954284e-01
      - 1.5850493061320987e-02
      - -6.9914320520279671e-01
      - 1.4549453631687527e-02
      - -8.2080116362181044e-01
      - 1.2724976102129979e-02
      - -9.0863071078401225e-01
      - 1.1476492284966470e-02
      - -1.1026704991307983e+00
      - 1.0458957915799722e-02
      - -1.2485502225074345e+00
      - 1.0197357753205854e-02
      - -1.4287781323481872e+00
      - 1.0085025774884938e-02
      - -1.4783979903479672e+00
      - 9.3681895354033907e-03
      - -1.2400008649417251e+00
      - 8.6577981497308627e-03
      - -1.0620652864021500e+00
      - 8.3678984637703055e-03
      - -1.0652168494741245e+00
      - 8.5288879854199372e-03
      - -1.1943267314682422e+00
      - 8.6498311348603956e-03
      - -1.3681626942053355e+00
      - 8.6825720754760537e-03
      - -1.3733069000491709e+00
      - 8.3606179355195636e-03
      - -1.1719150139047680e+00
      - 8.5016515609952926e-03
      - -8.6447720793267502e-01
      - 1.1235324375107911e-02
      - -4.4119853916980045e-01
      - 1.6495010609859535e-02
      - -6.8134225281997285e-01
      - 1.4349938864100116e-02
      - -8.0756894357185405e-01
      - 1.2875004073334225e-02
      - -9.2515857084308406e-01
      - 1.1936517388288123e-02
      - -1.1756441980271430e+00
      - 1.1103130048946456e-02
      - -1.4219065406258742e+00
      - 1.0820376397633237e-02
      - -1.5715629332917456e+00
      - 1.0601761886281914e-02
      - -1.6433854289234850e+00
      - 9.3161452386336698e-03
      - -1.2831725291533165e+00
      - 8.6525755182738553e-03
      - -1.1253390734322952e+00
      - 8.4986611425972702e-03
      - -1.1187727580153644e+00
      - 8.8801927691638111e-03
      - -1.3525180488896491e+00
      - 8.9531620737224905e-03
      - -1.4212285051305522e+00
      - 8.9510523171131406e-03
      - -1.3948940548639255e+00
      - 8.6727650559508696e-03
      - -1.1881917868773377e+00
      - 8.3740759853409494e-03
      - -8.2284447036356156e-01
      - 1.1009182236466009e-02
      - -4.6537490208849364e-01
      - 1.6925022685405206e-02
      - -6.6722698703099415e-01
      - 1.4435753488734913e-02
      - -8.5017983957165288e-01
      - 1.2425800264707590e-02
      - -1.0530001678625911e+00
      - 1.1942225681959186e-02
      - -1.3422270790649149e+00
      - 1.1734153823084381e-02
      - -1.6298817369892173e+00
      - 1.1632180803031508e-02
      - -1.8293491653360914e+00
      - 1.0763778216360655e-02
      - -1.7753533426847150e+00
      - 9.6279943808355913e-03
      - -1.4825581069234228e+00
      - 8.9111510809447587e-03
      - -1.3237721480602931e+00
      - 8.8932638133686487e-03
      - -1.2953068192064858e+00
      - 9.1779204707298379e-03
      - -1.4547915660060839e+00
      - 9.4625988279841179e-03
      - -1.5280655784194062e+00
      - 9.1556285881948269e-03
      - -1.4504455949361681e+00
      - 8.4279815329622414e-03
      - -1.1380900678544363e+00
      - 8.2824329124338361e-03
      - -8.2863821519682412e-01
      - 9.9819750955521397e-03
      - -5.0342207379250170e-01
      - 1.6127425414594210e-02
      - -7.5636557153028661e-01
      - 1.3702474084655391e-02
      - -1.0066871954008811e+00
      - 1.2835262361322639e-02
      - -1.1994935184474722e+00
      - 1.2670659045516584e-02
      - -1.5843526329152828e+00
      - 1.2362367999229908e-02
      - -1.8353286149638171e+00
      - 1.0996814110079398e-02
      - -1.7345107394686161e+00
      - 1.1007559002306698e-02
      - -1.9209283925151248e+00
      - 9.8826185602961265e-03
      - -1.6722175977681468e+00
      - 1.0424444876087903e-02
      - -1.9082947368531247e+00
      - 1.1846665790883773e-02
      - -2.2571271885468076e+00
      - 1.0792723157747508e-02
      - -1.9316401352807251e+00
      - 9.7902797266442628e-03
      - -1.6443650090808375e+00
      - 9.0854808471066834e-03
      - -1.5203679750796724e+00
      - 8.3984120041741533e-03
      - -1.2668698605872717e+00
      - 8.2493621171962211e-03
      - -9.0413008804470574e-01
      - 9.8933305799526108e-03
      - -5.2686244056709219e-01
      - 1.3637411287655481e-02
      - -8.1457792958860831e-01
      - 1.2942734504213998e-02
      - -1.1380006454672078e+00
      - 1.2910530741402309e-02
      - -1.3877025042732190e+00
      - 1.2821604830253221e-02
      - -1.5950416053996073e+00
      - 1.1540103771922156e-02
      - -1.6626156129679901e+00
      - 1.0420511703236048e-02
      - -1.4611765728297892e+00
      - 1.0285311960902356e-02
      - -1.6369312387046717e+00
      - 1.0347149227513229e-02
      - -1.8052417717824172e+00
      - 1.1586569209412444e-02
      - -2.2597186177196740e+00
      - 1.1839074691921045e-02
      - -2.3292242591566361e+00
      - 1.0220264894866578e-02
      - -1.8689141879669795e+00
      - 9.4307087027320439e-03
      - -1.6925936195545768e+00
      - 9.2475635762315385e-03
      - -1.6397461274230740e+00
      - 8.3650576686167873e-03
      - -1.2690845040216856e+00
      - 8.2285812784173937e-03
      - -8.7675261051958575e-01
      - 1.1199959402675687e-02
      - -4.5006035538778499e-01
      - 1.4071263666500378e-02
      - -8.6567159573723118e-01
      - 1.3617726478018467e-02
      - -1.2952171369357697e+00
      - 1.3491281197139174e-02
      - -1.5281779708335659e+00
      - 1.2970672641192449e-02
      - -1.6230520500353067e+00
      - 1.1571050728809661e-02
      - -1.4854010697840547e+00
      - 1.0624437186078169e-02
      - -1.4841142620261381e+00
      - 1.0074026991388664e-02
      - -1.5724955694862852e+00
      - 1.0916824680948178e-02
      - -1.9045882741384026e+00
      - 1.0868011626029756e-02
      - -1.9681465239631395e+00
      - 9.7566918897835243e-03
      - -1.6963074978972641e+00
      - 9.4439998931761006e-03
      - -1.6633948421119971e+00
      - 9.3991099177418193e-03
      - -1.6870717598975076e+00
      - 8.8291740109873573e-03
      - -1.4687418674304067e+00
      - 8.3658643561320429e-03
      - -1.1027095670585332e+00
      - 8.9035483243405569e-03
      - -6.5998289002876720e-01
      - 1.1263708024862717e-02
      - -4.4058255018575598e-01
      - 1.4130793932966177e-02
      - -9.8473853243587084e-01
      - 1.3370102832331017e-02
      - -1.3393832551265221e+00
      - 1.3483022321975690e-02
      - -1.4948832218913126e+00
      - 1.2753733730479411e-02
      - -1.5429146112245409e+00
      - 1.1592065893248946e-02
      - -1.5214471331916792e+00
      - 1.1003327237012540e-02
      - -1.6012100091074088e+00
      - 1.0323436696019638e-02
      - -1.5477634659681363e+00
      - 1.0045531213691226e-02
      - -1.5430335104410400e+00
      - 9.7782793516759930e-03
      - -1.5771393241999898e+00
      - 9.3757272694250087e-03
      - -1.5257971630989562e+00
      - 9.4352407617794860e-03
      - -1.5147872890288940e+00
      - 9.1312227429918777e-03
      - -1.3886110453465066e+00
      - 8.2911612795935011e-03
      - -1.0798825754024197e+00
      - 8.3740168768288142e-03
      - -8.7694257531982800e-01
      - 9.7140779675943829e-03
      - -5.8868599116465348e-01
      - 1.3607180784389715e-02
      - -3.5935573199992921e-01
      - 1.5210044201167710e-02
      - -1.0856949696547422e+00
      - 1.5254115978215681e-02
      - -1.4427969220137220e+00
      - 1.3836032557878011e-02
      - -1.4390023636321259e+00
      - 1.2554043452943375e-02
      - -1.4596777543266679e+00
      - 1.2279739145834714e-02
      - -1.5754336064675336e+00
      - 1.1331953633181182e-02
      - -1.5641998408418676e+00
      - 1.0470292213455797e-02
      - -1.4857968708045572e+00
      - 1.0188217547774931e-02
      - -1.4904755027640222e+00
      - 9.8522731663354887e-03
      - -1.4064609296260120e+00
      - 9.8262438995193341e-03
      - -1.3586506664352616e+00
      - 9.0573732289304671e-03
      - -1.1148966636167588e+00
      - 8.7219542827225507e-03
      - -1.0595961466488448e+00
      - 8.5936921763221773e-03
      - -9.4300689989925801e-01
      - 9.2584782238255541e-03
      - -7.0295762344712054e-01
      - 1.2128070628533513e-02
      - -4.2836988006768634e-01
      - 1.9416004709090412e-02
      - -2.7671021280769914e-01
      - 1.5574384139707393e-02
      - -1.1386834496845670e+00
      - 1.6131553796201244e-02
      - -1.4785263458852052e+00
      - 1.5148152966653953e-02
      - -1.5793805367272395e+00
      - 1.3248690726900809e-02
      - -1.4181363458205152e+00
      - 1.2464433230585216e-02
      - -1.4589495277526845e+00
      - 1.1411945819896220e-02
      - -1.3951141552723194e+00
      - 1.0874188099774799e-02
      - -1.4867967726511959e+00
      - 1.0403690061816424e-02
      - -1.4381757987572428e+00
      - 1.0491375419005321e-02
      - -1.2261847130443027e+00
      - 9.6547819639593649e-03
      - -9.5051648129946964e-01
      - 9.3249624050159158e-03
      - -9.1477263646026996e-01
      - 9.4021305146064008e-03
      - -8.0335289999636939e-01
      - 1.0097981079661028e-02
      - -6.5401480372760878e-01
      - 1.1519212898392287e-02
      - -5.1093430667729922e-01
      - 1.3321382711615884e-02
      - -4.0488181335556250e-01
      - 1.8452340716344419e-02
      - -2.8663450585600975e-01
      - 1.5567830513489683e-02
      - -1.2187652425971320e+00
      - 1.6170696684601360e-02
      - -1.5268350391459300e+00
      - 1.5892322603960066e-02
      - -1.5927685652933117e+00
      - 1.3832422322995462e-02
      - -1.4759469434973700e+00
      - 1.3190362413802637e-02
      - -1.5071605095548688e+00
      - 1.2602852546529921e-02
      - -1.5020597133072164e+00
      - 1.1822868446457092e-02
      - -1.4708744507381035e+00
      - 1.0965440727373247e-02
      - -1.3407175687752042e+00
      - 1.0413830732983487e-02
      - -1.0187071292916932e+00
      - 1.0307119268824234e-02
      - -9.0040536606000310e-01
      - 1.0205249742859272e-02
      - -8.0015916427555012e-01
      - 1.0455123683897645e-02
      - -6.3805334948247405e-01
      - 1.1199975247950999e-02
      - -5.5781810496516748e-01
      - 1.1937336166372317e-02
      - -5.0394531871627135e-01
      - 1.2851062664407081e-02
      - -4.3537017328503885e-01
      - 1.7131160358370898e-02
      - -3.0470775159279845e-01
      - 1.5719062999763781e-02
      - -1.2977908252016894e+00
      - 1.6528232283204478e-02
      - -1.5649937343863864e+00
      - 1.5436567899084262e-02
      - -1.4929512423723612e+00
      - 1.4237576295953510e-02
      - -1.3514948582495314e+00
      - 1.4053111878332863e-02
      - -1.4886433492628177e+00
      - 1.3552940049013515e-02
      - -1.5234761179069245e+00
      - 1.2374309410468421e-02
      - -1.4357476878901110e+00
      - 1.1452556014837193e-02
      - -1.2812148856704555e+00
      - 1.1046036106781683e-02
      - -1.0245600828103503e+00
      - 1.0318426904373521e-02
      - -8.8961240064421943e-01
      - 1.0281222539948629e-02
      - -7.7182703621423621e-01
      - 1.0800400173671816e-02
      - -6.1311940588552849e-01
      - 1.0998026550054706e-02
      - -5.6461391931141769e-01
      - 1.0951965253020824e-02
      - -5.3889471410559420e-01
      - 1.2191200123432467e-02
      - -4.7384207632069630e-01
      - 1.4282127241560324e-02
      - -3.7317023058842452e-01
   output_scale:
      - 1.
      - 0.
      - 1.
      - 0.
      - 5.2631578947368418e-01
      - 4.9999999999999994e-01
      - 1.
      - 0.
      - 1.
      - 0.
      - 1.
      - 0.
      - 1.
      - 0.
      - 1.
      - 0.
      - 5.2631578947368418e-01
      - 4.9999999999999994e-01
      - 1.
      - 0.
      - 1.
      - 0.
      - 1.
      - 0.
      - 1.
      - 0.
      - 1.
      - 0.
      - 5.2631578947368418e-01
      - 4.9999999999999994e-01
      - 1.
      - 0.
      - 1.
      - 0.
      - 1.
      - 0.
      - 1.
      - 0.
      - 1.
      - 0.
      - 1.
      - 0.
      - 5.2631578947368418e-01
      - 4.9999999999999994e-01
      - 1.
      - 0.
      - 1.
      - 0.
      - 1.
      - 0.
      - 1.
      - 0.
   inv_output_scale:
      - 1.
      - 0.
      - 1.
      - 0.
      - 1.8999999999999999e+00
      - -9.4999999999999996e-01
      - 1.
      - 0.
      - 1.
      - 0.
      - 1.
      - 0.
      - 1.
      - 0.
      - 1.
      - 0.
      - 1.8999999999999999e+00
      - -9.4999999999999996e-01
      - 1.
      - 0.
      - 1.
      - 0.
      - 1.
      - 0.
      - 1.
      - 0.
      - 1.
      - 0.
      - 1.8999999999999999e+00
      - -9.4999999999999996e-01
      - 1.
      - 0.
      - 1.
      - 0.
      - 1.
      - 0.
      - 1.
      - 0.
      - 1.
      - 0.
      - 1.
      - 0.
      - 1.8999999999999999e+00
      - -9.4999999999999996e-01
      - 1.
      - 0.
      - 1.
      - 0.
      - 1.
      - 0.
      - 1.
      - 0.
   weights:
      -
         - 2.4028575391403545e-02
         - 2.7422972290702997e-02
         - -1.3465657037927670e-03
         - 2.2669882934267947e-02
         - 1.2383066097680796e-02
         - 1.6600497663871529e-02
         - -1.7419106416374539e-02
         - -3.7866429242528775e-02
         - -2.2137165534526305e-02
         - -5.4439764032665067e-03
         - 1.5723861972148308e-02
         - -1.3040890315772323e-02
         - -8.5619355320315556e-03
         - 2.5582086510719157e-03
         - 4.2958780386785004e-04
         - -4.2508462748667526e-03
         - -1.7941964310073583e-02
         - 9.8787835191178758e-03
         - 2.9403042291674081e-02
         - 2.2821942897411393e-02
         - -8.4714301053734186e-03
         - -7.6600198495678055e-03
         - -1.8931964926427788e-02
         - -6.2063903632255226e-03
         - -1.9212120901132522e-02
         - -2.5554095340118734e-02
         - 6.0267356596356537e-04
         - -1.6683892304915938e-02
         - 2.1547425474027822e-02
         - -3.6996931807522291e-03
         - -8.8997021675219831e-03
         - 1.7499999830580197e-02
         - -6.7188221523866451e-03
         - -2.3422371838151984e-03
         - 9.1614943340836783e-03
         - 1.5619414777093265e-02
         - -4.8176993001535379e-04
         - 2.5871702575324836e-02
         - 2.3759369781925294e-02
         - 3.1628579380262770e-02
         - -2.4479700885154807e-02
         - -2.7051235872667515e-02
         - -4.3145768742718402e-02
         - -9.4511915104874347e-03
         - 3.6554684294387491e-02
         - -4.7683892229752348e-02
         - 7.4372312242511583e-03
         - 1.4562904816172447e-02
         - -2.1783713853110811e-02
         - -2.8559523911333110e-02
         - -1.2683696442041540e-02
         - 7.6002144088150876e-04
         - 1.6256701349765174e-02
         - 1.5003607951075330e-02
         - -4.3138782278010990e-02
         - 3.0829326567370235e-02
         - -3.5274147541490199e-02
         - 2.3330063764412007e-02
         - -3.0947664893327936e-02
         - -5.5611661914047303e-02
         - -7.2405730373394503e-03
         - 1.5354448976637734e-03
         - 2.3958248847000260e-02
         - -8.8003331819285300e-03
         - -3.3013844080636581e-02
         - 2.9453701679582552e-02
         - -1.7956689547167701e-02
         - -2.0678917807940567e-02
         - 1.3273464943643313e-02
         - -8.8039072567621130e-03
         - -4.8056658578721186e-03
         - 3.0547920125325922e-02
         - 2.0538042645312980e-02
         - 5.5240635234398306e-03
         - -2.5265517693899387e-02
         - -1.1251965779868566e-02
         - -2.4499558341726801e-02
         - -2.8782355079523793e-02
         - 1.0308123835038601e-02
         - -1.8895318075179600e-02
         - 7.0068529265694280e-03
         - 7.9101476072831658e-03
         - -2.9053704011791665e-02
         - -2.1926093946503661e-02
         - 1.0768081913233193e-02
         - 2.3712181947404039e-02
         - -6.9148096159681056e-03
         - 1.5120379387163979e-02
         - -2.7805331717456059e-02
         - 1.2665729945759124e-02
         - -1.6974529808815888e-02
         - 1.6970092173508894e-02
         - 1.8984086370875126e-02
         - -1.8708470036155136e-02
         - -1.6540839885765848e-02
         - 1.6389251840135493e-02
         - 2.3350209674868803e-03
         - 1.2965860526767496e-03
         - -1.9172381699262345e-02
         - 1.5890899333308926e-02
         - -2.2815571672633855e-03
         - -1.9841022915409123e-02
         - -1.7573335845262456e-03
         - -6.0078051991207214e-03
         - -3.1423566370739509e-02
         - 5.6231288822836340e-03
         - -1.1854566348315458e-02
         - -1.0324903379377861e-02
         - 1.3120399946172668e-02
         - -1.6717955610700934e-02
         - 1.2637513281720164e-02
         - -3.4629002173619263e-03
         - -8.8290444138306185e-03
         - 1.5765926314618491e-02
         - -8.5150721906606750e-03
         - 2.9112086210827683e-03
         - 9.3646351123450010e-03
         - -1.5054534930531415e-02
         - 1.5404716632656098e-02
         - -1.4105657265190415e-02
         - -1.6840077458830250e-02
         - -1.8625378158362405e-02
         - -3.2809791490276467e-04
         - -3.7581965193067639e-03
         - -3.0752530043884369e-02
         - 1.9542962135232836e-02
         - -1.5429901262716575e-02
         - 1.2480562447969301e-02
         - 7.5585496379459386e-03
         - -7.4351489956925266e-03
         - -5.5581250988939110e-03
         - 5.4132222513533614e-03
         - -7.5723461574270737e-03
         - -3.0572148262009045e-03
         - 3.2734668287994601e-03
         - 7.7026358738991338e-03
         - 2.2899885696845739e-02
         - -2.6913209337318090e-03
         - 1.2016841165446294e-03
         - 2.4408602076732597e-02
         - -3.1304917586501099e-02
         - 2.9112123810563855e-03
         - -2.1215988676070149e-02
         - -2.1333761701361569e-02
         - 1.7096949946880359e-02
         - 6.8159393750466934e-03
         - 2.3641117036469057e-02
         - -3.9639768062736530e-03
         - -3.3997774304660743e-03
         - -6.9203841918070406e-03
         - -1.4113794461222342e-02
         - -5.1085938599947861e-03
         - 6.5893250811079607e-03
         - -3.3150143026155300e-02
         - -2.1975654644832913e-02
         - -2.7209435855737291e-02
         - -1.4398745839441753e-02
         - 1.1442898698213787e-02
         - 2.4480192554861974e-03
         - -9.9386352884975170e-03
         - -9.0316064259816330e-03
         - 3.4861407019635304e-02
         - 4.1722884481776453e-04
         - 4.0927574007923727e-04
         - -2.3243250329819474e-03
         - -3.7440453335202094e-02
         - 2.4529535555147485e-02
         - 1.5643947137604971e-02
         - -2.7554644917571629e-02
         - -1.8934968163915895e-02
         - 5.0588265019760308e-03
         - -5.5096431311391747e-02
         - 1.7813389824142271e-02
         - 3.8569780147649779e-02
         - -3.7120758849078742e-02
         - 1.3812862907707345e-02
         - -2.8489280592795041e-02
         - -2.3845394092250061e-02
         - -2.5430255785591341e-02
         - -2.1969666570560500e-02
         - 2.4826432651764527e-02
         - -1.1084269855227391e-02
         - -1.7637085295096909e-02
         - -2.6115399570478367e-02
         - -7.2568757740845034e-03
         - 3.1230051733180275e-02
         - 5.2086868787511460e-02
         - -1.5365418674108906e-02
         - -2.2641332547363485e-03
         - -5.2731039400978418e-02
         - -3.7765470382275075e-02
         - -1.8685260260041501e-03
         - 2.6839050636933131e-02
         - 3.6515277974779486e-03
         - 1.0166374306320088e-02
         - 1.0468015479569505e-02
         - -5.2195954352233467e-02
         - -1.3258825205471486e-03
         - -6.2088382294949234e-03
         - -3.4778213384866190e-02
         - 8.6442277055035627e-03
         - 4.5889637259774040e-02
         - -2.7383242832464665e-02
         - -5.3390147679677605e-02
         - 3.1247749088042939e-02
         - -2.1870254840905514e-02
         - -1.0736321931999665e-02
         - 3.8337730632827305e-02
         - -3.5098247990408782e-02
         - 4.6173249401778804e-02
         - -4.4769850784960437e-02
         - -2.7596579234978557e-02
         - 1.5474559462410697e-02
         - 1.1770881378721476e-02
         - 1.8844708210233516e-02
         - -3.5427040486423547e-02
         - 2.2675023511192043e-02
         - -2.8646506353872489e-02
         - -1.5128824526660232e-02
         - 1.6326984352392541e-02
         - 1.0873414706266016e-02
         - 8.5834128927007348e-03
         - -1.2192861285084164e-02
         - -1.5986342202112251e-02
         - -1.6304498565627209e-02
         - 4.4385140942473358e-03
         - 4.4724259486996201e-03
         - -1.0096696171410544e-02
         - 6.4014103518501651e-03
         - 6.0111228016958033e-03
         - -4.0549383531009370e-02
         - 1.0561323908010089e-03
         - -3.3485326932413424e-03
         - -2.3508309698389532e-02
         - -5.6839039865570987e-03
         - 2.3799079809339485e-02
         - -7.9115625536248825e-03
         - -2.7894675296594184e-02
         - -1.4047398266852994e-02
         - -9.6100697686255353e-03
         - 3.0284379981721579e-02
         - 4.1445415357484923e-03
         - -4.3950524480837395e-02
         - -4.6556867044610546e-03
         - 1.0313741265524779e-04
         - 1.0182588740606475e-02
         - 3.5818404354964140e-02
         - 9.5061102760000751e-03
         - -2.4335315251838924e-02
         - 5.5303710879800582e-03
         - 1.1491728022602496e-02
         - -4.3670523994455675e-03
         - -3.7240908616563272e-03
         - 3.1280552661031323e-02
         - 3.3109669172233184e-03
         - 1.5391520085549434e-02
         - -1.7181115170127936e-02
         - 1.8477795187078676e-03
         - 2.7529559465895189e-02
         - -2.6356915676820036e-02
         - -5.3456731632732010e-03
         - -2.6393096473229672e-02
         - 3.7115992409991541e-02
         - 3.3029951574897992e-02
         - -2.1207103807415348e-02
         - -1.2005839196144603e-02
         - -1.7145360084649595e-02
         - -1.8027995954129326e-02
         - -1.0923277711467083e-02
         - -1.8033799011970490e-02
         - 1.3416212555570102e-02
         - -1.2189548010848050e-02
         - -7.5353106517505718e-04
         - 7.1981692902724726e-03
         - -3.0249964559501404e-02
         - -8.1888193644663234e-03
         - -3.7015972049371126e-02
         - 5.8098149320865908e-04
         - 5.3309536742529437e-03
         - 1.2113680335727839e-03
         - 3.2438730880145664e-02
         - 3.6874417449022152e-02
         - -1.4542051226952594e-02
         - -3.9935835168545446e-03
         - 3.6771353461578916e-03
         - 2.7379438693393886e-02
         - 1.3444291899145986e-02
         - -8.1222380284454929e-03
         - -1.4820493398249613e-02
         - 1.1770803097356454e-02
         - -4.4162369997507982e-03
         - 4.3558446927536638e-02
         - 1.3538906064014419e-02
         - -2.7718785447715420e-02
         - 1.1657544284810481e-03
         - -3.4301298990683675e-02
         - 5.7375716214507358e-03
         - 3.7256103202266008e-02
         - 1.3694062998775640e-02
         - -5.3678608139270745e-03
         - -4.7759941293387667e-03
         - -8.4593734202581235e-04
         - -5.8515369553814528e-03
         - -9.1632742631660765e-03
         - 5.5301968695581141e-03
         - 2.4583144097333625e-02
         - -1.7584943921488000e-03
         - -1.7697459445119862e-04
         - 2.9149429325403944e-02
         - 9.7735927751979590e-03
         - -1.4428570912829949e-02
         - 3.4500529855771626e-04
         - -4.4597801228808522e-03
         - 1.8352929601748141e-02
         - 3.1151614093208383e-02
         - 2.9180936020977394e-03
         - -1.4374039794236142e-02
         - 4.4136657249750394e-04
         - -1.5196390567009178e-02
         - -1.4783252532579540e-02
         - -1.5252503417356154e-02
         - 2.5941134383354148e-02
         - -4.7961070511479496e-03
         - 1.0071540999527272e-02
         - -1.6217950269757909e-02
         - 1.0443182722692195e-02
         - 2.3001888841876462e-02
         - -5.0415585326429486e-03
         - 1.2272420173822672e-02
         - -1.4802829492050047e-02
         - 2.3082225486613300e-02
         - 1.3425938539370158e-02
         - -1.7537238944488928e-02
         - -2.6030666281644426e-03
         - 2.4712672594351857e-03
         - -5.5449877464594588e-03
         - -4.4748497874800848e-02
         - -1.5375636156776026e-02
         - -4.1071661456839811e-03
         - -1.3079529678893602e-02
         - -1.0589682942743862e-02
         - 2.6320352421624699e-02
         - 2.7680204043704391e-02
         - -4.1688983339155982e-03
         - 8.6442386609256548e-03
         - -2.5913737520881475e-03
         - 5.7990708866553411e-03
         - 2.2329771228891196e-02
         - 4.9813726822487440e-03
         - -2.6336867247607530e-04
         - -1.1986254440021219e-02
         - 1.7267729575908809e-02
         - -2.1991337486270399e-02
         - -2.0550340594087137e-02
         - 3.0196376075623680e-03
         - 4.7176227585325220e-02
         - 2.2689693966774518e-02
         - 1.4240214139975324e-02
         - 8.5845597484199617e-03
         - 7.9512166036562765e-03
         - 1.3029361181369525e-02
         - 1.8719227497873768e-02
         - 1.6411129834883430e-03
         - 3.7155117311298085e-03
         - 2.8473561450064952e-02
         - -2.0197789554544446e-03
         - -1.2160780786399587e-02
         - -1.7781121058370705e-02
         - 2.3991266855257310e-02
         - -7.2243195458087930e-03
         - -4.9613231754871243e-02
         - 2.0207361724567489e-04
         - 2.6469845886951483e-02
         - -1.7905573511031201e-02
         - -1.6612771630798464e-02
         - 4.8624086432077183e-03
         - 1.2443349943619387e-02
         - -2.2904131968585120e-02
         - 3.0125933524923963e-02
         - 2.3047138141483728e-03
         - 1.9567455797621015e-02
         - 3.2376342569657053e-03
         - -1.8410630658660380e-02
         - -2.0508900817610708e-02
         - -8.1859656276290355e-03
         - -4.7484252903732269e-03
         - -2.6494387568906010e-03
         - -4.2249255177234532e-02
         - -1.4116610652289419e-02
         - 3.2221420603619204e-02
         - 7.1209680796501668e-02
         - -6.4598269012537280e-03
         - 1.0985245040273459e-03
         - -2.0392575690679920e-03
         - -1.0427382925124792e-02
         - -5.1462288520209920e-03
         - -3.5243333520848498e-02
         - 4.0761645796529460e-02
         - 6.1160164918265866e-03
         - -5.1210095417257660e-03
         - -2.0543879550043768e-02
         - 1.7081950302273788e-02
         - -1.0692910532551037e-03
         - 1.1954489513796273e-02
         - -4.4513160355452434e-02
         - 4.1966923346365634e-03
         - 2.6292688329616471e-02
         - 1.7200436924982103e-03
         - 1.7822152916676878e-02
         - -4.6793848023910043e-03
         - -1.7943288410009858e-02
         - -1.5906089090096266e-02
         - 3.5490779349009016e-02
         - 2.4908102501191715e-03
         - 2.9411213195918583e-03
         - -1.2161319116052326e-02
         - -1.7747320912740370e-02
         - -2.8134299703726426e-02
         - 1.5852693222428282e-03
         - -4.7338225766314782e-03
         - -1.3246873522935639e-03
         - 1.9012005673678491e-03
         - -1.9228760907503546e-02
         - -2.1307151478373226e-02
         - 2.1598864609056030e-02
         - -1.2802723711800702e-02
         - -7.0037335903289080e-03
         - -1.2664258523804360e-02
         - -2.8464090341505457e-02
         - -4.7513779862641799e-03
         - -5.1447910513136557e-03
         - 3.8276311644430142e-02
         - -7.4831076721939812e-03
         - -4.2557511672100985e-02
         - -2.9941744701616067e-03
         - 1.1934448526913536e-02
         - 6.8136222453611863e-03
         - 2.3675852776756934e-02
         - -2.2911706571509208e-02
         - 1.3688913678089767e-02
         - -3.5634868967834247e-03
         - 3.2258887864427825e-03
         - -1.0539877847945538e-02
         - -5.6190616566947011e-03
         - -1.0260037627275965e-02
         - -4.4430573648552591e-03
         - 3.6481743576576957e-02
         - 2.9037921185543457e-03
         - -1.3103764774822081e-03
         - -2.1713833338070754e-02
         - -2.6953831810000092e-03
         - -2.4250036618093563e-04
         - 9.7247442004988870e-03
         - 5.1868253947260842e-04
         - 3.5656237374372870e-03
         - 1.2990500816567115e-02
         - -2.6075208373592080e-02
         - -2.2382623815345712e-02
         - -5.3653228766003570e-04
         - -7.4599885818237930e-03
         - -2.8753076466798411e-02
         - -7.7952717664133634e-05
         - -1.1337257838335661e-02
         - 5.4220473450866226e-03
         - -9.6330339602775181e-03
         - 1.3135435813180526e-02
         - -2.5105821139094443e-03
         - -1.8437996536380279e-02
         - 5.4569549155574918e-03
         - 1.2005344768125197e-02
         - -7.5774633332955470e-03
         - 1.4456616126924369e-02
         - -2.9383098356016175e-03
         - -1.6603583783501078e-02
         - 5.5153184239084239e-03
         - 1.0465717173287439e-02
         - -2.0100085550052115e-02
         - 5.7608820979722494e-03
         - -3.1733309618220427e-02
         - 2.5570105138296383e-03
         - -1.2572566059667646e-03
         - -1.1079391846942826e-02
         - 1.8104959269038618e-02
         - -2.7618212895175022e-03
         - 6.5555420667388394e-03
         - 2.1676072661178242e-02
         - 1.1836123481627877e-02
         - 6.3745207249417263e-03
         - 1.1863135079668120e-02
         - 2.1223687067956600e-02
         - 1.2866211052193113e-02
         - -1.1184574892247407e-02
         - -5.1065574644489570e-03
         - 4.1717473405762581e-03
         - -1.3836505356253494e-02
         - 7.7570740931492939e-03
         - 2.2459061297363591e-02
         - -1.6881079873822705e-02
         - -2.2302252279396344e-03
         - -3.6796571131996083e-03
         - -1.6145082311333041e-02
         - 1.3546172702462171e-03
         - 1.9826904230535854e-02
         - -7.6258674730646445e-03
         - -1.6964520854994860e-02
         - 5.5660549220652401e-03
         - 2.2192743998213534e-02
         - -1.8629529058047926e-02
         - -4.1668150021918959e-03
         - 3.6527377010199508e-02
         - -3.7701735430425126e-02
         - -2.2184062154762010e-02
         - 2.5781948596412577e-03
         - -2.5718788742933339e-02
         - -1.3116195258059736e-03
         - -4.7231157242509932e-02
         - 2.0074172239899598e-02
         - 2.7166198107989422e-02
         - 2.2629619344030428e-03
         - -9.2369908033921894e-04
         - -4.9335410058766920e-03
         - 2.4158717650677414e-02
         - -5.5015898447325334e-03
         - 4.0868975955569500e-02
         - 1.5010263369289997e-02
         - -7.9591748950598260e-03
         - -2.0708996031160477e-02
         - -6.4004171399775359e-03
         - -1.3511626374597159e-02
         - -8.1894868607128718e-03
         - 2.1309214359390545e-02
         - -1.6274600788509137e-02
         - 3.6550415484833988e-02
         - -4.2173597031340488e-03
         - -5.6346733023637345e-03
         - 1.2222977765558704e-02
         - -9.1250307085217666e-03
         - -6.4660343114279154e-03
         - 1.7645633761809359e-02
         - -1.1759844239103505e-02
         - 2.5677371244311055e-02
         - -3.4673816392216950e-02
         - -4.0471861031856488e-03
         - 2.0307686931246134e-02
         - -3.5322645453107057e-03
         - 2.4434897608344254e-02
         - 2.6807428694712507e-02
         - 1.5450379372656791e-02
         - -1.1997310651235766e-02
         - -1.0522286691636754e-02
         - 7.6387556325668059e-03
         - -1.7355468211326074e-02
         - 8.3713620215172379e-03
         - 1.3311279061460851e-02
         - -4.6765921246795135e-03
         - 1.3484762916293927e-03
         - -2.2078889146061691e-02
         - -2.1327397803594651e-02
         - 2.6851318217988820e-02
         - 9.0130630905946359e-03
         - 1.5155085539274357e-02
         - -1.6668238144554925e-02
         - 2.6595903729581486e-02
         - 1.7771232981987174e-02
         - -6.9510947972431150e-03
         - 3.2844108209541652e-02
         - 9.5460553692812370e-03
         - -1.2822719758322476e-02
         - -1.3430628191035172e-02
         - 6.1298376938839867e-03
         - 2.2275957203045063e-03
         - -2.5080758058029118e-02
         - 7.2050630339506767e-03
         - -7.7171963096993295e-03
         - 1.0687783655174001e-02
         - 1.1051142195455383e-02
         - -2.6716380269844082e-03
         - 8.9356746383915039e-03
         - 3.2082154636953603e-02
         - 3.9649536308904353e-02
         - -6.2622801261051988e-04
         - 1.4486116694885094e-02
         - -2.0895743363437174e-02
         - 3.5634329082696106e-02
         - -1.8268557632443342e-02
         - -3.4143341550490071e-02
         - -3.6956237255069642e-02
         - -7.9287706874243066e-03
         - 3.7563225067773542e-02
         - -7.9213658762049798e-03
         - -3.0944534275891899e-02
         - -6.4822304842601965e-03
         - 1.5671379819795012e-02
         - 6.2899856842076763e-03
         - 4.8398137002222024e-03
         - -1.5712151618988500e-02
         - 4.2160029434623832e-02
         - 1.4702759979268197e-02
         - -1.7296988495675878e-02
         - 4.4148069424236325e-02
         - 6.2709400854310098e-05
         - 5.1556355880693289e-03
         - -3.1222187538158277e-02
         - 5.2458720735213040e-03
         - -8.4544979496628241e-03
         - -3.5267068411813596e-02
         - 3.9386408854282920e-02
         - -3.9405550194185250e-03
         - 1.9029587185586706e-02
         - 9.4582828893667575e-03
         - -2.1342220752204873e-02
         - -9.7208721549664704e-03
         - -1.2827975632238227e-02
         - 3.8040597687905041e-02
         - 4.1836780591307555e-02
         - 6.1087503275930616e-03
         - 9.2850963871618682e-03
         - -3.3189876552386422e-03
         - 2.0707838540850138e-02
         - -1.5802002824771740e-02
         - 6.5766906396198836e-03
         - 3.1148225964619733e-03
         - -1.9311934012492121e-02
         - 1.2884283743046695e-02
         - -1.6205186576974132e-02
         - -1.7467853408928254e-02
         - 2.0320285833551156e-02
         - 6.4191277423269969e-03
         - -2.1646763730945955e-03
         - -1.3667127110093630e-02
         - 1.3777105562100317e-02
         - 9.5921874098605035e-03
         - -2.3572977056390719e-03
         - 1.6936508084751809e-02
         - 1.1159132591365297e-02
         - -3.3176358544034410e-03
         - -1.3108224413119483e-02
         - 2.6932753472208044e-02
         - 1.4752298798487709e-02
         - -1.3165713832528068e-02
         - 1.3751738960305621e-02
         - 9.5273762055971564e-04
         - 2.1066599120695337e-02
         - -1.1989478212867950e-02
         - 2.2392327972269553e-02
         - 3.5650045466526499e-03
         - 5.0870783847212859e-04
         - 1.1608949540764154e-02
         - 2.2663982747326578e-03
         - 2.5567347198327303e-02
         - -5.6707735635074955e-03
         - -2.7303934180204713e-03
         - -2.9874791092065096e-02
         - -3.5997677698388263e-02
         - 8.1480159261593521e-03
         - 2.9940610223024827e-02
         - -2.5040530585019281e-03
         - -9.9671903003916117e-03
         - -2.3240490439825841e-02
         - -2.6619454499280645e-02
         - 1.2390424814908169e-02
         - 6.7652930684470756e-03
         - 5.0985381512597518e-03
         - -2.0068563756443333e-02
         - 7.3662326152032108e-03
         - 1.0057779489839987e-02
         - -2.2556585052371035e-02
         - 6.6396122440905226e-03
         - 2.4595237043919235e-02
         - -8.7025379047426751e-04
         - -2.1263252799372953e-02
         - 1.4946776115676024e-02
         - 1.8015171293024605e-03
         - -1.5947191538809555e-02
         - 8.6021167138911059e-03
         - 1.4277460393063424e-02
         - 3.1911042924909989e-02
         - 9.3307167139709737e-03
         - -7.6193137201814119e-03
         - -1.8006604876469896e-02
         - 1.1044938242294012e-02
         - -1.4084155143635771e-02
         - -1.4777165056998798e-02
         - 4.4752338701910969e-02
         - -3.7603270391345879e-03
         - 7.2176804264062252e-03
         - -3.8427856284835868e-03
         - -4.2007631572434249e-02
         - -1.2764365769241150e-02
         - 7.9290011084430252e-03
         - 1.9998894462812604e-02
         - -7.3363073515969233e-04
         - 7.7030999456854108e-04
         - -3.5882104591351757e-02
         - -1.3759452190646305e-03
         - 5.0272703532660626e-03
         - 3.6949503615981441e-02
         - -2.3372739093246594e-02
         - -6.5232014741843040e-03
         - -3.0402815610557535e-02
         - -1.9342183260513138e-02
         - 4.6213884598519462e-03
         - 1.0646914404673960e-02
         - 9.2284538851083418e-03
         - -1.5816598334226360e-02
         - 6.9600117958749713e-04
         - -1.7859692728069483e-02
         - 1.4370011504290139e-02
         - -1.6009938975388105e-02
         - -2.1792204666104351e-02
         - 1.9656659395153437e-03
         - 3.8206030134857842e-02
         - -1.7129921220341897e-02
         - -3.5170707633637444e-02
         - 1.3408467277981945e-02
         - -1.0541665413468881e-02
         - 1.6315796787674326e-02
         - 4.3268480611949420e-02
         - -3.6232308262279414e-03
         - 7.9523028098884493e-03
         - -2.3415095667068845e-02
         - -1.6943267302284123e-02
         - -1.2937770088114267e-02
         - -1.4021994252046194e-02
         - 1.6175461999983619e-02
         - -2.1986280343356285e-02
         - -1.2453660910573830e-02
         - -6.1235558149858871e-02
         - -1.5709669686443776e-02
         - 4.0432870342840550e-02
         - 7.0149477057683318e-02
         - -1.1649199520864382e-02
         - -1.2622010126401425e-02
         - -3.4535813324164243e-02
         - -3.7864596207224981e-02
         - 3.6682931546954795e-03
         - 2.8336975553716132e-04
         - 2.9746896906920759e-02
         - 1.7851148621477891e-02
         - -1.2229206272429268e-02
         - -4.6623795259042013e-02
         - 2.1804840856599807e-02
         - 4.9927273201093147e-03
         - -4.3004388094493085e-02
         - -4.8015992424153067e-03
         - 6.5333087467204246e-02
         - -1.7188377534554010e-02
         - -5.1018897288150157e-02
         - 4.0949725458915689e-02
         - -1.9849553990426535e-02
         - 5.6049684177643961e-03
         - 4.1188712226505560e-02
         - -2.5033468421070799e-02
         - 4.0823910830380769e-02
         - -2.6406234957438619e-02
         - -2.2544592932665277e-02
         - 1.4503310939488652e-02
         - -4.8809911444566926e-03
         - 1.5814633523939210e-02
         - -1.7276090832723388e-02
         - -7.6621233977951890e-03
         - -3.3438881362033088e-02
         - -1.0544726258048243e-02
         - 1.4377292447695875e-02
         - 2.0383133112910033e-02
         - -2.2186687766095415e-03
         - -4.3043692879677770e-03
         - -1.5456942816359473e-02
         - -2.1727692686418502e-02
         - 1.4385881368035858e-02
         - 3.0608339153359184e-03
         - 8.3603554732497032e-03
         - 6.1864324706926424e-03
         - -7.4042777830156219e-04
         - -3.4357780370921090e-02
         - 6.7042599006093204e-03
         - -2.4408709117486548e-03
         - -2.5644565245021452e-02
         - 7.3588218246210804e-03
         - 2.4741144202204336e-02
         - -1.2455109452989320e-02
         - -3.0933096754354742e-02
         - 4.2924516928373908e-03
         - 8.0254686659546933e-03
         - 3.0113259206971015e-03
         - -1.7894160469402007e-03
         - -5.1365869092968960e-02
         - 1.2667725968466581e-02
         - 1.7835914493584661e-02
         - -1.3512740819004363e-02
         - 3.9583554193761188e-02
         - 1.5093494780336386e-02
         - 1.3972443981871735e-03
         - 1.3907604325955522e-02
         - -1.8535584114329730e-02
         - -2.5821423317580563e-03
         - 1.9616776297766765e-02
         - 1.7967676469213330e-02
         - -1.4966544965362994e-02
         - -5.0258836016339979e-03
         - 5.1926996956074833e-03
         - -3.8693922271551291e-04
         - 3.8409736372468903e-02
         - 6.3403895897746261e-04
         - 2.0951106877540378e-02
         - -4.5221616276832202e-02
         - 7.1960593828210928e-03
         - 4.3637076037378708e-02
         - 6.5288033232491962e-03
         - -9.8859316533927016e-03
         - -1.6891230810023162e-03
         - -1.2015308475574483e-02
         - 3.1055374026332822e-02
         - -2.8447074774366005e-02
         - 4.0387194587905920e-03
         - 2.7810187174021967e-02
         - 1.6066187079098546e-03
         - 1.4495611696151102e-02
         - -8.5805731384847577e-03
         - -2.8388662048765900e-02
         - -5.3350570380255605e-02
         - -1.1372729296997052e-02
         - 1.5799309311299331e-02
         - -7.9282215539336707e-03
         - 5.7728774654775300e-02
         - 3.7468512986285424e-02
         - -1.5243740801426322e-02
         - 1.1618757796306077e-02
         - -8.1094048175614792e-03
         - 7.7577691017881424e-03
         - 2.6772759707885990e-02
         - 8.5911476453339811e-03
         - -3.0431265915902315e-02
         - -5.7358935046495493e-03
         - 7.8354958790295207e-03
         - 2.2029261456433552e-02
         - 3.5670521348844304e-02
         - -2.7828821633222402e-02
         - 8.0634620723603005e-03
         - -4.4409721452113846e-02
         - -1.8197972676107406e-03
         - 5.7017066304771401e-02
         - 2.7643857189815511e-02
         - -1.9361604361935559e-02
         - -1.2253792140097367e-02
         - 1.5112427529247960e-03
         - 1.6870005699946101e-02
         - -2.4741795426878870e-02
         - 1.2724215103124848e-02
         - 1.6125027120486635e-02
         - 9.2033056173325949e-03
         - 1.2015688432119864e-02
         - -8.9333114912751987e-03
         - -2.0734934463757573e-04
         - -3.1863421591129225e-02
         - 5.4434818413056361e-04
         - 2.3447400303406585e-02
         - -1.2800905367314335e-02
         - 2.5332630306921643e-02
         - 3.1571082739562870e-02
         - 6.1130591416206910e-04
         - -2.3082736846587494e-02
         - 4.4007327010905537e-03
         - 2.1076367201494538e-02
         - 1.4408486140400922e-02
         - 2.8928759707176799e-03
         - 5.5902298084316445e-04
         - -4.3344134294864105e-03
         - 2.6032442174412623e-03
         - 6.1026140523184669e-02
         - 2.0123245255490849e-02
         - 1.9878588277269968e-04
         - -2.3449178105339519e-02
         - -1.9175853309665859e-02
         - -1.4143954780972610e-02
         - 1.2715810777433334e-02
         - 4.5288501301806484e-02
         - -1.9288636845697090e-02
         - 9.2501062342727268e-04
         - 1.8634951269327321e-02
         - 3.4899436549724964e-04
         - -1.4323752947898602e-02
         - 5.0627614154972571e-03
         - 2.1217531244966625e-02
         - 1.7107278049008381e-02
         - 1.5579571593885049e-02
         - -5.9648155841972208e-04
         - -4.4551434679990752e-03
         - 3.2777758440142310e-03
         - 2.0098316480498732e-05
         - 3.3780981831403739e-02
         - -1.9549559077479774e-02
         - 2.4736634102740882e-02
         - 3.0677744530134488e-02
         - 1.1153229686921957e-02
         - -2.3444716977248951e-03
         - -2.5849351643170052e-02
         - 8.4882392566021803e-03
         - 6.9995194959908283e-03
         - 1.8015705017155118e-02
         - 1.8761008149714618e-02
         - -1.4191443358083830e-02
         - 2.6290361255076274e-02
         - 3.0454064953941588e-02
         - 2.5430342167910919e-02
         - 4.3387307846196885e-03
         - -1.6368478899043623e-02
         - -3.3472293276512436e-03
         - -1.1383364319126404e-03
         - 3.4516124897310024e-04
         - 2.1738594881301940e-03
         - -2.4292521968711685e-02
         - 1.3502861918756531e-02
         - 1.9931010232816071e-02
         - -1.6811114414668257e-02
         - 7.7642413786723546e-03
         - -5.0503608358586629e-03
         - 4.2197505800641794e-03
         - 8.0926926762332901e-03
         - 2.0667705906281092e-03
         - 4.5785757320711950e-03
         - -2.6535106007452111e-02
         - -1.0772554441150824e-02
         - 9.6425012268725289e-03
         - 2.6206784745290090e-03
         - -1.0391617509549530e-02
         - 1.5877081496048582e-02
         - -3.9262804968435558e-03
         - -6.7199450992161385e-03
         - 1.3162145215705203e-03
         - -3.1389591690434357e-02
         - -2.5014364671365086e-02
         - -2.5203993044789503e-02
         - 5.5092691844264175e-03
         - -1.3952488961854094e-02
         - 2.7310308179285911e-02
         - -2.4465431433966607e-03
         - 1.7104541068582155e-02
         - 1.8560086609199822e-02
         - -9.8057587717523698e-03
         - -1.2128500196627584e-02
         - -7.1184444774161108e-03
         - 1.8564855731636017e-02
         - 2.6442425053560217e-02
         - 1.2057823788887560e-02
         - 7.8290412693586414e-03
         - 3.6160541197870575e-03
         - 1.1724621840701152e-02
         - -1.6694685071436465e-02
         - -2.1289859775633652e-02
         - -5.6250800890262900e-03
         - 2.5125095010472949e-02
         - -5.6068950709186717e-03
         - -2.9199591797739795e-02
         - 2.3728680091028281e-02
         - -3.3174834172224325e-02
         - 1.5787965143676270e-02
         - -2.5239964899115837e-02
         - -3.1385618759098830e-03
         - 2.5623866512452992e-02
         - 4.9214010164370978e-02
         - 6.8952838215541141e-03
         - -4.3678631261431684e-02
         - 1.2427811406832235e-02
         - 1.4788833817177903e-02
         - 1.2560134373086621e-02
         - -2.2974862231404228e-02
         - 5.8273105867017686e-04
         - -9.7042039268489151e-03
         - 7.5432228602665494e-03
         - -1.4327553214257076e-03
         - 5.3477190609600642e-03
         - 3.8728005265252850e-02
         - -6.9952355781358916e-02
         - -2.7641597115073628e-02
         - 1.9155579774511543e-03
         - 3.0423378917365674e-02
         - 2.6350375542951901e-02
         - -8.0086022691869679e-03
         - 2.0341580240419266e-02
         - -4.6310799244053964e-02
         - -2.2220443750621339e-02
         - -4.9371890505123276e-03
         - -4.2523574499914417e-02
         - 2.6099251843545074e-02
         - 4.0714264600026785e-02
         - -2.9067482267130625e-02
         - -7.7644402816341457e-03
         - -2.7044260081994606e-02
         - -3.5645517383943746e-02
         - 1.5531766024032547e-02
         - -3.2398734217952287e-02
         - 2.8147087491558968e-02
         - 1.4259965376260451e-02
         - 6.3935964091069997e-03
         - 6.6669329330644672e-03
         - -3.7645185595807070e-03
         - 1.9758873445876873e-02
         - 4.5246164383828391e-03
         - 4.3127281024863857e-02
         - -1.1702770688272305e-03
         - -3.4906979084040578e-02
         - -4.6427872530456625e-02
         - 1.0955521998604500e-02
         - 6.4907084696794173e-03
         - 2.4936324561002129e-02
         - 3.7286070311393207e-02
         - -2.9806445121766896e-02
         - -4.8067944031030792e-03
         - -6.3364556908020279e-03
         - 1.1463347995412244e-02
         - -2.2538753350726118e-03
         - 2.1030807610262253e-02
         - 1.0163821639626773e-02
         - -6.9969521727461931e-03
         - 3.3686305348566391e-02
         - -4.5281892967810678e-03
         - -5.7842897809318582e-02
         - 1.7371457611475811e-02
         - 4.3887293747359828e-02
         - -1.6031632271988543e-02
         - -4.4413577846597073e-02
         - -6.5899913239938325e-03
         - -4.2304739446209966e-02
         - -1.9044708274731346e-02
         - -2.5387356529429892e-02
         - 6.0167767341741977e-03
         - 1.1099757771366034e-02
         - 9.9565720525968265e-03
         - -3.3274129475689474e-03
         - -2.7069183595657607e-02
         - 1.4043153240284332e-02
         - 9.5129229567003006e-03
         - 3.1531385218725845e-02
         - -6.4137898834366854e-03
         - -5.5797547122944631e-03
         - -3.7013633417289797e-02
         - 9.5531518770697026e-03
         - -2.5118279596138788e-02
         - -1.8750150083425916e-02
         - 1.5638892807646083e-02
         - -8.8097784012008493e-03
         - 2.5376539226474835e-02
         - -3.1132072752608582e-03
         - 2.1456258324227619e-02
         - 5.4285771481871088e-03
         - -1.1911282284224844e-02
         - 4.5044069696226381e-03
         - 5.6660057186838824e-03
         - 1.8533928749996750e-02
         - 5.6940534499790192e-04
         - -3.7158537839118745e-02
         - 3.5244759480524468e-02
         - 3.9848454383240993e-02
         - -2.4318424131457076e-02
         - -4.2448224054566107e-03
         - -1.4112902549967839e-02
         - -6.1111697824357998e-03
         - 1.2382472524802616e-03
         - -2.7701065253985666e-02
         - 5.3981950034870073e-03
         - 9.3594867325830691e-03
         - -5.9160825711038305e-03
         - 1.7798392899003292e-02
         - -9.6466396943661256e-03
         - 4.7577815639406919e-03
         - 2.3566861816854873e-02
         - 4.2200246528513504e-03
         - 6.9613736935215092e-03
         - -1.4169389095104816e-03
         - 2.1630270930169337e-02
         - -3.4139599370978891e-03
         - -1.6591372338275227e-02
         - 1.4985729682093635e-02
         - -7.0109537198415547e-03
         - -2.4236209070907747e-02
         - 2.3701003054907129e-02
         - -9.6288015285126358e-03
         - -2.3797998919594028e-03
         - 2.2335792664810727e-03
         - -1.2345913131884189e-04
         - 1.2507497063186523e-02
         - 2.5708885211990357e-02
         - -5.1797165693002831e-03
         - 7.3889184988477881e-03
         - 6.1078076472068938e-03
         - -1.8618987729305046e-03
         - 1.0057708398306164e-02
         - 5.9062752459305163e-03
         - 5.2543564927112950e-02
         - 5.0839159471658853e-02
         - -3.9268642093341763e-03
         - -2.0215579510447883e-02
         - 1.2291609587556724e-02
         - -1.4100696064008262e-02
         - -1.4224068662061181e-02
         - 3.0941234354842204e-04
         - -1.3528223581995361e-03
         - 4.0841780848289474e-07
         - 3.2307667361551613e-02
         - -4.0196883361845931e-02
         - -1.8648264209478238e-02
         - 4.4608720692351000e-02
         - 2.4015931129110549e-02
         - 8.7366870619890492e-03
         - -4.3289010174409531e-02
         - 3.9568449992865289e-02
         - 7.7556826097935011e-03
         - -4.7310130272421305e-03
         - 2.1883378446864395e-02
         - 4.8897336556153331e-02
         - -6.3748733312719349e-03
         - -3.0866708460202945e-02
         - 5.2337062227840195e-02
         - -5.9549328723900279e-03
         - -3.7424060170276240e-02
         - 4.4658887680655131e-02
         - -1.7228428600598082e-02
         - 4.8885884642923802e-02
         - 8.1466507054000960e-03
         - 4.6252655124322684e-03
         - 6.6924673977448775e-03
         - 1.2967726327440436e-02
         - 5.9578056406938119e-02
         - 4.6172465039603108e-02
         - -2.8808264904188509e-03
         - -3.7916252857802327e-02
         - 3.7427993582705057e-02
         - -2.9799417165822770e-02
         - -3.1025028307251998e-02
         - -2.4796244669608281e-02
         - 1.1203327224050274e-02
         - 2.4133289710931757e-02
         - 3.1623621499689315e-02
         - -2.8623521533457392e-02
         - -2.0014917318032635e-02
         - 3.6811697839937964e-02
         - 2.3540845443308561e-02
         - -4.8037646568971594e-03
         - -1.4536377096065466e-02
         - 7.0644003786696011e-02
         - 2.2188753328514412e-03
         - -1.0374809004064045e-02
         - 5.4812287849268546e-02
         - 5.7656910117638287e-02
         - -2.3636069047645224e-02
         - -4.3338815290113748e-02
         - 3.4722391366427567e-02
         - 6.3245244010216401e-03
         - -3.0332081835838309e-02
         - 5.6653492698935999e-02
         - -3.5692926038841978e-02
         - 3.8630432354956244e-02
         - 1.8977511691295610e-02
         - 3.3384084319001994e-03
         - -2.2113928489788912e-02
         - 6.9191377519842395e-04
         - 3.6834263346565921e-02
         - 2.4115122916413531e-02
         - 1.4095742671830024e-02
         - -5.1381358058520878e-02
         - -4.3129337716309481e-03
         - 6.2916492338837048e-03
         - -4.0533507885571127e-02
         - 5.0308721973315966e-04
         - 2.0289882707046056e-02
         - 4.7801860436929113e-04
         - 1.1145910733263209e-02
         - -4.9443240759606391e-02
         - 1.0236886569806474e-03
         - 4.2656361842442508e-02
         - 3.4890795667466078e-02
         - 2.4099962596003935e-03
         - -3.0792833138301959e-02
         - 4.1234144873208020e-02
         - 1.6563856274855033e-02
         - -1.0561659808800040e-02
         - 2.3963393440100192e-02
         - 2.8909542216011563e-02
         - -2.5849967059486383e-02
         - -2.7655061543816185e-02
         - 5.6219407739182811e-02
         - -1.7079824307819820e-04
         - -5.3371855102522653e-02
         - 4.2778897925655368e-02
         - -2.4518882105732695e-03
         - 3.1339236340757852e-02
         - 9.3934665267662726e-03
         - -1.4012552897081233e-02
         - 9.9175759697594477e-03
         - 2.4938500632063654e-02
         - 3.0984274830683969e-02
         - -6.4213035006899424e-03
         - 3.4564568394233726e-02
         - -4.0491709733112446e-02
         - 2.4808374202731687e-02
         - -9.5179593547660684e-03
         - -1.1696576871611727e-02
         - -1.2400443584465870e-02
         - 2.5727754550587296e-03
         - 1.2749156044939055e-02
         - 2.2601069406911556e-03
         - -3.6858047226668144e-03
         - 2.0359835444303104e-02
         - 2.4818217168305217e-02
         - -4.4622090350075576e-03
         - -5.3785472743057063e-05
         - -6.0748049022542935e-03
         - 3.3300222119983139e-02
         - -1.1864204269035164e-02
         - 4.5137933482306070e-03
         - 2.5634569476914947e-03
         - 4.0669686571760131e-03
         - -1.2718835651570054e-02
         - -2.4167125402186282e-02
         - 2.2716492914503155e-02
         - 4.9156973436801747e-03
         - -4.3650104528403927e-03
         - 1.9816993474546288e-04
         - -9.6615568454588244e-03
         - 9.1931282381361012e-03
         - 3.6662595422000795e-02
         - -3.1660978637200410e-02
         - -8.1605367054803594e-03
         - 5.0082669961658954e-03
         - -2.0588764711319183e-02
         - 2.4560359373774054e-02
         - 5.2646341423462868e-02
         - 1.4159033218364746e-02
         - 2.8529316675019400e-02
         - -2.8112996726137016e-02
         - -4.7211000937495126e-02
         - -3.6544107345837601e-02
         - -2.9844965805720616e-02
         - 2.6015962115637833e-02
         - -4.7770822324304935e-03
         - -9.4114351837472719e-03
         - -5.1722344858807244e-02
         - -2.8058721698497185e-02
         - 3.9713995127538496e-02
         - 8.0817097847340980e-02
         - -1.6239623750296004e-02
         - -1.5901209787986544e-02
         - -4.0376307064091885e-02
         - -3.8681913610579127e-02
         - 2.1527587276677737e-02
         - 1.7747874826484430e-02
         - 2.8642844592752983e-02
         - 5.5964999686364874e-03
         - -9.1944145313028313e-03
         - -6.2464521109488857e-02
         - 1.6922259192272002e-02
         - 2.3424443920201380e-02
         - -4.5050762687713714e-02
         - -3.2178519113001703e-04
         - 4.5241869063706010e-02
         - -2.4011306076225796e-02
         - -7.2385460136624794e-02
         - 3.0987815248619599e-02
         - 1.4580170767220816e-02
         - 1.6307163811299905e-02
         - 4.3920004631098727e-02
         - -2.7519771929837892e-03
         - 3.2712646402680075e-02
         - -2.5922677877149820e-02
         - -4.2961785886363187e-02
         - -1.0233067199639574e-02
         - 1.4459096927847031e-03
         - 3.2826287109670928e-02
         - -3.2242392258264467e-02
         - 4.7634384366484093e-03
         - -3.9001482824982593e-02
         - -3.8625695627678565e-04
         - 6.8649382937150862e-03
         - 3.4042991819941679e-02
         - -1.1186625128922488e-02
         - 1.8247067163842175e-02
         - -1.0672585781894133e-02
         - -3.9273060241770540e-02
         - 2.3236911824290715e-02
         - -1.1424207924958548e-02
         - -2.8910629696901088e-03
         - -1.6953741976796753e-03
         - 1.1292395134837206e-03
         - -8.1626205130970429e-03
         - -1.3569249673927853e-02
         - 1.6305201016455217e-03
         - -8.8206132686791099e-03
         - 2.0450614192803387e-02
         - 4.5964044416478153e-02
         - -1.0132638700085636e-02
         - -3.3417266944298897e-02
         - 2.0779469368281893e-02
         - 1.4480902132649335e-02
         - -3.1948238293658476e-02
         - 2.0892389481324412e-02
         - -4.6240297717301482e-02
         - 3.5780917718933374e-02
         - 6.9319536069011867e-03
         - -4.1312832208564340e-02
         - -8.6957287990309887e-03
         - 2.6963598147507182e-02
         - 1.8136203203794238e-02
         - -1.2715696854134304e-02
         - -7.2306117322325347e-03
         - -5.9177768332519792e-03
         - 1.3561077824191480e-02
         - 1.0649268026069565e-02
         - 7.9794875696362535e-03
         - -1.5604675170087005e-02
         - 1.6526937756027513e-02
         - 1.4029121576684681e-02
         - -1.3231359326408884e-02
         - 1.0667376719180041e-02
         - 7.3248883428219237e-04
         - -1.3651393109705215e-02
         - -1.5009331234187248e-02
         - 3.6187605833213114e-02
         - 1.0398059937884091e-02
         - -8.9942162689999796e-03
         - 5.1223737317580122e-03
         - -5.7033474835132894e-03
         - 3.2606530815455274e-02
         - 1.4400665657116354e-03
         - -1.5804761923153918e-02
         - -2.3172460215139788e-03
         - 1.7100173634057834e-02
         - 1.0061470545156001e-02
         - 1.7337103805336849e-03
         - -4.8092662320920083e-03
         - -5.7792438654919571e-02
         - 2.6001492761565499e-02
         - 9.4069940056780744e-03
         - -1.0625740672673774e-02
         - 2.2891498059541566e-02
         - 3.6036778667140446e-02
         - 1.0756444637469690e-02
         - 9.4045986846576181e-04
         - 4.7609282046603080e-03
         - -2.4543481272819964e-03
         - 2.7646171044386506e-02
         - -2.5011828642088878e-03
         - -1.8325627739212254e-02
         - -1.2272714163118433e-03
         - 2.9062182632606164e-02
         - 2.1396507970751082e-02
         - 2.1997332015125350e-02
         - -6.2844065993875806e-03
         - -3.8946994554754375e-03
         - -4.6846376872763308e-02
         - 7.2819138093829913e-03
         - 2.3411782021826349e-02
         - 2.5436740646741602e-03
         - -2.6692444363543292e-02
         - -2.4217616409371288e-02
         - -5.5832116939086079e-03
         - 3.5538012622157701e-02
         - -2.5492109452053508e-02
         - -5.0715951662121325e-03
         - 1.8685754374879009e-02
         - 2.0194888904343910e-02
         - 7.4060796615556300e-03
         - 2.0794120961584516e-02
         - 8.7597937185722504e-03
         - -6.6250166130207830e-02
         - 2.7687343076654481e-02
         - -1.5405895076025992e-02
         - -1.2731411080474648e-02
         - 3.4191937895682055e-02
         - 1.1115149230536293e-02
         - 2.7615520274655973e-02
         - 1.2528652536283933e-02
         - 3.2200940850475151e-04
         - -2.6933048220314161e-03
         - 1.8421540459250194e-02
         - 1.3396636861925706e-02
         - -2.0298305382988453e-02
         - -1.5492832393664157e-02
         - 4.4547990149332251e-02
         - -3.3823431130661857e-02
         - 2.2441814146384107e-02
         - -2.7240367077551966e-02
         - -8.8817848398726282e-03
         - -3.2165328273244684e-02
         - -9.2772780638130919e-03
         - 6.3238487100565038e-02
         - -9.8888679313956802e-03
         - -2.4894919331015314e-04
         - -3.5317973776011757e-02
         - -3.1876674106977608e-02
         - 8.8484661860576044e-03
         - 1.6323820149853599e-03
         - -1.9689697784677399e-02
         - 8.2177781225818026e-03
         - 1.6714650527002495e-02
         - -3.6261544271327531e-03
         - 1.8472841110307098e-05
         - -1.2952311244974323e-03
         - -2.9058111631905095e-02
         - 1.3542527871699253e-02
         - 1.8311024305964246e-02
         - -2.4216965762383174e-02
         - 2.0588434724016214e-02
         - 1.5135136111087900e-02
         - 8.7666901723419382e-03
         - 6.8956797621754374e-03
         - -1.3727118990470123e-02
         - -5.4436569466686201e-03
         - 1.1794196098092785e-02
         - 2.6898347475929296e-02
         - 1.0132072447491286e-03
         - -8.5048128411963873e-03
         - 1.0525738709585024e-02
         - 5.9897599753626343e-03
         - 1.8506597684741936e-02
         - 2.1817485298199933e-03
         - -2.1221779798725718e-03
         - -5.0314839551905050e-02
         - -3.3760421862223005e-04
         - 1.9764516556130859e-02
         - 1.4801697224931049e-02
         - -2.8563307025716595e-02
         - 8.0855767977302175e-03
         - 1.9701281857517883e-03
         - -5.7272463511692960e-03
         - -1.4050962430715961e-02
         - -4.8065106589863038e-03
         - -1.0824283096207974e-02
         - -3.1205234395923740e-02
         - 1.0689530694573091e-02
         - 3.7666068516260219e-02
         - -9.6273582923240564e-03
         - 1.8430783663744784e-02
         - -3.6697541303501287e-02
         - -7.0464125416616463e-03
         - 3.5173069896099807e-02
         - 1.1771898954208552e-02
         - -2.8836969867029544e-03
         - -2.5953956570056370e-02
         - 1.1137471466177688e-02
         - -1.9077531040557226e-02
         - -3.6403904864337797e-02
         - 8.3305799574699621e-03
         - 4.1850476673790382e-02
         - 2.8088979284163346e-02
         - -1.5142932708001963e-04
         - -7.3596711667201567e-03
         - -4.8761773259698655e-03
         - 1.4339134337639186e-02
         - -4.9533477189575632e-02
         - 8.4613423222918848e-04
         - 3.2997373679291620e-03
         - 3.8963993968770703e-03
         - -6.0368117955104167e-03
         - -4.5446029817330360e-03
         - -2.4778652234948389e-02
         - 2.1687367766814649e-02
         - -2.2365527767061362e-03
         - -2.2939027145244772e-02
         - -1.1140899423889872e-02
         - 1.0058740773970815e-02
         - 4.0038947478503867e-03
         - -6.1572896263131012e-02
         - -5.9124725459510370e-02
         - 1.8446935087219197e-03
         - -5.9335779452068971e-02
         - 2.9927332500991884e-02
         - -5.8830317949076338e-02
         - 5.9942375080085132e-02
         - 3.3878809667436165e-02
         - 3.1886268119548880e-02
         - 2.1699511023866431e-02
         - -2.6213491280033353e-02
         - -7.4902975680887713e-03
         - 2.0585071465184124e-02
         - 1.6906601135123052e-02
         - -2.6010824120958551e-02
         - 4.2224541110181171e-03
         - -5.4673994644541682e-03
         - 4.6215350728080071e-02
         - -3.7338105763078548e-02
         - 2.3295210635160202e-02
         - 4.3150009754750938e-02
         - -7.8325150738551744e-02
         - -3.9733881732333852e-02
         - 9.9308725960088572e-03
         - 2.7104607785457167e-02
         - -4.9810583668348394e-03
         - 4.4691234468885802e-02
         - 3.4472489725761259e-02
         - -2.3104325151535238e-02
         - 2.5550506420161170e-02
         - -5.0169747804967586e-02
         - -3.4482513333478376e-02
         - 2.6243319388676790e-02
         - 5.6579925018107963e-02
         - -1.9496957041727610e-02
         - -5.8798544513456591e-02
         - -3.9469186798223317e-02
         - -5.7612099126126221e-02
         - 2.5893051971483932e-02
         - -3.7266427571053154e-02
         - 5.0760039577601584e-02
         - 3.3273981021470375e-02
         - 3.2427527784873039e-02
         - 1.5964230850494178e-02
         - -4.2423957695436894e-02
         - -1.4755330947782728e-02
         - 2.0918181196152328e-02
         - 3.8457313170572084e-02
         - -3.4622354415583124e-02
         - -2.9850545404004999e-02
         - -4.1961386857323549e-02
         - 2.7058146711433674e-02
         - -2.9775913270996036e-02
         - 2.2920589915702994e-02
         - 2.7920820905027243e-02
         - -5.2994096168924379e-02
         - -2.7742405810758507e-02
         - -1.0936125093788205e-03
         - 3.0409423115982572e-02
         - -2.0569281581360087e-02
         - 5.5136548717863693e-02
         - 1.2990533273501951e-02
         - -9.8551995510598196e-03
         - 4.0265401365321099e-02
         - -5.0283618572630306e-02
         - -5.8299329209628263e-02
         - 3.0979657339205900e-02
         - 4.4952825507684514e-02
         - -1.3621311076170850e-02
         - -1.2175914854982343e-02
         - -3.1871639311070822e-02
         - -2.8968111412489027e-02
         - -1.0443611558961464e-02
         - -1.3468064327235052e-02
         - 3.6430210988926723e-02
         - 4.5237032885491475e-02
         - 2.6242006380081940e-02
         - 2.6690342054204091e-02
         - -1.2825856995678309e-02
         - -1.6444833372801986e-02
         - 1.0518226623110145e-02
         - 4.5600738458910606e-02
         - 3.2771551976598732e-03
         - -2.7501438103787943e-02
         - -6.8546583823741639e-02
         - 3.8390295547264482e-02
         - 8.8986537066355655e-03
         - 4.8917316814348757e-02
         - 3.6127085011560055e-02
         - -4.6701793482407945e-02
         - -1.3721516167024961e-02
         - -2.5654267633116686e-02
         - 3.7408499533538753e-02
         - 1.1845013472061114e-02
         - 4.7395921027004351e-02
         - -4.3592643017609832e-03
         - -2.2591821935034541e-02
         - 4.1102803803993622e-02
         - -4.9299026476777377e-03
         - -5.5718481774814942e-02
         - 2.5420965605558930e-02
         - 7.1884778913208158e-02
         - -2.8850586358019584e-04
         - -3.8835461972886953e-02
         - -3.0779615613713725e-02
         - -2.5067219814238064e-02
         - 1.5109722398978263e-02
         - -3.1870765988992369e-02
         - 2.7147041481853616e-02
         - 2.7965768965576041e-02
         - 1.1301058350851488e-02
         - -1.2133468614749751e-02
         - -2.0056844409121956e-02
         - 8.1114816774007434e-03
         - 2.3404302128717878e-02
         - 4.1223897028211380e-02
         - -3.1974155000202849e-02
         - -2.4255681701345441e-02
         - -1.8299123803427381e-02
         - 2.3586214428126598e-02
         - -1.5461098617435750e-02
         - -5.8966460834863101e-03
         - 4.3146960724359633e-02
         - -1.6452951471305207e-02
         - -4.4168195635379747e-03
         - 6.3489428773322214e-03
         - 3.7491785474713789e-02
         - -2.1737647314436774e-02
         - 1.0343834277857480e-02
         - 1.5866890408349189e-02
         - -2.2766165875054211e-02
         - -1.0364957109846843e-02
         - 1.2913757152091006e-02
         - -3.4145144313607594e-02
         - 2.4975880643164441e-02
         - 2.6052331255385908e-02
         - -6.7964324537880982e-02
         - -7.9168379197157926e-02
         - -2.0394987256458021e-02
         - -3.3521377111775746e-02
         - 6.3660366725715126e-03
         - -4.9875370355338081e-02
         - 1.3311912597449488e-02
         - 6.1548454932690164e-02
         - 3.8616516071825861e-02
         - 1.4330444368079412e-03
         - -5.7563827805771475e-02
         - 3.3393698006329867e-02
         - 4.8099048493700572e-02
         - 3.5406294621451943e-02
         - -1.7481790533090007e-02
         - -2.9201541796254005e-02
         - 5.9109616281445348e-03
         - 3.1516705686283737e-02
         - -5.4632899788951021e-02
         - 1.0768658000681181e-02
         - 4.0183858394179595e-02
         - -5.2390465288798614e-02
         - -6.6738203033419518e-03
         - 1.1051706733094156e-02
         - 1.6866842714053511e-02
         - -2.6334128283351192e-02
         - -1.1800185541700208e-04
         - 1.3431858372445869e-02
         - -2.7835897040592413e-02
         - 1.3752769733052774e-02
         - -5.1331549892033937e-03
         - -4.6456228525121296e-02
         - 2.2395447962344297e-02
         - 3.7709424911575820e-02
         - 3.7592909922883196e-04
         - 2.8447433503604170e-02
         - 1.7839553144942944e-02
         - -7.4690981189011706e-03
         - -4.0093227423349871e-02
         - -7.1541433694882681e-03
         - 2.5636102851726593e-02
         - -3.6994459079001486e-02
         - 1.5353931374905096e-02
         - 3.1080577365183489e-02
         - 7.9199839961229812e-03
         - 7.7986491974077693e-03
         - -4.7926615181373977e-02
         - -2.2280827561625551e-02
         - 5.3202510059203782e-02
         - 3.8233687232962624e-02
         - 9.2860680281262979e-03
         - -4.5769416003755330e-02
         - 5.7404613931869172e-02
         - 3.8763172110032641e-03
         - -7.1641555096812748e-03
         - 1.8119138400639261e-02
         - 3.9977475943585986e-02
         - -4.9163192424352617e-02
         - -3.4661167938152666e-02
         - 4.3445619587688201e-02
         - 1.9935129884435791e-02
         - -5.1807943763658139e-02
         - 1.2444516057694288e-02
         - 1.0361196364270332e-02
         - 5.2881803475622588e-02
         - 4.3033920076679562e-03
         - -8.3755885559900142e-03
         - 2.6156314162255013e-03
         - 1.4466095680997488e-02
         - 6.4366236793840376e-02
         - 2.3265103576699978e-02
         - 1.5177154102272815e-02
         - -1.0227588236429462e-02
         - 6.1607954959050663e-03
         - -2.2433741607908085e-02
         - -3.6616470434168574e-02
         - -1.7751683043157197e-02
         - 5.8719638387483442e-03
         - 1.5517392193756821e-02
         - 5.7433901539147778e-03
         - -1.7764167344295832e-02
         - -3.4199741427195049e-02
         - 3.4055773505139095e-02
         - 2.7201307021389547e-02
         - 2.6131616889955685e-02
         - -3.5606115498372198e-02
         - 4.1554239566784452e-02
         - -1.2804751724416917e-03
         - -1.6071542581053797e-02
         - 3.6615313358197704e-02
         - 2.7602231643174137e-02
         - 6.0956455899126086e-03
         - -5.2038692197802980e-02
         - 2.4924676118152377e-02
         - -1.2284487169517340e-02
         - -3.3092768408703309e-02
         - 2.5391417064436352e-02
         - -2.0593147945658696e-02
         - 4.3193376219390012e-02
         - 5.3745313586135357e-03
         - -1.3859781847258489e-02
         - -1.0568681644866558e-02
         - 1.2151525895603541e-02
         - 5.7135421795015351e-02
         - 4.4427726869962908e-02
         - 1.4342419420108721e-02
         - -1.4743605135098131e-02
         - 8.0921044988919826e-03
         - -1.7273455458685635e-02
         - -1.4941822215651311e-02
         - -2.8803264258555664e-03
         - -1.3301462584377926e-02
         - 3.7577212812646803e-03
         - 6.9319880889254452e-03
         - -2.4323029856046237e-02
         - -2.4992931506829017e-04
         - 1.5940063212679122e-02
         - 1.7514232314985157e-02
         - 6.1856197422675173e-03
         - -1.0591188611513371e-02
         - 5.0740521723494601e-02
         - 6.0980914486946048e-03
         - -7.4161637080996960e-03
         - 3.5640371643112692e-02
         - 3.8313348794915103e-02
         - -1.0075189127203656e-02
         - -3.5636353671157327e-02
         - 2.7930586759432288e-02
         - -8.0802037422232301e-03
         - -3.9048805000298989e-02
         - 3.5243490794005260e-02
         - -4.9869986284527511e-03
         - 2.7896422310254090e-03
         - 1.1870502973994751e-02
         - 5.5371706682315527e-03
         - -5.3238726042794081e-03
         - 1.8126169913568808e-02
         - 3.9835914484797091e-02
         - -1.2034257937502449e-02
         - 2.3929046624774627e-02
         - -1.5740162933217356e-02
         - 3.4262458437890150e-02
         - -2.7768571931704438e-02
         - -3.7061989975937334e-02
         - -2.9269719172426590e-02
         - 1.7056324478151579e-02
         - 3.2290661087556335e-02
         - 5.5351085850286526e-04
         - -1.2424934686100581e-02
         - 3.3352858484893902e-03
         - 1.3228001646621310e-02
         - -3.8767840894788430e-03
         - -3.8216697070382736e-03
         - -1.8932423247471089e-02
         - 3.3331824708070300e-02
         - 9.5322290145343613e-03
         - -2.2759151528866966e-02
         - 3.9912570228010362e-02
         - 1.5593219428569293e-02
         - -1.4420258323751770e-02
         - -4.2800401678809941e-02
         - 1.6040435864519510e-02
         - -4.5197331770806936e-03
         - -1.2746823088416386e-02
         - 3.1187861580440148e-02
         - -1.2833160676963112e-02
         - -2.0391514652093059e-03
         - 5.0791076038798830e-02
         - -3.0875515102957756e-02
         - -4.2204881381999446e-02
         - 1.5388258287054037e-03
         - 5.2862991740889147e-03
         - 2.7342125301141247e-03
         - 5.0020693889991807e-02
         - 1.8062365966410750e-03
         - 1.6365282796680109e-02
         - -2.9220635895428941e-02
         - -3.7832155034566578e-02
         - -6.0992547471713510e-02
         - -1.8440862305408624e-02
         - 3.5050312210234615e-02
         - -9.7187998733111926e-03
         - -6.1488921120025899e-03
         - -1.5451188272483435e-02
         - 7.3869102938468618e-03
         - 6.8563282278246672e-03
         - 5.5426378200499296e-02
         - -1.4672156533386360e-02
         - 1.4166853123210149e-02
         - -1.0309116413073319e-02
         - -5.1450443425202080e-02
         - 2.9640169904879405e-02
         - 1.2687574194139213e-02
         - 2.4023595893220260e-02
         - -2.6578455291670057e-02
         - -1.0866822209638428e-02
         - -3.2357977388342681e-02
         - -1.4378742161164736e-02
         - 2.1713363803950430e-02
         - -2.6003607294891019e-02
         - 9.8454442808113794e-03
         - 6.5402201124510576e-02
         - -4.1116836140896770e-02
         - -5.2412983801307170e-02
         - 3.5513223939082288e-02
         - 3.5494891239237387e-02
         - 2.9632921316430569e-02
         - 3.1010197141594770e-02
         - -4.3237569901509017e-02
         - 1.9552961388340642e-02
         - -4.3286386745034523e-03
         - -3.7338754677785559e-02
         - -2.3019422650960093e-02
         - 1.2411337684061795e-02
         - 2.1956769201410938e-02
         - 1.1324234222157160e-02
         - -1.7856872348792779e-02
         - -4.2312097583180018e-02
         - 2.6785684557520711e-02
         - 1.3660175364029243e-02
         - 2.5273937961331639e-02
         - -2.2081493931306727e-02
         - 1.0424874060359293e-02
         - -1.7428901694080852e-02
         - -2.5963996970021906e-02
         - 3.0386725563455601e-02
         - -5.2991180675689134e-03
         - -1.2927088070682154e-02
         - 2.6254675040822059e-03
         - 2.1482824516681490e-02
         - 1.3850424326287349e-03
         - -1.2378692851656303e-02
         - -1.2610404969356552e-02
         - -4.7989636804657100e-02
         - 5.3096971457431780e-02
         - -1.6147196793462270e-03
         - -2.1711126540485317e-02
         - -4.0149911126117661e-02
         - 1.1687545136463350e-02
         - 3.7871766861198912e-02
         - 3.8565580338772842e-03
         - 1.4958774445721877e-02
         - -3.2007313386342565e-02
         - 2.7180531053733154e-02
         - -1.0907163227439858e-02
         - -4.0575371376104293e-02
         - 1.9810566245312473e-02
         - 4.8677805622909165e-03
         - 2.8947565421597789e-02
         - 1.5592972273363656e-02
         - -2.5416257270111615e-02
         - -1.4710176908466504e-02
         - 2.5363811156069144e-02
         - 1.2133258141895165e-02
         - 6.0457638614901639e-03
         - -4.0442407783962894e-02
         - 2.0826484985565739e-02
         - -1.5435998241280651e-02
         - -9.9742369491124180e-03
         - 1.4776098661361444e-02
         - 2.3542653874160523e-03
         - -3.4780677989571143e-02
         - 3.2113557492751169e-04
         - 3.2875549139372219e-02
         - 2.4785035872765113e-04
         - -3.0016632104230039e-02
         - -2.0844933256275689e-03
         - -2.0701401186919398e-02
         - 4.2323733311939851e-02
         - -3.3136534582775190e-03
         - 1.9054941611338029e-03
         - -2.4741547287213311e-02
         - -4.8796260690689656e-03
         - 5.9600781531443710e-03
         - 6.3962560693053136e-03
         - 2.9006894838703359e-02
         - -1.8595874462155437e-02
         - 1.2339488592262018e-02
         - 9.3457491241160477e-03
         - -2.4441660241802065e-02
         - -1.3093968956261576e-02
         - -3.4320300288523324e-03
         - 2.3688862847870310e-02
         - 9.9735221021875342e-05
         - -1.7267826747103216e-02
         - -4.5977532915291389e-03
         - 2.2964379886980538e-02
         - 1.0376026642515468e-02
         - 1.8463920139000833e-02
         - -1.6715054406217542e-02
         - -7.8459863165750762e-03
         - -6.2061314367697238e-03
         - -5.7461630216508316e-03
         - 2.4809091723330397e-03
         - 3.7628302904133000e-02
         - 4.4928179886911312e-03
         - -1.2597662219172481e-02
         - 1.2468719910368643e-02
         - -1.4220173793872637e-02
         - -3.5629213326599955e-02
         - 6.1866142276293329e-03
         - -5.3753793211337615e-03
         - 5.4421296925850340e-03
         - 7.5162567707054775e-04
         - -3.0055482524423457e-02
         - -2.4660883259984509e-03
         - -2.2056351338186873e-02
         - -2.1875164678836150e-02
         - -4.4920539320719302e-03
         - 5.7577529644217773e-03
         - -2.1346083046710807e-02
         - -1.9434213067800851e-02
         - 7.9470748320163709e-03
         - -1.6673970182254159e-02
         - 1.4712885074210659e-02
         - 7.9258127493165922e-03
         - -1.6364137002719849e-02
         - 1.6849827985885085e-03
         - 3.7412442098445089e-03
         - 2.0504209900517392e-03
         - 2.4952602257365255e-02
         - 5.9270084832257729e-03
         - 2.4887655242771353e-02
         - 4.3611699281290951e-03
         - 1.1322386774242299e-02
         - -1.8204670918859429e-02
         - -1.7729946042464091e-02
         - -3.4712097209894030e-02
         - -2.6057064706538589e-02
         - -6.6662769502686672e-03
         - -8.7247541482134289e-03
         - -3.3461028759843212e-03
         - -2.3725758443127630e-03
         - -1.2177164141357074e-02
         - -2.4177558244067908e-03
         - 1.7371276720730754e-02
         - -8.4948773540311599e-03
         - 1.2126022085861506e-02
         - 1.7275518246892090e-02
         - 7.7745540735692691e-03
         - -3.6734435846161761e-02
         - -2.5906955367771472e-02
         - 2.5976029843895777e-02
         - 9.7177100717927081e-03
         - 1.9438889133779527e-02
         - -4.8085411837501375e-02
         - -1.9310152211883435e-02
         - 2.3517467172671908e-02
         - 1.0648193571317405e-02
         - -2.6796394081522130e-02
         - -2.0639666991963599e-02
         - -1.3962380165884974e-02
         - 1.2284608306752810e-02
         - -8.9407193531613575e-03
         - 6.9027935589474629e-03
         - 2.4515581617100959e-02
         - 1.7646262695464834e-02
         - 1.8939230700659060e-02
         - -8.2710312674616239e-03
         - -3.6463157258932212e-02
         - -2.7416151401712371e-02
         - -4.6185117393522351e-02
         - -4.0340510119376546e-02
         - 7.7843916336649069e-03
         - -2.2239068870102416e-03
         - 8.6747779188124912e-04
         - -2.6130691858087644e-02
         - 2.1787734235602162e-02
         - -1.6696005588768058e-02
         - -2.1098363897953588e-02
         - -5.8938108137454263e-03
         - 1.0011888670873376e-02
         - 1.2731655588943319e-02
         - -6.7730289745561391e-04
         - -2.7093246423899795e-02
         - -1.2897184571973917e-02
         - 8.4684805698486951e-02
         - 2.8812833477516323e-03
         - -1.9189637107108264e-03
         - -3.6968939597891270e-02
         - -3.8414817040640960e-02
         - 4.9933452915948313e-02
         - 2.0442776117933759e-02
         - -4.6910078223428756e-02
         - -4.8067441873787538e-02
         - 6.7602316535643733e-02
         - -3.5911778963243851e-02
         - -5.0681825197384407e-02
         - -1.0324371371337611e-02
         - 7.0579758839331735e-02
         - 3.3871284863920874e-02
         - 7.1387914355689240e-03
         - -2.0127846507174370e-02
         - -5.5292902589187412e-02
         - -3.6450619354650945e-03
         - -5.8153030203358040e-02
         - -1.9605981609065381e-03
         - -1.4538882311699596e-02
         - 2.5116914420235031e-02
         - 3.7277572551119881e-02
         - -5.9435990418168341e-02
         - 5.6477731209465046e-03
         - -5.2723048906133030e-03
         - -2.1298519339017247e-02
         - -2.1832559906408845e-02
         - -2.1928885231048661e-02
         - 1.7178713462459992e-02
         - -8.7338734549107355e-03
         - -5.8399687360949221e-02
         - -3.7575253297369181e-02
         - -1.9819925612430500e-03
         - -1.3747515546138504e-02
         - 4.0465010043609820e-02
         - -6.3020379453134032e-02
         - 1.8392299573659277e-02
         - 2.9537565638392261e-02
         - 2.2710670930720114e-02
         - -1.2434213207310753e-02
         - -4.9007093875382962e-02
         - -3.4237412319333442e-03
         - 1.9667797266176453e-02
         - -2.0024176241835649e-03
         - -3.2245551355961785e-02
         - 1.3869261468315977e-02
         - 1.8785802017298490e-02
         - 3.0654437537176608e-02
         - -3.6037248966455875e-02
         - -1.5483402501695531e-02
         - 1.4464423515587041e-03
         - -6.7740522530712305e-02
         - -4.0893750877412774e-02
         - 1.8209885773315171e-02
         - 4.0193883914998695e-02
         - -8.3363704049843057e-03
         - 8.8183277045789567e-03
         - 2.9002965796196940e-02
         - -3.4300406594482899e-02
         - 1.2409221744729276e-02
         - -2.5270554451502770e-02
         - 1.2917835858067904e-02
         - 3.2809825917919297e-02
         - 2.9632174912526468e-02
         - 3.7019396190489065e-02
         - -2.1769785431361471e-02
         - -5.7607064612037583e-03
         - 2.8782112484268409e-02
         - -1.5484781542846160e-02
         - 2.1374109777262756e-02
         - -9.9650447075078016e-03
         - -2.8792919518741389e-03
         - -7.0586673536714006e-03
         - -2.4054252546965384e-02
         - 9.4811766871000375e-03
         - -1.3788621711452889e-02
         - 1.8546037760569265e-02
         - -2.5165898821785035e-03
         - -3.3663501181855113e-02
         - -9.7334252057013201e-04
         - -7.9239211177690380e-03
         - 3.8270799743049158e-02
         - -3.0146611191472893e-02
         - -1.5775623449553723e-02
         - -6.4224373119880877e-03
         - 1.7383270935817032e-03
         - -4.0072611427424132e-02
         - -3.2858905343476487e-04
         - 2.3580048439448817e-02
         - -1.7397051430871009e-02
         - -9.9454485901665449e-03
         - 2.0152748944006094e-02
         - -1.2541514666220655e-02
         - -7.9023315573706239e-03
         - -3.0345860153225868e-02
         - -1.0378872209814949e-02
         - 2.1279794324232030e-03
         - -2.8938010854621384e-02
         - -2.2597052311887030e-02
         - -2.9091813352446053e-02
         - 1.4584076049258183e-03
         - 2.3328459524428807e-03
         - 1.2690582014216502e-03
         - -1.2612177994635957e-02
         - 1.6339886743262751e-02
         - 1.0811528295746380e-02
         - 3.1390119825363363e-03
         - 1.8323580232497468e-02
         - 1.2454217185044083e-03
         - -2.2294868238582725e-02
         - 2.7830976476228789e-02
         - 2.2106693769991647e-02
         - -2.1255550942707063e-02
         - -6.8596776492668623e-03
         - -2.5118433247471747e-02
         - 3.3241610479182455e-02
         - 4.6480099324062440e-03
         - 3.5970202482472749e-02
         - 2.3464343013421304e-02
         - -2.5704227007128242e-02
         - -1.3724689894222093e-03
         - -1.4920992215475763e-02
         - 2.4388022753040035e-02
         - -1.6263290045831224e-02
         - 1.7305507715710398e-02
         - -4.3817055096869520e-03
         - -9.5030804480827347e-03
         - 1.1576496827621600e-02
         - -3.4865258078421125e-03
         - -1.7355911572769049e-03
         - 8.7945581935369530e-03
         - -1.6740289834482523e-02
         - -2.8207391589103709e-02
         - -2.6158268304331104e-02
         - 3.0276490762171603e-02
         - -1.5026277068668061e-03
         - 2.4531764180605195e-02
         - -1.8104317854953731e-02
         - 2.1568221920106744e-03
         - 1.6628713192250403e-02
         - -1.0337614572735286e-02
         - -1.6318488521993323e-02
         - -2.0076126337268043e-02
         - 2.3988591098429421e-02
         - 4.4754450039854267e-04
         - -5.9144042211061029e-03
         - -7.9114788357490928e-03
         - 2.5554708418907963e-02
         - 2.5666066598931494e-04
         - 1.1120348795819102e-02
         - -1.9891686975620923e-02
         - -3.7006772896582454e-02
         - 1.6925397132838652e-02
         - -2.5957491296335247e-02
         - 3.4162217378598723e-02
         - 1.2217464713637681e-02
         - 3.0009425397145933e-02
         - -8.0883707287427581e-03
         - -2.6623770590503189e-02
         - 1.3590148229221619e-02
         - -5.8892051353565521e-03
         - -6.9333008256230351e-03
         - 3.1221542317486310e-02
         - -4.5934482191465655e-03
         - 9.9456510021984513e-03
         - -2.3238892457574038e-02
         - -1.4820533059772219e-02
         - -6.6941782614380385e-02
         - -9.9942752164493501e-03
         - -1.7650293841325167e-02
         - 1.0801235813426971e-02
         - -3.0947735155613242e-02
         - 1.7946804817352797e-02
         - 5.4194405346218000e-02
         - -1.5599345113569961e-02
         - -9.4462666237330167e-03
         - -3.9277037273222765e-02
         - 1.4317831300096904e-03
         - 2.5320293492733677e-02
         - 2.0215564831114214e-02
         - -3.2814433364397530e-02
         - -1.3169572566467027e-02
         - 5.1365106284160973e-03
         - 1.9628558212290349e-02
         - -4.9555079268094659e-02
         - -8.4112952171350314e-03
         - 1.3944990731852267e-02
         - -3.3048233779643360e-02
         - -2.0379491590771810e-02
         - 5.2503953240363409e-03
         - 3.5204481430094220e-02
         - -1.7473043002157424e-02
         - 1.9303633706307131e-02
         - 2.2356331095362631e-02
         - -3.2322648221316960e-02
         - 9.2361914972549260e-03
         - -1.3391322599175880e-02
         - -3.6132725240420417e-02
         - 3.0150834138814597e-02
         - 2.5236455558506957e-02
         - 7.5521306245540151e-03
         - 5.0391201731193366e-02
         - 4.1721265258678863e-02
         - -1.3715639520621704e-02
         - -5.0645940375779262e-02
         - 1.7015344525125324e-03
         - -2.5067755899562442e-03
         - -8.3429904186464853e-03
         - 3.0861225145616612e-03
         - 7.8257686203396151e-03
         - 1.3586612642228317e-03
         - 1.4231298976709678e-02
         - -2.7371642729580797e-02
         - -3.0262652446683937e-02
         - 5.6029149008429563e-02
         - 4.6369636100609408e-02
         - -1.2154412009140277e-02
         - -4.9360288561050847e-02
         - 4.5577354957810734e-02
         - -3.4277755997538682e-03
         - -1.9557252265861411e-03
         - 3.0789628043613352e-02
         - 3.5445125541616038e-02
         - -1.3192500558694774e-02
         - -1.0344797394164100e-02
         - 4.5771569404419926e-02
         - -8.1094068144632794e-03
         - -5.1752728013343484e-02
         - 4.8585135006284337e-03
         - -7.1538910391297792e-03
         - 6.0428859859343688e-02
         - -2.4336621875297062e-03
         - -4.3205656028281764e-03
         - -5.5317516087963455e-03
         - -2.4977625049861312e-03
         - 7.7939553129391534e-02
         - 5.6784824485599926e-02
         - -1.9670085986558655e-02
         - -1.4869184804864913e-02
         - 1.4913288542729554e-02
         - -2.9875098080754166e-03
         - -2.3987341453596436e-03
         - -1.1642312969362205e-02
         - 1.2874121229590137e-02
         - -1.2635329642538000e-03
         - 3.3886944159604103e-02
         - -3.3784564898936782e-02
         - -3.2776703334778036e-02
         - 5.3426607135883666e-02
         - 1.8041840985021099e-02
         - 8.1714700665269230e-03
         - -3.9307400877743849e-02
         - 6.3281454585689859e-02
         - 3.3431931479166462e-02
         - 5.8748451870293617e-03
         - 4.0482339584515199e-02
         - 5.8047253818587795e-02
         - -2.3731955975377205e-02
         - -5.4261604473671121e-02
         - 2.6974334103472487e-02
         - 6.7974961418135133e-03
         - -3.9104108433811353e-02
         - 6.5385320433724831e-02
         - 1.2659077850811993e-02
         - 5.6188421958292864e-02
         - -1.5228569115201327e-02
         - 1.3512978228591377e-02
         - 2.1374810258500379e-03
         - 1.6412393532223058e-02
         - 7.7385209224549861e-02
         - 6.4272595974954314e-02
         - -3.0735137263538412e-03
         - -1.1230865077004137e-02
         - 2.2789239657510695e-02
         - -1.5399781891935362e-02
         - 1.5337983488917649e-02
         - -2.2665056805184443e-02
         - -2.7229920652009628e-02
         - 5.7996871551276100e-03
         - 3.3116164482938408e-02
         - -4.2774723757025603e-02
         - -1.0532520806773167e-02
         - 3.7508647333997544e-02
         - 2.6007446033869622e-02
         - 4.0392760492026329e-03
         - -3.5246417021176792e-02
         - 8.7006230056717968e-02
         - 3.3919245338342542e-02
         - 1.1655544984476251e-02
         - 2.5395888410937068e-02
         - 2.5867397202007984e-02
         - -1.0390951251286755e-04
         - -3.4012222941181523e-02
         - 1.5381523634318470e-02
         - -1.5530998453813843e-02
         - -4.6525690814000494e-02
         - 2.9833641142073729e-02
         - 1.3193539200071873e-03
         - 2.2416630164231201e-02
         - -4.1225214290490815e-03
         - 8.9461412121325608e-04
         - -1.7586504995997402e-02
         - 4.5520616407704495e-02
         - 4.1206281418467758e-02
         - -1.4099519612853922e-02
         - 3.7058983261084436e-02
         - -1.2139971652040577e-02
         - 4.6477940643921266e-02
         - -2.2412702834129886e-02
         - -3.1213330141250623e-02
         - -2.4577374818015293e-02
         - 4.4441124739200265e-03
         - 5.5216490198307870e-02
         - 1.3236496266287854e-03
         - -2.5778448493755417e-02
         - -2.0619813692759966e-03
         - 1.2102973337386459e-02
         - -1.7487404083767343e-03
         - 7.1028273373276588e-03
         - -2.8190710629107382e-02
         - 3.6184854628032566e-02
         - -1.2933405733489042e-02
         - -2.4672925253030407e-02
         - 4.4421013904517567e-02
         - 6.9567805229589644e-03
         - -1.7718457847189567e-03
         - -3.0975872539352196e-02
         - -1.1187007075054399e-02
         - -2.1663895408070889e-02
         - -1.9835161332228537e-02
         - 1.0981477579850268e-02
         - -2.5936697883145246e-02
         - 1.2675081090242662e-02
         - 3.3684768685727430e-02
         - -2.5958371238036786e-02
         - -5.2266782636602692e-02
         - 4.6797166965063301e-02
         - 3.6933098165484658e-02
         - 9.6856784283826623e-03
         - 7.1429446067167321e-02
         - 1.0507244672914950e-02
         - 5.2328455342484446e-02
         - -4.1124821662404068e-02
         - -2.3328326848643086e-02
         - -2.3684202453856464e-02
         - -2.3505268361556333e-02
         - 4.6080239110717916e-02
         - -5.6146225602668838e-03
         - -7.9051419019743087e-03
         - -4.6430186532130192e-02
         - 1.9769679563241771e-02
         - 1.1767234526180398e-02
         - 3.4333677842838604e-02
         - -2.1767629636463282e-02
         - 3.8699226039960871e-02
         - -5.3059559244804013e-03
         - -3.1031434996459700e-02
         - 6.1603975304803639e-02
         - 2.3963519709480012e-02
         - 4.9115484313321470e-03
         - -2.2643994176516698e-02
         - -1.8285044832107637e-02
         - -2.4336825361561173e-02
         - -2.6384567420612088e-02
         - 1.4238192088272841e-02
         - -2.6924509070318070e-02
         - 8.8297176764993955e-03
         - 4.6533281742447315e-02
         - -2.9460166566773905e-02
         - -5.5890614448563497e-02
         - 1.9767471125159270e-02
         - 6.2993771308248028e-02
         - 4.1058555533292004e-02
         - 4.3603923495750721e-02
         - 1.6381597347136297e-02
         - 4.5294978197613425e-02
         - -3.3799219506154748e-02
         - -3.0069927570243557e-02
         - -4.8379472637712057e-02
         - -3.5301354365093331e-02
         - 3.9080179444267178e-02
         - 1.6782020989450402e-02
         - -2.0109813451992305e-02
         - -2.7762500749473971e-02
         - 9.2323731050854580e-03
         - 2.0672963206703587e-02
         - 2.4665161817496679e-02
         - -7.1479489043612381e-03
         - 3.8124941496532221e-02
         - -2.8957082922587890e-02
         - -2.0872521044539020e-02
         - 4.7954717635529477e-02
         - 1.8196604226815846e-02
         - 1.8341495172478173e-02
         - -1.1144849688074410e-02
         - 5.4091560608261601e-03
         - -2.8295165835236682e-02
